tree
version=v4
num_class=1
num_tree_per_iteration=1
label_index=0
max_feature_idx=12
objective=regression
feature_names=dash_z speed_score_z explosion_z agility_z weight_z height_z bmi_z bench_z vert_leap_z broad_z age col_enc pos_g
feature_infos=[-2.8806137174118742:4] [-3.6047143802776858:4] [-3.9392599451024024:4] [-4:4] [-4:4] [-4:3.7560357416503045] [-4:4] [-4:4] [-3.9028217091823922:4] [-4:4] [20:28] [0.41066077483440627:0.58915202504475417] -1:0:4:9:3:7:2:1:8:6
tree_sizes=1501 1527 1538 1524 1535 1528 1520 1535 1518 1530 1530 1527 1526 1528 1533 1548 1523 1536 1542 1520 1535 1546 1533 1531 1522 1528 1540 1524 1518 1547 1534 1539 1522 1558 1527 1527 1528 1532 1519 1530 1529 1542 1528 1534 1526 1530 1540 1538 1512 1540 1529 1534 1536 1526 1526 1535 1531 1540 1551 1543 1543 1532 1533 1537 1550 1537 1547 1516 1526 1544 1544 1532 1540 1539 1537 1535 1544 1525 1528 1527 1543 1518 1533 1521 1505 1523 1535 1528 1541 1550 1539 1546 1526 1536 1529 1549 1530 1533 1530 1533 1525 1527 1548 1540 1528 1547 1532 1537 1538 1522 1550 1556 1529 1526 1531 1547 1537 1539 1553 1541 1527 1518 1542 1538 1544 1526 1517 1521 1549 1526 1536 1564 1529 1549 1515 1530 1522 1525 1541 1526 1547 1523 1525 1515 1532 1526 1546 1542 1543 1542 1526 1543 1531 1542 1552 1515 1517 1545 1558 1527 1534 1524 1547 1553 1543 1533 1542 1525 1540 1553 1510 1524 1516 1533 1535 1544 1539 1544 1551 1545 1554 1549 1548 1541 1548 1548 1522 1519 1531 1555 1517 1546 1550 1537 1539 1562 1546 1536 1515 1535 1541 1533 1539 1524 1540 1541 1534 1528 1534 1537 1524 1527 1546 1538 1532 1528 1545 1549 1539 1532 1535 1534 1540 1544 1522 1527 1549 1521 1522 1524 1548 1549 1541 1555 1554 1553 1551 1526 1543 1557 1533 1557 1533 1529 1544 1547 1538 1554 1546 1534 1531 1522 1548 1549 1565 1543 1510 1528 1555 1516 1527 1559 1551 1534 1538 1533 1551 1530 1542 1553 1518 1514 1558 1533 1533 1538 1560 1547 1532 1531 1559 1524 1526 1536 1515 1529 1542 1530 1543 1556 1548 1541 1536 1535 1514 1531 1538 1556 1556 1538 1552 1542 1550 1540 1533 1525 1549 1547 1533 1533 1544 1537 1549 1558 1544 1518 1539 1545 1539 1531 1543 1557 1536 1515 1538 1540 1536 1539 1537 1515 1529 1542 1545 1530 1526 1560 1538 1524 1555 1529 1546 1529 1530 1557 1533 1539 1523 1537 1528 1538 1536 1541 1528 1545 1525 1527 1548 1540 1554 1541 1538 1527 1531 1532 1528 1553 1527 1527 1543 1558 1541 1563 1530 1524 1545 1527 1546 1524 1541 1539 1535 1559 1547 1528 1528 1563 1534 1520 1540 1529 1553 1540 1563 1539 1539 1538 1555 1564 1525 1532 1540 1542 1539 1533 1532 1536 1536 1556 1540 1540 1517 1524 1554 1554 1556 1532 1549 1551 1541 1554 1556 1539 1557 1559 1526 1546 1511 1518 1535 1524 1562 1549 1566 1544 1519 1540 1523 1559 1534 1551 1539 1522 1546 1531 1546 1535 1567 1570 1561 1524 1549 1555 1536 1534 1533 1518 1536 1524 1510 1524 1523 1544 1542 1542 1560 1536 1544 1554 1507 1536 1521 1551 1525 1566 1531 1512 1534 1558 1533 1533 1553 1534 1534 1541 1531 1520 1545 1545 1552 1534 1526 1543 1564 1544 1538 1538 1535 1528 1553 1535 1535 1561 1522 1528 1535 1528 1557 1559 1548 1542 1522 1515 1537 1529 1512 1554 1547 1558 1543 1568 1553 1533 1547 1520 1553 1533 1540 1516 1548 1545 1548 1572 1548 1536 1544 1519 1553 1537 1532 1550 1538 1560 1551 1538 1554 1546 1562 1553 1540 1547 1524 1557 1540 1520 1524 1540 1536 1525 1531 1533 1523 1543 1551 1544 1535 1532 1518 1560 1539 1540 1548 1532 1549 1544 1562 1537 1524 1543 1527 1543 1539 1558 1538 1522 1566 1539 1541 1550 1534 1531 1549 1546 1540 1550 1540 1533 1553 1554 1542 1524

Tree=0
num_leaves=15
num_cat=1
split_feature=10 12 10 10 3 3 3 3 4 11 6 9 6 11
split_gain=1.20158 0.634639 0.895083 0.484664 0.480768 0.444985 0.433293 0.432016 0.381688 0.316628 0.392456 0.308404 0.290001 0.285913
threshold=23.500000000000004 0 22.500000000000004 22.500000000000004 0.51228667451141907 -0.12630369860803434 -0.12630369860803434 0.67250407635570142 0.93538680433155375 0.49545567356541625 0.43981467469424462 0.9415174817985863 -0.51561167763868976 0.49450827027800487
decision_type=10 9 10 8 2 2 2 2 2 2 2 2 2 2
left_child=1 2 6 9 -5 12 -1 -8 13 10 -3 -11 -2 -4
right_child=5 3 8 4 -6 -7 7 -9 -10 11 -12 -13 -14 -15
leaf_value=0.0089829059982698169 0.0090140598012966519 0.0079056880709774489 0.0070138324134336669 0.008379104910045964 0.008984463262155724 0.006818594651943643 0.0081562103746858992 0.009173003179736695 0.0062528646978970235 0.0093126055568060733 0.009286319283427857 0.0084580101974739887 0.0075281684606342582 0.0081272270121039453
leaf_weight=429 81 214 138 2635 650 229 1453 184 81 783 127 215 132 272
leaf_count=429 81 214 138 2635 650 229 1453 184 81 783 127 215 132 272
internal_value=0.00842789 0.0084905 0.00823839 0.0086301 0.0084995 0.00742179 0.00842079 0.00827233 0.00747457 0.00895042 0.00842442 0.00912942 0.00809302 0.00773959
internal_weight=7623 7181 2557 4624 3285 442 2066 1637 491 1339 341 998 213 410
internal_count=7623 7181 2557 4624 3285 442 2066 1637 491 1339 341 998 213 410
cat_boundaries=0 1
cat_threshold=960
is_linear=0
shrinkage=1


Tree=1
num_leaves=15
num_cat=0
split_feature=10 3 10 11 11 3 5 10 1 9 0 3 0 5
split_gain=1.13398 0.676278 0.990769 0.721197 0.526664 0.42169 0.39607 0.351318 0.337138 0.218718 0.255765 0.197224 0.195571 0.194436
threshold=23.500000000000004 0.53240572324126789 22.500000000000004 0.48274098870616161 0.47526317620013042 -0.9776424036788347 0.22759476610275906 22.500000000000004 -0.43779191251218302 0.91000326078653482 -0.85475965002693466 -0.24091458093080445 -0.22760780843662781 -0.70442375523172651
decision_type=10 2 8 2 2 2 2 10 2 2 2 2 2 2
left_child=1 2 3 6 -2 -4 13 -3 -5 -10 -11 -6 -13 -1
right_child=4 7 5 8 11 -7 -8 -9 9 10 -12 12 -14 -15
leaf_value=-0.00057931247028384617 -0.0022076326139448656 0.0007098076022256242 0.00036230936039135495 0.0011202859720928831 -2.6455370356298743e-05 -0.0002452684501919287 -0.0012522398407187163 -0.0003595780159972994 0.00053998455239547699 0.00047795964388790504 -0.00063152837398956763 -0.0016347356787688718 -0.0003291624827743179 0.00068007364434920041
leaf_weight=83 100 863 516 318 150 3737 143 140 1021 168 155 91 94 106
leaf_count=83 100 863 516 318 150 3737 143 140 1021 168 155 91 94 106
internal_value=1.90137e-05 7.87924e-05 1.22598e-06 0.000368532 -0.000966872 -0.000171215 -0.000477219 0.000559498 0.000538404 0.000397084 -5.59681e-05 -0.000569477 -0.000997483 0.000126333
internal_weight=7685 7250 6247 1994 435 4253 332 1003 1662 1344 323 335 185 189
internal_count=7685 7250 6247 1994 435 4253 332 1003 1662 1344 323 335 185 189
is_linear=0
shrinkage=0.02


Tree=2
num_leaves=15
num_cat=3
split_feature=10 10 12 11 7 11 5 12 10 11 9 0 12 0
split_gain=1.17777 0.700908 0.497376 0.493201 0.413699 0.406383 0.332436 0.298399 0.490486 0.603785 0.337011 0.285427 0.228128 0.287681
threshold=23.500000000000004 22.500000000000004 0 0.47526317620013042 0.019689883212350743 0.48147571442721254 -1.0334927023193068 1 22.500000000000004 0.48147571442721254 -0.13430333712074519 -1.3757119656810499 2 -0.024131638092949301
decision_type=10 8 9 2 2 2 2 9 10 2 2 2 9 2
left_child=1 2 -1 -2 -3 12 -7 8 -6 -10 -9 -8 -4 -14
right_child=3 4 5 -5 7 6 11 10 9 -11 -12 -13 13 -15
leaf_value=-0.00059610199085816887 -0.0021837905510592292 0.00012586277735236802 0.00051178395916803149 -0.00060450949586337687 -0.00015003147875129044 0.0013241813882945181 -0.00029521384940294192 -0.00032592644236976493 -0.0020705983805413726 -0.00050599389482843438 0.00040914978475921094 0.00058713007236630452 -0.0011670330924590906 0.00033471814757429579
leaf_weight=181 101 2567 112 339 1055 216 163 493 127 412 495 1249 125 81
leaf_count=181 101 2567 112 339 1055 216 163 493 127 412 495 1249 125 81
internal_value=1.13637e-05 7.24038e-05 0.000377365 -0.00098749 -5.38163e-05 0.000469851 0.000599699 -0.00023235 -0.000399846 -0.000890291 4.21371e-05 0.000484591 -0.000179356 -0.000556238
internal_weight=7716 7276 2127 440 5149 1946 1628 2582 1594 539 988 1412 318 206
internal_count=7716 7276 2127 440 5149 1946 1628 2582 1594 539 988 1412 318 206
cat_boundaries=0 1 2 3
cat_threshold=320 709 152
is_linear=0
shrinkage=0.02


Tree=3
num_leaves=15
num_cat=0
split_feature=10 3 10 11 11 3 5 10 11 0 3 5 11 8
split_gain=1.02198 0.745847 1.05433 0.555728 0.501356 0.463587 0.425951 0.272252 0.429175 0.25333 0.235441 0.230758 0.229316 0.183757
threshold=23.500000000000004 0.51228667451141907 22.500000000000004 0.47526317620013042 0.48147571442721254 -0.9776424036788347 0.22035235766843944 21.500000000000004 0.50181687765770577 -0.16721540120261863 -0.21772727081410354 -0.4116910129306362 0.53745808238308423 0.26395827287671564
decision_type=10 2 8 2 2 2 2 10 2 2 2 2 2 2
left_child=1 2 4 -2 6 -4 9 -3 -9 -1 -5 12 -6 -14
right_child=3 7 5 10 11 -7 -8 8 -10 -11 -12 -13 13 -15
leaf_value=-0.00038701286547901956 -0.0022739356926850286 0.00074389563766302032 0.00036002980345202718 -1.1167098304654896e-05 0.0011291749411283098 -0.00028321100879358929 -0.0011979722086903003 -0.00095296752061195934 0.00065918614622205495 0.0010595806446140525 -0.001037298834072081 0.00032982507144459265 0.00080712207326285755 -0.00045168933403842595
leaf_weight=105 92 758 505 170 358 3727 134 107 156 82 184 1062 98 80
leaf_count=105 92 758 505 170 358 3727 134 107 156 82 184 1062 98 80
internal_value=-4.62639e-06 5.34079e-05 -2.98376e-05 -0.000928105 0.000358445 -0.000206119 -0.000358607 0.000552621 -2.25147e-06 0.000258396 -0.000551542 0.000503153 0.000840352 0.000244481
internal_weight=7618 7172 6151 446 1919 4232 321 1021 263 187 354 1598 536 178
internal_count=7618 7172 6151 446 1919 4232 321 1021 263 187 354 1598 536 178
is_linear=0
shrinkage=0.02


Tree=4
num_leaves=15
num_cat=0
split_feature=10 11 3 10 3 11 3 8 3 3 3 7 9 7
split_gain=0.818435 0.840654 0.701497 0.82755 0.697662 0.444681 0.436273 0.370709 0.355578 0.540283 0.374365 0.356206 0.297022 0.266248
threshold=22.500000000000004 0.46616616888241474 0.51228667451141907 20.500000000000004 -0.66772926546683142 0.47271515966461081 0.15993422165018181 -1.0137604757651804 -0.69424578067905174 -0.26180616175242782 0.013849501204094635 0.59933774661076256 0.42078437539528946 -0.41198077576915565
decision_type=10 2 2 10 2 2 2 2 2 2 2 2 2 2
left_child=2 6 3 4 -1 -5 -2 -3 12 -10 -11 13 -9 -12
right_child=1 7 -4 5 -6 -7 -8 8 9 10 11 -13 -14 -15
leaf_value=0.00051427970533356225 -0.00065088936742373801 -0.0009849070912453955 0.00063743860778022864 -0.0003986559913562802 -0.00034800467839435009 0.00046075603112155389 -0.0021154883874432862 -0.0017507849458258513 0.00056515035501459004 -0.0010532667563687005 -0.0002211946726594938 -0.00059772199250762649 -0.00011356654196825564 0.00076248810834173735
leaf_weight=445 213 192 867 278 2267 1646 134 81 502 180 200 277 93 235
leaf_count=445 213 192 867 278 2267 1646 134 81 502 180 200 277 93 235
internal_value=-1.13466e-05 -0.00034607 0.000117011 1.9101e-05 -0.00020583 0.000335868 -0.00123849 -0.000167112 -6.41612e-05 4.34393e-05 -0.000251683 -4.31037e-05 -0.000903335 0.000312846
internal_weight=7610 2107 5503 4636 2712 1924 347 1760 1568 1394 892 712 174 435
internal_count=7610 2107 5503 4636 2712 1924 347 1760 1568 1394 892 712 174 435
is_linear=0
shrinkage=0.02


Tree=5
num_leaves=15
num_cat=3
split_feature=10 12 10 12 5 10 12 0 5 9 0 10 10 5
split_gain=1.03332 0.642929 0.614904 0.359557 0.31696 0.361992 0.238301 0.230225 0.225474 0.196478 0.189245 0.379625 0.188769 0.173981
threshold=23.500000000000004 0 22.500000000000004 1 0.27407520781517486 22.500000000000004 2 0.1625236047816109 -1.8401490724961544 -0.61868578928276297 -0.48439487767654493 22.500000000000004 21.500000000000004 0.45575136700240171
decision_type=10 9 10 9 2 8 9 2 2 2 2 10 8 2
left_child=1 2 8 -2 5 -3 7 -4 -1 -7 -11 -12 -10 -6
right_child=3 4 6 -5 13 9 -8 -9 12 10 11 -13 -14 -15
leaf_value=0.00097328994041858134 -0.00046039925266687224 0.00073705540035333514 -0.00064056746962269748 -0.0016846651000971043 -0.00045306836642385447 -7.5512688429871694e-05 -0.00099518413875176277 0.00066001182609376886 0.00045469714833260602 -8.2948033718821537e-06 0.00022003935274053161 0.0011330208899671037 -0.00011258552350551861 9.8255771757094687e-05
leaf_weight=84 318 731 141 147 272 628 400 82 258 379 538 273 2174 1315
leaf_count=84 318 731 141 147 272 628 400 82 258 379 538 273 2174 1315
internal_value=2.02702e-06 6.07044e-05 -0.000154794 -0.00090687 0.000224078 0.000362549 -0.000715133 -0.000151688 -1.55159e-05 0.000210355 0.0003609 0.000532428 -5.15956e-05 2.63673e-06
internal_weight=7740 7275 3139 465 4136 2549 623 223 2516 1818 1190 811 2432 1587
internal_count=7740 7275 3139 465 4136 2549 623 223 2516 1818 1190 811 2432 1587
cat_boundaries=0 1 2 3
cat_threshold=964 31 260
is_linear=0
shrinkage=0.02


Tree=6
num_leaves=15
num_cat=3
split_feature=12 10 10 3 10 11 3 12 10 7 11 12 7 3
split_gain=0.840861 0.762531 0.676449 0.530068 0.584837 0.57779 0.459527 0.387034 0.59534 0.356578 0.331348 0.390506 0.427378 0.299415
threshold=0 21.500000000000004 22.500000000000004 0.53240572324126789 22.500000000000004 0.50749939512740061 0.20193756179149039 1 24.500000000000004 1.0000000180025095e-35 0.49530999512335877 2 0.3799218340283233 0.0563077868742261
decision_type=9 10 8 2 10 2 2 9 8 2 2 9 2 2
left_child=1 13 10 6 -5 -6 7 8 -4 -8 11 -2 -13 -1
right_child=2 -3 3 4 5 -7 9 -9 -10 -11 -12 12 -14 -15
leaf_value=-0.0002893691381158073 -0.00056306307623807384 -0.0012319312692512792 0.00023354405302160121 0.00068580357053588093 -0.001707633018934278 0.00055571343760225879 -7.7471771694329237e-05 0.0003858828910720106 -0.00047886138515129499 -0.0007108747500433793 0.00053120979170153152 -9.0266614389872683e-05 0.0016007432232670968 0.0010020452829894056
leaf_weight=367 274 406 859 624 88 84 615 726 1023 842 1418 166 88 84
leaf_count=367 274 406 859 624 88 84 615 726 1023 842 1418 166 88 84
internal_value=-1.70609e-05 -0.00060182 5.77466e-05 -6.83667e-05 0.000402021 -0.000617804 -0.000160858 -1.74061e-06 -0.00015313 -0.000444695 0.000372435 -5.49563e-05 0.000496035 -4.04897e-05
internal_weight=7664 857 6807 4861 796 172 4065 2608 1882 1457 1946 528 254 451
internal_count=7664 857 6807 4861 796 172 4065 2608 1882 1457 1946 528 254 451
cat_boundaries=0 1 2 3
cat_threshold=320 30 517
is_linear=0
shrinkage=0.02


Tree=7
num_leaves=15
num_cat=3
split_feature=10 3 10 11 11 12 1 12 3 7 1 12 3 2
split_gain=0.817595 0.571562 0.680655 0.634891 0.4183 0.402776 0.380636 0.375701 0.302643 0.291277 0.251851 0.229788 0.181448 0.18383
threshold=23.500000000000004 0.55731827687505309 22.500000000000004 0.46850070746080857 0.47690641930163152 0 0.80706173642112766 1 -0.70197996752583669 0.019689883212350743 -0.43779191251218302 2 0.46937357738354263 -0.35795313912544807
decision_type=10 2 8 2 2 9 2 9 2 2 2 9 2 2
left_child=1 2 3 7 -2 -5 -3 -1 -4 -10 -7 -6 -11 -14
right_child=4 6 8 5 11 10 -8 -9 9 12 -12 -13 13 -15
leaf_value=-0.0013109870037051287 -0.0019806713539215672 0.00062174276183702846 0.00024105336362726659 -0.00054772637527217565 -0.0010681593280225511 0.0010347483327734423 -0.00067144880523247754 0.00026783837459009625 -4.1230977681899825e-05 -0.00027922148888499554 0.00039140008853893782 -3.2189595722064207e-05 -0.00033443614648509106 -0.0010893491935510104
leaf_weight=132 94 910 633 147 140 300 97 100 1699 1377 1283 205 263 261
leaf_count=132 94 910 633 147 140 300 97 100 1699 1377 1283 205 263 261
internal_value=2.48558e-06 5.38001e-05 -1.81725e-05 0.000289312 -0.000830479 0.00042132 0.000494473 -0.00068318 -0.000160865 -0.000231772 0.000512967 -0.000493275 -0.000401511 -0.000717194
internal_weight=7641 7202 6195 1962 439 1730 1007 232 4233 3600 1583 345 1901 524
internal_count=7641 7202 6195 1962 439 1730 1007 232 4233 3600 1583 345 1901 524
cat_boundaries=0 1 2 3
cat_threshold=320 771 579
is_linear=0
shrinkage=0.02


Tree=8
num_leaves=15
num_cat=4
split_feature=12 11 7 12 5 3 3 3 7 12 5 3 4 12
split_gain=0.852353 0.571653 0.391408 0.398017 0.32967 0.23453 0.21554 0.494227 0.487422 0.264945 0.205512 0.203895 0.234925 0.193754
threshold=0 0.48147571442721254 0.67815424547446723 1 1.4279658115109959 -0.60818392914135833 0.20193756179149039 0.53240572324126789 0.044682183084058684 2 -0.25302908676459651 0.21590901358299799 1.0901759131120683 3
decision_type=9 2 2 9 2 2 2 2 2 9 2 2 2 9
left_child=10 4 11 -4 6 -5 9 8 -8 -2 -1 12 13 -3
right_child=1 2 3 5 -6 -7 7 -9 -10 -11 -12 -13 -14 -15
leaf_value=-0.00032979414823641311 0.0003717868008377952 -0.00030610804257384341 -0.00037982162335787061 -0.00015853677333619947 -0.0011783444357326032 0.00061552348387067474 -0.00017712111504246983 0.00025163057305175685 -0.0013975883691309157 -0.00029643633297390124 -0.0012335362607040084 0.00046102713643164927 -0.00036996912812947052 0.00028483962483399276
leaf_weight=172 450 238 921 279 138 347 268 285 254 470 255 1302 298 2055
leaf_count=172 450 238 921 279 138 347 268 285 254 470 255 1302 298 2055
internal_value=-4.79285e-06 4.67228e-05 0.000150369 -0.000118475 -0.000254947 0.000267769 -0.000177972 -0.000415464 -0.000778614 3.14694e-05 -0.000857676 0.000257218 0.000154111 0.000222878
internal_weight=7732 7305 5440 1547 1865 626 1727 807 522 920 427 3893 2591 2293
internal_count=7732 7305 5440 1547 1865 626 1727 807 522 920 427 3893 2591 2293
cat_boundaries=0 1 2 3 4
cat_threshold=64 777 649 4
is_linear=0
shrinkage=0.02


Tree=9
num_leaves=15
num_cat=0
split_feature=10 11 10 7 5 10 3 11 5 3 7 3 8 2
split_gain=0.929027 0.581124 0.675432 0.708424 0.580695 0.510692 0.751421 0.489845 0.464011 0.264444 0.261305 0.225301 0.223398 0.180223
threshold=23.500000000000004 0.4694856827732678 21.500000000000004 -0.20082188880577817 -0.37099410993296716 22.500000000000004 0.53240572324126789 0.47526317620013042 -0.31710837788239876 -0.24091458093080445 0.52232364033511025 -0.12630369860803434 0.12007930316104433 0.077074507470429474
decision_type=10 2 10 2 2 8 2 2 2 2 2 2 2 2
left_child=1 2 -1 13 -5 8 10 -2 -3 -9 -7 -12 -6 -4
right_child=7 5 3 4 12 6 -8 9 -10 -11 11 -13 -14 -15
leaf_value=1.9368974737878653e-05 -0.0022012142844467456 0.00081619186239091331 0.00075229516901661846 -0.00019926849707454735 -0.002741354985714511 1.0671644273130006e-05 0.00062281850751893847 6.7283247077574762e-05 0.00016589996200865652 -0.0010290815481953891 -2.4218304150594217e-05 -0.00062108256359930027 -0.0013219912261030898 -0.00051062060866768108
leaf_weight=846 86 709 84 98 103 2314 672 158 1148 192 436 599 106 87
leaf_count=846 86 709 84 98 103 2314 672 158 1148 192 436 599 106 87
internal_value=2.05167e-06 5.65774e-05 -0.000321198 -0.000917919 -0.00148504 0.000141871 1.50476e-05 -0.000889053 0.000415706 -0.000540174 -0.000107653 -0.000370975 -0.00206919 0.000113507
internal_weight=7638 7202 1324 478 307 5878 4021 436 1857 350 3349 1035 209 171
internal_count=7638 7202 1324 478 307 5878 4021 436 1857 350 3349 1035 209 171
is_linear=0
shrinkage=0.02


Tree=10
num_leaves=15
num_cat=2
split_feature=12 7 10 10 11 1 1 2 8 11 10 5 4 12
split_gain=0.836672 1.12978 1.00954 0.891297 0.55987 0.348738 0.455946 0.346483 0.228087 0.221431 0.407099 0.212626 0.185207 0.184507
threshold=0 -0.20082188880577817 21.500000000000004 22.500000000000004 0.47271515966461081 1.0923906675671262 0.31471818218996667 0.56699235217781652 0.072964228877992032 0.47079727713388814 22.500000000000004 -0.31710837788239876 0.68071024829471372 1
decision_type=9 2 10 8 2 2 2 2 2 2 10 2 2 9
left_child=1 -1 -3 7 -4 6 8 11 -6 10 -5 -2 13 -9
right_child=3 2 4 9 5 -7 -8 12 -10 -11 -12 -13 -14 -15
leaf_value=0.00037743746339972842 0.0010824009161431861 -0.00014154976363750865 -0.0024636887438181372 1.7320519919381186e-06 -0.001216712920059864 0.0001512298588545955 -0.0020861206865235037 -0.00025222172859652215 -3.9701671587068622e-05 5.8523523621238906e-05 -0.00089738773411760734 0.00050393306372007297 -0.00065385370413423521 0.00061225836210298959
leaf_weight=581 432 670 121 613 139 93 144 151 122 3270 295 651 99 246
leaf_count=581 432 670 121 613 139 93 144 151 122 3270 295 651 99 246
internal_value=1.51972e-05 -0.000350691 -0.000681786 0.000134622 -0.00126071 -0.000946839 -0.00119776 0.000538838 -0.000677627 -1.82839e-05 -0.000293698 0.000738593 9.96604e-05 0.00029336
internal_weight=7627 1870 1289 5757 619 498 405 1579 261 4178 908 1083 496 397
internal_count=7627 1870 1289 5757 619 498 405 1579 261 4178 908 1083 496 397
cat_boundaries=0 1 2
cat_threshold=832 3
is_linear=0
shrinkage=0.02


Tree=11
num_leaves=15
num_cat=3
split_feature=12 7 5 5 4 12 6 6 3 4 3 5 12 4
split_gain=0.647831 0.834384 0.247497 0.281071 0.229816 0.242522 0.220937 0.22156 0.210027 0.18479 0.177524 0.158571 0.156582 0.164364
threshold=0 -0.20082188880577817 1.3982442253169511 1.8313120550751709 1.3975064446858745 1 0.26903600078961937 -1.0552423255307861 -1.4099919541233743 -0.914131011629434 0.53240572324126789 -0.94439306242600873 2 -0.0096036253395741702
decision_type=9 2 2 2 2 9 2 2 2 2 2 2 9 2
left_child=1 11 8 -4 5 9 7 -7 -2 -3 12 -1 13 -10
right_child=2 4 3 -5 -6 6 -8 -9 10 -11 -12 -13 -14 -15
leaf_value=0.00080797921517736292 0.00070643214051545192 0.00069004967225434191 -0.00078815456117606818 0.00030869816374300629 -0.0011292236454802592 -0.00014783357220402287 -0.00020958159669438222 -0.001066798217301448 -0.00016121746289104677 -0.00025136985297913425 0.00041333355292236099 0.00012766980860477191 0.00027643672931541613 0.00017054685389140546
leaf_weight=167 275 91 229 152 197 138 331 458 1318 636 775 688 1089 1084
leaf_count=167 275 91 229 152 197 138 331 458 1318 636 775 688 1089 1084
internal_value=-2.511e-06 -0.000250285 0.000134061 -0.000352235 -0.000489479 -0.000410109 -0.000621536 -0.000857018 0.0001755 -0.000127875 0.000140487 0.000264474 7.9411e-05 -1.14047e-05
internal_weight=7628 2706 4922 381 1851 1654 927 596 4541 727 4266 855 3491 2402
internal_count=7628 2706 4922 381 1851 1654 927 596 4541 727 4266 855 3491 2402
cat_boundaries=0 1 2 3
cat_threshold=960 384 21
is_linear=0
shrinkage=0.02


Tree=12
num_leaves=15
num_cat=0
split_feature=10 10 3 10 11 5 11 5 3 3 7 1 5 7
split_gain=0.893479 0.515862 0.746383 0.428027 0.401461 0.36578 0.325535 0.33085 0.271591 0.265791 0.218951 0.284491 0.217494 0.210279
threshold=23.500000000000004 22.500000000000004 0.53240572324126789 22.500000000000004 0.47526317620013042 -0.31710837788239876 0.47079727713388814 0.54259743068561128 -0.9776424036788347 -0.21772727081410354 0.7212530578788886 -0.075557187481052779 -0.92067745056137429 0.67815424547446723
decision_type=10 8 2 10 2 2 2 2 2 2 2 2 2 2
left_child=1 5 8 -4 -2 10 7 -7 -3 -6 11 12 -1 -10
right_child=4 2 3 -5 9 6 -8 -9 13 -11 -12 -13 -14 -15
leaf_value=0.00037471325014979621 -0.0019836057581919799 0.00029485166219408174 0.00070251482115550482 -0.00050408755961976108 8.0280104729657371e-05 0.00019015007191844615 0.00025448595994688564 -0.0015296961861045173 -0.00010789088412107277 -0.0010159766407236838 0.0012688995270346199 6.7371656584240579e-05 0.0014780056442935527 -0.00044114348425299845
leaf_weight=148 93 497 710 137 160 88 1107 84 2736 191 186 318 142 1045
leaf_count=148 93 497 710 137 160 88 1107 84 2736 191 186 318 142 1045
internal_value=1.86705e-05 7.26158e-05 -3.5126e-05 0.000505537 -0.000846946 0.000338426 0.000128138 -0.00066926 -0.000142637 -0.000522149 0.000674241 0.000483457 0.000930841 -0.000200457
internal_weight=7642 7198 5125 847 444 2073 1279 172 4278 351 794 608 290 3781
internal_count=7642 7198 5125 847 444 2073 1279 172 4278 351 794 608 290 3781
is_linear=0
shrinkage=0.02


Tree=13
num_leaves=15
num_cat=0
split_feature=11 10 10 3 5 7 10 2 2 3 9 2 7 7
split_gain=0.693238 0.939342 0.586839 0.524115 0.335929 0.325408 0.294694 0.278979 0.385231 0.23541 0.234594 0.369061 0.21753 0.306679
threshold=0.47079727713388814 21.500000000000004 22.500000000000004 0.53240572324126789 0.27407520781517486 -0.081876095568358939 22.500000000000004 -0.6121613766488514 0.78914180427810254 -0.9776424036788347 0.91000326078653482 1.2016488375543035 0.63894507399545064 0.89533079479102984
decision_type=2 10 8 2 2 2 10 2 2 2 2 2 2 2
left_child=1 -1 10 9 7 -6 -5 -3 -9 -4 -2 -12 -11 -14
right_child=2 4 3 6 5 -7 -8 8 -10 12 11 -13 13 -15
leaf_value=1.3025115260028369e-05 0.00049493740925755784 -0.0014911720583141589 0.00029173172051587845 0.00068687237794298555 -0.00063155437926462762 -0.002115893656666729 -0.00030739308728908117 0.0002472814576709785 -0.0013161439347451412 -9.9782933433523511e-05 -0.00067632105954618636 0.00053325009733201189 -0.00082466341365755493 -7.9972963017204419e-05
leaf_weight=940 1458 96 432 521 104 152 151 192 88 2273 191 203 459 425
leaf_count=940 1458 96 432 521 104 152 151 192 88 2273 191 203 459 425
internal_value=-1.48349e-05 -0.000388726 8.1553e-05 -4.7705e-05 -0.00098168 -0.00153653 0.000462838 -0.000588702 -0.000258551 -0.000143809 0.000378272 -5.42429e-05 -0.000203775 -0.000469103
internal_weight=7685 1572 6113 4261 632 256 672 376 280 3589 1852 394 3157 884
internal_count=7685 1572 6113 4261 632 256 672 376 280 3589 1852 394 3157 884
is_linear=0
shrinkage=0.02


Tree=14
num_leaves=15
num_cat=0
split_feature=11 7 3 7 7 3 6 0 9 6 7 0 3 0
split_gain=0.671746 0.268876 0.34914 0.312215 0.236017 0.230557 0.248436 0.218683 0.31897 0.311575 0.17908 0.206829 0.186746 0.213979
threshold=0.47079727713388814 0.67815424547446723 0.21590901358299799 0.78195637699691189 -0.20082188880577817 -0.12630369860803434 1.2917595215468471 -0.070736555895867054 -0.090285345348096582 -0.45090166511986368 0.74561914315065669 0.99515959799662268 0.20193756179149039 0.19141013663112402
decision_type=2 2 2 2 2 2 2 2 2 2 2 2 2 2
left_child=4 2 5 -3 -1 -2 -7 9 -9 -4 11 12 13 -6
right_child=1 3 7 -5 10 6 -8 8 -10 -11 -12 -13 -14 -15
leaf_value=-6.3915519937256525e-05 0.00021718786726351001 -0.0005325951657346007 -0.00052900261513929333 6.9572573802026554e-05 -0.00022957046956268199 -5.4775970299058626e-05 -0.0011142396860668669 0.00038941644003050217 0.0012386990495200955 0.00046748011864514811 -0.00014845853730992869 2.5318033247890139e-05 -0.0013624597288830402 -0.0014237556837444357
leaf_weight=674 1800 479 179 1191 213 1147 91 560 259 391 296 113 216 80
leaf_count=674 1800 479 179 1191 213 1147 91 560 259 391 296 113 216 80
internal_value=1.62392e-05 0.000111801 0.000193316 -0.000104219 -0.000348946 7.29396e-05 -0.000136821 0.000455396 0.00066388 0.000152671 -0.000556736 -0.000748296 -0.000918617 -0.000574046
internal_weight=7689 6097 4427 1670 1592 3038 1238 1389 819 570 918 622 509 293
internal_count=7689 6097 4427 1670 1592 3038 1238 1389 819 570 918 622 509 293
is_linear=0
shrinkage=0.02


Tree=15
num_leaves=15
num_cat=2
split_feature=12 11 3 11 9 11 4 6 4 12 6 0 9 7
split_gain=0.642622 0.506555 0.274333 0.251456 0.218212 0.284355 0.221739 0.211562 0.244618 0.23589 0.236359 0.210697 0.183348 0.173905
threshold=0 0.47079727713388814 0.51228667451141907 0.51242095417557743 -0.13430333712074519 0.55819200910936217 -0.3712698602863253 -0.20230285496158992 -0.53123638566950981 1 -0.76552223218622972 -0.21798729356838181 0.92727835568239281 0.63894507399545064
decision_type=9 2 2 2 2 2 2 2 2 9 2 2 2 2
left_child=3 -2 4 -1 13 7 -7 9 -9 10 -6 -4 -11 -3
right_child=1 2 11 -5 5 6 -8 8 -10 12 -12 -13 -14 -15
leaf_value=-0.00036915008784353144 -0.00027932071771796514 5.4577930785793028e-05 -0.00017316563620988748 -0.0013675589118994883 0.00016601116746165496 -0.0011230767811605028 2.9393855084480901e-05 0.0011108105518344909 0.00032669831161306992 0.00057552114647730973 -0.00068352983466345911 0.00064576366361416876 -8.8014771768046593e-05 -0.00032248988850181771
leaf_weight=274 1497 1476 155 160 264 102 177 183 1103 420 252 620 272 726
leaf_count=274 1497 1476 155 160 264 102 177 183 1103 420 252 620 272 726
internal_value=2.34278e-06 4.77343e-05 0.000133134 -0.000731938 7.83716e-05 0.000196257 -0.000404294 0.000264114 0.000442149 7.35418e-05 -0.000246723 0.000481918 0.00031148 -7.01904e-05
internal_weight=7681 7247 5750 434 4975 2773 279 2494 1286 1208 516 775 692 2202
internal_count=7681 7247 5750 434 4975 2773 279 2494 1286 1208 516 775 692 2202
cat_boundaries=0 1 2
cat_threshold=64 517
is_linear=0
shrinkage=0.02


Tree=16
num_leaves=15
num_cat=0
split_feature=10 3 10 7 3 7 9 1 10 0 6 1 1 0
split_gain=0.73573 0.529214 0.615218 0.342225 0.429475 0.32863 0.307512 0.268146 0.241692 0.405079 0.197358 0.187295 0.118749 0.122948
threshold=23.500000000000004 0.53240572324126789 22.500000000000004 0.019689883212350743 -0.12630369860803434 0.93982558028656393 0.91000326078653482 0.80706173642112766 21.500000000000004 -0.035771067689199236 0.14382146297596426 1.5436207628530212 -0.43779191251218302 -0.088386046414528255
decision_type=10 2 8 2 2 2 2 2 10 2 2 2 2 2
left_child=1 2 6 -4 -5 12 -1 -8 -3 -10 -11 -9 -2 -14
right_child=5 8 3 4 -6 -7 7 11 9 10 -12 -13 13 -15
leaf_value=0.00040039084964837112 -0.0016612491932963686 0.00065184183253496296 2.7283585527379836e-05 1.7474725883762721e-05 -0.00055815453054263093 0.00035146632012637223 -0.0007489813904533267 0.00079275928391907063 -0.0011393782261830683 0.0011982635731463446 -0.00012562831920204741 -0.00037441905219070984 -0.0010898711906128468 -0.00015810358978996284
leaf_weight=1551 93 753 2085 855 1311 80 192 117 86 80 94 96 182 84
leaf_count=1551 93 753 2085 855 1311 80 192 117 86 80 94 96 182 84
internal_value=1.17655e-07 4.86791e-05 -2.06248e-05 -0.000155658 -0.000331416 -0.000790101 0.000272493 -0.000216217 0.000471344 -5.38423e-05 0.000499526 0.000270185 -0.00104582 -0.000803975
internal_weight=7659 7220 6207 4251 2166 439 1956 405 1013 260 174 213 359 266
internal_count=7659 7220 6207 4251 2166 439 1956 405 1013 260 174 213 359 266
is_linear=0
shrinkage=0.02


Tree=17
num_leaves=15
num_cat=0
split_feature=10 11 3 10 3 3 3 9 11 7 11 5 7 7
split_gain=0.696111 0.994571 0.463243 0.661459 0.535645 0.423355 0.377488 0.350433 0.303945 0.27175 0.263296 0.250411 0.201632 0.306157
threshold=22.500000000000004 0.49450827027800487 0.55731827687505309 20.500000000000004 -0.66772926546683142 -0.65926709729895983 -0.053033752178004066 0.60027794277465807 0.47079727713388814 -0.20082188880577817 0.48147571442721254 -0.25302908676459651 1.0000000180025095e-35 0.14295465144911026
decision_type=10 2 2 10 2 2 2 2 2 2 2 2 2 2
left_child=2 6 3 4 -1 -6 -2 11 -9 -8 -11 -5 -13 -14
right_child=1 -3 -4 7 5 -7 9 8 -10 10 -12 12 13 -15
leaf_value=0.00047482425919495466 -0.00039327799578131817 4.7451815376362058e-06 0.00054397175802573948 0.00082749693993833403 -0.00093680414459798534 -0.00016543378837210359 -0.00047019638353456932 -0.0011788881439065864 0.00010697815378194705 -0.002064782071099005 -0.00065610908650722748 0.00063791245792219498 -0.0010181675230606312 0.0002582580353062238
leaf_weight=449 315 1405 878 560 328 1984 111 81 503 193 81 336 90 355
leaf_count=449 315 1405 878 560 328 1984 111 81 503 193 81 336 90 355
internal_value=6.54311e-06 -0.000302821 0.00012375 4.45189e-05 -0.000153808 -0.000276652 -0.000915807 0.000328638 -7.98633e-05 -0.00133281 -0.00166757 0.000506175 0.000271979 -8.34005e-06
internal_weight=7669 2105 5564 4686 2761 2312 700 1925 584 385 274 1341 781 445
internal_count=7669 2105 5564 4686 2761 2312 700 1925 584 385 274 1341 781 445
is_linear=0
shrinkage=0.02


Tree=18
num_leaves=15
num_cat=2
split_feature=10 3 10 8 5 3 9 12 0 10 12 3 0 5
split_gain=0.996639 0.522335 0.810365 0.419374 0.349376 0.270772 0.255292 0.250844 0.23471 0.518625 0.21534 0.205622 0.19631 0.190784
threshold=23.500000000000004 0.51228667451141907 22.500000000000004 -0.82782034986447572 -1.3607728174613003 -0.12630369860803434 -0.34252621451175203 0 0.017005499678694049 21.500000000000004 1 0.46937357738354263 -0.088386046414528255 0.22437404641541289
decision_type=10 2 8 2 2 2 2 9 2 10 9 2 2 2
left_child=1 2 4 -2 -1 -5 -4 -6 9 -3 -8 -12 -7 -9
right_child=3 8 6 5 7 12 10 13 -10 -11 11 -13 -14 -15
leaf_value=0.0012097071009654417 -0.0021706258445046843 0.00057902778993876086 -0.00035649949335945391 -4.0095967880604576e-05 -0.00048688717481550265 -0.0016421042747932571 -0.00038960084060864577 0.00051376023874743961 0.00067655044648868158 -0.0011823634491325591 0.0001634438423856685 -0.00031215062001571458 -0.00034246791941272515 7.9133587033255667e-05
leaf_weight=161 80 201 1630 182 157 111 534 920 721 94 1603 465 83 721
leaf_count=161 80 201 1630 182 157 111 534 920 721 94 1603 465 83 721
internal_value=6.50291e-06 6.41274e-05 -4.98945e-06 -0.000895059 0.000330828 -0.000598738 -0.000160647 0.000248993 0.000483253 7.41914e-06 -3.75082e-05 5.57402e-05 -0.00110865 0.000321666
internal_weight=7663 7207 6191 456 1959 376 4232 1798 1016 295 2602 2068 194 1641
internal_count=7663 7207 6191 456 1959 376 4232 1798 1016 295 2602 2068 194 1641
cat_boundaries=0 1 2
cat_threshold=320 324
is_linear=0
shrinkage=0.02


Tree=19
num_leaves=15
num_cat=2
split_feature=10 10 11 5 12 12 0 0 5 6 5 5 10 0
split_gain=0.617571 0.36648 0.361456 0.359041 0.33123 0.217674 0.248005 0.261999 0.231822 0.229532 0.204102 0.223328 0.198101 0.195888
threshold=22.500000000000004 23.500000000000004 0.46850070746080857 0.3024463875888595 0 1 0.52801448281053431 0.81631453383713948 0.22437404641541289 -0.80210570029570383 0.65839874499553741 1.0339644028511561 21.500000000000004 -0.57131087655348189
decision_type=8 10 2 2 9 9 2 2 2 2 2 2 10 2
left_child=2 -2 3 -1 -3 6 8 -8 -4 -7 -10 -12 -11 -14
right_child=1 4 5 -5 -6 9 7 -9 10 12 11 -13 13 -15
leaf_value=0.00021625652924383388 -5.9250832417589716e-05 0.00017668344412574217 0.0006616243074570187 -0.0012760254603979939 -0.00099470415092245846 0.00089174355774483943 0.0018929934257404038 0.00058727023728699374 -0.00054283169232523785 0.00048487815029386964 0.0010870545897005985 -0.0001254126620822705 0.00020262918476863002 -0.00070027887237096283
leaf_weight=153 5169 138 539 105 309 114 97 173 151 170 99 144 162 225
leaf_count=153 5169 138 539 105 309 114 97 173 151 170 99 144 162 225
internal_value=2.96207e-06 -0.000107066 0.000292363 -0.00040378 -0.000653211 0.000389023 0.000547807 0.00108225 0.00039404 9.29243e-05 2.42743e-05 0.000380513 -7.53939e-05 -0.000324554
internal_weight=7748 5616 2132 258 447 1874 1203 270 933 671 394 243 557 387
internal_count=7748 5616 2132 258 447 1874 1203 270 933 671 394 243 557 387
cat_boundaries=0 1 2
cat_threshold=14 31
is_linear=0
shrinkage=0.02


Tree=20
num_leaves=15
num_cat=3
split_feature=12 11 11 9 9 0 6 9 9 0 12 12 5 11
split_gain=0.549053 0.487683 0.233975 0.232736 0.206363 0.198671 0.188388 0.185303 0.253115 0.213766 0.194421 0.173947 0.215971 0.170507
threshold=0 0.48147571442721254 0.56893949097581609 0.77228234567628529 0.56563662406283088 -0.12560524877255511 0.47234235893238191 -0.13430333712074519 0.92727835568239281 -0.93633452147674234 1 2 -0.055636161419395105 0.53586585962714806
decision_type=9 2 2 2 2 2 2 2 2 2 9 9 2 2
left_child=4 3 7 11 -1 -5 -4 13 10 -10 -9 12 -2 -3
right_child=1 2 6 5 -6 -7 -8 8 9 -11 -12 -13 -14 -15
leaf_value=-0.0010491949757786478 0.00082165482171600872 -6.2863273947659056e-05 -5.9890839649538507e-05 -0.0010207860147388734 -0.00012657332533854061 7.2259061780641787e-05 -0.0010750366943178787 0.00085004910960917045 0.00036535533082175567 -0.00025288409297310918 0.00030967632431084873 -0.00024215470079523555 -0.00021894565132637341 0.00032402774470373748
leaf_weight=261 150 1738 243 236 155 91 100 328 380 529 1532 1214 161 612
leaf_count=261 150 1738 243 236 155 91 100 328 380 529 1532 1214 161 612
internal_value=-7.92023e-07 4.0007e-05 0.000135153 -0.000239994 -0.000694519 -0.000720098 -0.000367045 0.000169128 0.000279833 6.15065e-06 0.00041321 -0.00013503 0.000279176 3.83671e-05
internal_weight=7730 7314 5462 1852 416 327 343 5119 2769 909 1860 1525 311 2350
internal_count=7730 7314 5462 1852 416 327 343 5119 2769 909 1860 1525 311 2350
cat_boundaries=0 1 2 3
cat_threshold=64 16 10
is_linear=0
shrinkage=0.02


Tree=21
num_leaves=15
num_cat=0
split_feature=10 3 10 3 8 5 0 3 3 9 5 5 3 3
split_gain=0.476893 0.470018 0.535355 0.478848 0.423527 0.419956 0.36247 0.388612 0.342849 0.299966 0.2924 0.280262 0.280025 0.26793
threshold=22.500000000000004 0.51228667451141907 20.500000000000004 -0.66772926546683142 -0.98726083287003852 0.22437404641541289 -0.61731603075378194 0.34531971306087456 -0.69424578067905174 -0.12867259845758885 -0.09017814486165085 -0.41304354542645311 -0.053033752178004066 -0.65926709729895983
decision_type=10 2 10 2 2 2 2 2 2 2 2 2 2 2
left_child=1 2 3 -1 12 -4 7 10 -8 11 -6 -10 -2 -5
right_child=4 -3 5 13 6 -7 8 -9 9 -11 -12 -13 -14 -15
leaf_value=0.00042067784923698374 -0.00029604354509776284 0.00051326924610576457 0.00052171923594211266 -0.00081233651605444037 -0.0007814787220713741 -8.2576663390811648e-05 -0.00094826510789724745 -0.0013271123746510696 0.00042626796933473084 0.0004579047058772646 0.00024258309571405898 -0.00049648320316655913 -0.0017427648178612192 -0.00019417655828383632
leaf_weight=461 101 889 1106 323 202 783 124 180 195 580 238 382 115 1981
leaf_count=461 101 889 1106 323 202 783 124 180 195 580 238 382 115 1981
internal_value=-4.28007e-06 9.32547e-05 1.25595e-05 -0.000164637 -0.000259276 0.000271679 -0.000162472 -0.000557335 3.00643e-05 0.000138545 -0.000231053 -0.000183652 -0.00108829 -0.000282408
internal_weight=7660 5543 4654 2765 2117 1889 1901 620 1281 1157 440 577 216 2304
internal_count=7660 5543 4654 2765 2117 1889 1901 620 1281 1157 440 577 216 2304
is_linear=0
shrinkage=0.02


Tree=22
num_leaves=15
num_cat=3
split_feature=12 7 12 3 3 3 7 4 6 9 12 5 5 2
split_gain=0.630346 0.369731 0.619504 0.300366 0.256995 0.242705 0.211093 0.198688 0.201542 0.218131 0.199337 0.176147 0.173872 0.170444
threshold=0 0.63894507399545064 1 -0.45473166809510107 0.013849501204094635 -1.6388156464462722 1.1207674684003994 1.0901759131120683 -0.14562803757999063 -0.25127666661091963 2 -0.47372513014814038 -0.75582930908442081 -0.35795313912544807
decision_type=9 2 9 2 2 2 2 2 2 2 9 2 2 2
left_child=4 7 5 -4 11 -3 -5 8 13 12 -9 -1 -10 -2
right_child=1 2 3 6 -6 -7 -8 10 9 -11 -12 -13 -14 -15
leaf_value=-0.00019030494228168885 0.00032938671694404778 0.00052813114706819469 -8.7521061272869582e-05 0.00013770205732369859 0.00033769835389552383 -0.00049064436234404262 0.001157091376557344 9.1363019326648286e-05 0.00044903000703286767 0.00054556574059550368 -0.00064116617969476567 -0.00086081592798765028 -9.9665702615454006e-05 -4.9255657669622139e-05
leaf_weight=230 691 97 348 138 118 1256 198 403 388 1055 219 511 557 1498
leaf_count=230 691 97 348 138 118 1256 198 403 388 1055 219 511 557 1498
internal_value=-6.01372e-06 5.84275e-05 -0.000167065 0.000320009 -0.00051186 -0.00041289 0.000746572 0.000154098 0.000203619 0.000348507 -0.000178378 -0.000655366 0.000126796 7.07484e-05
internal_weight=7707 6848 2037 684 859 1353 336 4811 4189 2000 622 741 945 2189
internal_count=7707 6848 2037 684 859 1353 336 4811 4189 2000 622 741 945 2189
cat_boundaries=0 1 2 3
cat_threshold=320 649 533
is_linear=0
shrinkage=0.02


Tree=23
num_leaves=15
num_cat=0
split_feature=10 3 10 3 10 7 7 5 7 8 3 4 3 0
split_gain=0.768658 0.464046 0.40543 0.434187 0.392499 0.326937 0.315589 0.265804 0.202591 0.19058 0.181898 0.166885 0.25134 0.165911
threshold=23.500000000000004 0.23844124298144556 22.500000000000004 0.53240572324126789 22.500000000000004 0.044682183084058684 0.33893351039854031 -0.26872128044357607 1.0000000180025095e-35 -0.39939045207967988 -0.95151353727341348 -0.61766491416235259 0.39695153289251156 -0.61731603075378194
decision_type=10 2 8 2 10 2 2 2 2 2 2 2 2 2
left_child=2 6 7 5 -5 -4 -2 11 9 -9 -7 12 13 -1
right_child=1 -3 3 4 -6 10 -8 8 -10 -11 -12 -13 -14 -15
leaf_value=0.00069176292870043205 -0.00081847717919138294 -0.0018591031211949252 6.5786862608936222e-05 0.00057287180810299237 -0.00057907409343333968 0.00026221424749189425 0.00048846954779167265 0.0009919289265333624 -8.8971312766630411e-05 0.00017634596565315627 -0.00035072886627628564 0.00036188490851222577 0.00016250636523375207 0.0018871819557605592
leaf_weight=94 216 113 2189 725 137 213 107 158 735 396 1821 515 108 108
leaf_count=94 216 113 2189 725 137 213 107 158 735 396 1821 515 108 108
internal_value=2.70061e-05 -0.000783558 7.66069e-05 -2.02287e-05 0.000387506 -0.000103815 -0.000384679 0.000309032 0.000128717 0.000415741 -0.000286056 0.000588289 0.000952696 0.00136104
internal_weight=7635 436 7199 5085 862 4223 323 2114 1289 554 2034 825 310 202
internal_count=7635 436 7199 5085 862 4223 323 2114 1289 554 2034 825 310 202
is_linear=0
shrinkage=0.02


Tree=24
num_leaves=15
num_cat=3
split_feature=12 11 7 12 3 4 11 4 4 6 3 3 7 12
split_gain=0.622661 0.516366 0.349342 0.497156 0.310748 0.209611 0.188192 0.1926 0.182596 0.178381 0.166138 0.331449 0.31453 0.213332
threshold=0 0.48147571442721254 0.67815424547446723 1 -0.60818392914135833 1.6914659602015087 0.51131261635887426 0.16068151364570424 1.1263134205831375 0.35216832211974475 0.46937357738354263 0.51228667451141907 -0.24495050423895348 2
decision_type=9 2 2 9 2 2 2 2 2 2 2 2 2 9
left_child=6 8 5 4 -4 -3 9 -8 10 -1 13 12 -12 -2
right_child=1 2 3 -5 -6 -7 7 -9 -10 -11 11 -13 -14 -15
leaf_value=-0.00074156049222206871 0.0002492077927386366 0.00029072527196572428 -4.6522427402228951e-05 -0.00033395931564649851 0.00097749435009175439 -0.00038536911717491207 -0.00051442853906083594 -0.001906279762762107 -0.00078553648411401253 0.00036614413833481143 -5.3500127275653469e-05 0.00010693309769987036 -0.0013262588368922221 -0.000316539815461052
leaf_weight=176 567 3620 246 1079 223 189 81 84 208 82 125 257 202 477
leaf_count=176 567 3620 246 1079 223 189 81 84 208 82 125 257 202 477
internal_value=1.01296e-05 5.45873e-05 0.000153853 -9.92659e-05 0.000436346 0.000256717 -0.000722072 -0.00125823 -0.000234379 -0.000389232 -0.000161771 -0.000430347 -0.000847863 -1.01989e-05
internal_weight=7616 7193 5357 1548 469 3809 423 165 1836 258 1628 584 327 1044
internal_count=7616 7193 5357 1548 469 3809 423 165 1836 258 1628 584 327 1044
cat_boundaries=0 1 2 3
cat_threshold=64 22 649
is_linear=0
shrinkage=0.02


Tree=25
num_leaves=15
num_cat=3
split_feature=12 11 7 7 12 9 1 3 3 3 7 11 12 9
split_gain=0.626614 0.391987 0.285725 0.327628 0.274135 0.317841 0.252418 0.308705 0.236421 0.219045 0.204653 0.196161 0.186296 0.185501
threshold=0 0.48147571442721254 0.67815424547446723 0.81209566161952407 1 -0.28606048279850588 0.56355871312308647 0.15993422165018181 0.90508835257733 -0.60818392914135833 -0.20082188880577817 0.52104633798627698 2 0.557531419655941
decision_type=9 2 2 2 9 2 2 2 2 2 2 2 9 2
left_child=8 6 12 -4 -5 -6 -2 -8 10 -7 -1 13 -3 -12
right_child=1 2 3 4 5 9 7 -9 -10 -11 11 -13 -14 -15
leaf_value=0.00010000265693403225 -6.291753384025345e-05 3.8389603107283612e-05 -0.00054045782671892091 -0.00014731730418870637 -0.00021518477777420891 0.00034889600359508431 -0.00017884080809533163 -0.0013013987335602217 0.00048933332949080833 0.0015228871783922212 -0.00082245833026821315 -0.0012864432186824178 0.00034801950411521808 3.1335148396352244e-05
leaf_weight=129 1303 1168 435 647 148 132 246 160 81 125 286 199 2392 156
leaf_count=129 1303 1168 435 647 148 132 246 160 81 125 286 199 2392 156
internal_value=-2.96041e-06 6.18383e-05 0.000150559 -8.20876e-05 0.000109108 0.000506788 -0.000199484 -0.000631678 -0.000509517 0.000938069 -0.000623644 -0.000768924 0.000247713 -0.00052414
internal_weight=7607 6756 5047 1487 1052 405 1709 406 851 257 770 641 3560 442
internal_count=7607 6756 5047 1487 1052 405 1709 406 851 257 770 641 3560 442
cat_boundaries=0 1 2 3
cat_threshold=320 649 134
is_linear=0
shrinkage=0.02


Tree=26
num_leaves=15
num_cat=2
split_feature=10 10 3 12 2 11 11 10 9 5 3 12 2 5
split_gain=0.593901 0.369971 0.449065 0.387696 0.359256 0.336239 0.326597 0.309267 0.288324 0.389517 0.233768 0.356862 0.226185 0.237153
threshold=23.500000000000004 22.500000000000004 0.51228667451141907 0 0.52685259211123003 0.47643118404530005 0.47526317620013042 22.500000000000004 -0.13430333712074519 -0.41304354542645311 -0.35245634188125069 1 1.0912314557073104 0.084620398697156277
decision_type=10 8 2 9 2 2 2 10 2 2 2 9 2 2
left_child=1 3 10 4 8 -5 -2 -4 9 -1 11 -3 13 -6
right_child=6 2 7 5 12 -7 -8 -9 -10 -11 -12 -13 -14 -15
leaf_value=0.0012566569665796124 -0.0017050844323821365 -0.00017166951775956642 0.00055581112902351466 -0.00083652309186679004 0.00027739111648654528 0.00014922573040749085 -0.00040141070752482236 -0.00044210649753758367 0.0012343454750372925 -4.3679471499322414e-05 -0.00024112194345623486 0.00042664935556862448 0.00050891979837430833 -0.0011293812926858665
leaf_weight=139 95 1006 697 160 89 854 355 147 326 255 2604 640 192 95
leaf_count=139 95 1006 697 160 89 854 355 147 326 255 2604 640 192 95
internal_value=8.45793e-06 5.26835e-05 -3.96013e-05 0.000275046 0.000532461 -9.56405e-06 -0.000692344 0.000380423 0.000797476 0.000425068 -0.000123362 6.31016e-05 3.51544e-05 -0.000459595
internal_weight=7654 7204 5094 2110 1096 1014 450 844 720 394 4250 1646 376 184
internal_count=7654 7204 5094 2110 1096 1014 450 844 720 394 4250 1646 376 184
cat_boundaries=0 1 2
cat_threshold=158 530
is_linear=0
shrinkage=0.02


Tree=27
num_leaves=15
num_cat=4
split_feature=11 12 4 7 7 12 5 7 12 5 7 0 12 4
split_gain=0.535352 0.357387 0.332982 0.280478 0.287679 0.265241 0.261983 0.261097 0.298516 0.274467 0.25714 0.202046 0.182566 0.181321
threshold=0.47079727713388814 0 1.1263134205831375 0.63894507399545064 -0.41198077576915565 1 1.3982442253169511 -0.043766136387886109 2 -1.0578909053753318 -0.43528886789024734 -0.84403170868182387 3 0.06832161612874936
decision_type=2 9 2 2 2 9 2 2 9 2 2 2 9 2
left_child=6 2 10 4 12 11 7 -1 -9 -10 -2 -5 13 -3
right_child=1 3 -4 5 -6 -7 -8 8 9 -11 -12 -13 -14 -15
leaf_value=3.5214367176201802e-05 0.00050199341109542718 -0.00065432563208122838 -0.0009928592763539842 -0.00081575131526942686 0.00045163613243242174 0.00028052534183126599 -0.0011955100390947308 0.0003932706602334754 0.00020763322896466167 -0.00086943739252791808 -0.00023915289564788942 -0.00011190310553077372 0.00019804459096954823 0.00019031227425526112
leaf_weight=672 234 230 182 208 1658 539 124 119 113 528 861 706 1247 176
leaf_count=672 234 230 182 208 1658 539 124 119 113 528 861 706 1247 176
internal_value=-7.38018e-07 8.45156e-05 -0.000211141 0.000164004 0.000265888 -6.71516e-05 -0.000330936 -0.000252172 -0.000504851 -0.000669069 -7.92091e-05 -0.000272678 7.8777e-05 -0.00028342
internal_weight=7597 6041 1277 4764 3311 1453 1556 1432 760 641 1095 914 1653 406
internal_count=7597 6041 1277 4764 3311 1453 1556 1432 760 641 1095 914 1653 406
cat_boundaries=0 1 2 3 4
cat_threshold=448 521 10 6
is_linear=0
shrinkage=0.02


Tree=28
num_leaves=15
num_cat=4
split_feature=12 7 11 9 9 7 12 12 1 2 12 11 11 1
split_gain=0.494646 0.33477 0.322519 0.318065 0.336009 0.253493 0.263524 0.241505 0.530391 0.239383 0.210078 0.203442 0.198962 0.180378
threshold=0 -0.20082188880577817 0.48147571442721254 -0.25127666661091963 0.60027794277465807 1.431281990652135 1 2 0.54686075556192748 -0.14341680618918295 3 0.54195325688057749 0.45584569546098053 -0.31716413100411234
decision_type=9 2 2 2 2 2 9 9 2 2 9 2 2 2
left_child=1 -1 7 9 5 6 -5 12 -9 -4 -11 -6 -2 -14
right_child=2 -3 3 4 11 -7 -8 8 -10 10 -12 -13 13 -15
leaf_value=0.0003363428038175318 -0.00024649738389185616 -0.00063985363501660886 6.0587114084938729e-05 -0.00035760136970070146 0.00017454575437933113 0.0013500249578428339 0.00047786088496342208 -0.00011869050714311313 -0.0011828473231598393 7.6034663185818664e-05 -0.0008175817180319496 -0.00040716545064060488 -0.00010376491015577757 0.00080597191468291074
leaf_weight=172 310 702 1686 161 963 115 1390 802 240 178 250 315 144 212
leaf_count=172 310 702 1686 161 963 115 1390 802 240 178 250 315 144 212
internal_value=1.69509e-06 -0.000441894 5.98441e-05 0.000140153 0.000274373 0.000461077 0.000391039 -0.000177345 -0.000364788 -4.69711e-05 -0.000466477 3.01382e-05 0.0001201 0.000441648
internal_weight=7640 874 6766 5058 2944 1666 1551 1708 1042 2114 428 1278 666 356
internal_count=7640 874 6766 5058 2944 1666 1551 1708 1042 2114 428 1278 666 356
cat_boundaries=0 1 2 3 4
cat_threshold=320 4 26 7
is_linear=0
shrinkage=0.02


Tree=29
num_leaves=15
num_cat=2
split_feature=10 11 10 7 12 10 12 11 4 10 7 11 11 6
split_gain=0.638298 0.301581 0.472343 0.30488 0.386354 0.389177 0.344395 0.293283 0.25963 0.301888 0.339182 0.351347 0.452463 0.258224
threshold=23.500000000000004 0.47079727713388814 21.500000000000004 0.67815424547446723 0 1.0000000180025095e-35 1 0.47526317620013042 1.0901759131120683 20.500000000000004 0.10411831529672662 0.49475173281955948 0.48863838708452034 -0.62096988945577536
decision_type=10 2 10 2 9 10 9 2 2 10 2 2 2 2
left_child=1 2 -1 6 5 -5 -3 -2 9 -8 11 12 -11 -4
right_child=7 3 13 4 -6 -7 8 -9 -10 10 -12 -13 -14 -15
leaf_value=6.2244282300407818e-05 -0.0016694160697471277 -0.00022691543441410506 -0.0014876281486677699 -0.0003907749570048542 -0.00030225212736491428 0.00095957035685423754 0.00012556541785008562 -0.00044445195103924177 -0.00018082159181948148 0.00033186609025964204 0.0010097414703895561 0.00049909124128361614 -0.0015241333408390777 -0.00043736640436899116
leaf_weight=920 99 648 119 134 1197 220 1498 341 444 134 415 1082 80 415
leaf_count=920 99 648 119 134 1197 220 1498 341 444 134 415 1082 80 415
internal_value=-3.16706e-07 4.4446e-05 -0.000212874 0.000108508 -0.000131584 0.000437901 0.00019514 -0.00073573 0.000270097 0.000333512 0.000514675 0.000352875 -0.000380922 -0.000683042
internal_weight=7746 7306 1454 5852 1551 354 4301 440 3653 3209 1711 1296 214 534
internal_count=7746 7306 1454 5852 1551 354 4301 440 3653 3209 1711 1296 214 534
cat_boundaries=0 1 2
cat_threshold=20 68
is_linear=0
shrinkage=0.02


Tree=30
num_leaves=15
num_cat=3
split_feature=11 12 11 1 5 1 4 12 3 12 6 6 0 1
split_gain=0.419308 0.333967 0.262415 0.249302 0.217436 0.216392 0.200473 0.295381 0.233536 0.269205 0.183559 0.175722 0.188225 0.239899
threshold=0.4694856827732678 0 0.51131261635887426 -0.13635236170368512 0.22759476610275906 -0.37154709660680879 1.0901759131120683 1 -1.4099919541233743 2 0.43981467469424462 -0.51561167763868976 -0.16355454987974419 0.37076591817990295
decision_type=2 9 2 2 2 2 2 9 2 9 2 2 2 2
left_child=3 2 -2 5 -5 -1 8 -8 -3 11 -9 12 13 -10
right_child=1 6 -4 4 -6 -7 7 10 9 -11 -12 -13 -14 -15
leaf_value=-0.00023431926262109379 -2.0682955568535087e-06 0.00061217102332210001 -0.001130122194145189 -0.00027217566323338481 -0.00099733226066149898 0.00062509102104552864 -0.00096647044946005726 -0.00060550509825709083 -0.0010238329074853244 0.00025191764115314766 0.00017084376595616287 6.9890667321624131e-05 3.5711435002740471e-05 -6.5574665379244831e-05
leaf_weight=607 164 380 161 373 300 140 146 154 222 2339 516 1630 370 195
leaf_count=607 164 380 161 373 300 140 146 154 222 2339 516 1630 370 195
internal_value=-1.29594e-05 5.73099e-05 -0.000552794 -0.00032269 -0.000600396 -7.01665e-05 9.18335e-05 -0.000198377 0.000138268 9.98009e-05 -1.06069e-05 -4.8463e-05 -0.000293097 -0.000581813
internal_weight=7697 6277 325 1420 673 747 5952 816 5136 4756 670 2417 787 417
internal_count=7697 6277 325 1420 673 747 5952 816 5136 4756 670 2417 787 417
cat_boundaries=0 1 2 3
cat_threshold=64 384 645
is_linear=0
shrinkage=0.02


Tree=31
num_leaves=15
num_cat=0
split_feature=10 11 10 7 9 8 0 10 5 5 0 8 5 0
split_gain=0.749264 0.354159 0.570828 0.275966 0.270264 0.229994 0.214851 0.273844 0.225842 0.200555 0.196121 0.186056 0.239702 0.354998
threshold=23.500000000000004 0.45765849644906692 21.500000000000004 0.019689883212350743 -0.13430333712074519 -0.82782034986447572 0.087369447214563481 20.500000000000004 -1.3047143977617461 0.023036341334631675 -0.88992445002016363 -0.24193889176045594 0.15968183612629225 -0.39254573641902207
decision_type=10 2 10 2 2 2 2 10 2 2 2 2 2 2
left_child=1 2 -1 6 10 -2 8 -8 -3 -7 -5 -6 13 -13
right_child=5 3 -4 4 11 9 7 -9 -10 -11 -12 12 -14 -15
leaf_value=5.3903533833458438e-05 -0.0017069965848041807 0.00081702187437788121 -0.0010157122796241459 -0.0010269988484889548 0.00056931656380749998 -0.001019461368550212 0.00022634983902441842 0.00079104099656909788 2.0259209828004208e-05 -9.5701213978263071e-05 -0.00013707277954398537 -7.8555659096067148e-05 -0.00023996762131377037 0.00078261821890778058
leaf_weight=607 80 153 292 102 357 176 943 541 1435 198 1377 445 599 330
leaf_count=607 80 153 292 102 357 176 943 541 1435 198 1377 445 599 330
internal_value=2.29953e-05 7.3021e-05 -0.00029721 0.000126198 -3.52854e-06 -0.000760446 0.000261537 0.000434176 9.93489e-05 -0.000538126 -0.0002017 0.000165887 5.93812e-05 0.000290804
internal_weight=7635 7181 899 6282 3210 454 3072 1484 1588 374 1479 1731 1374 775
internal_count=7635 7181 899 6282 3210 454 3072 1484 1588 374 1479 1731 1374 775
is_linear=0
shrinkage=0.02


Tree=32
num_leaves=15
num_cat=4
split_feature=12 10 11 10 12 10 3 11 3 0 2 12 4 12
split_gain=0.660658 0.689269 0.453767 0.531024 0.340892 0.313507 0.638841 0.333555 0.304682 0.269785 0.313532 0.266831 0.351779 0.223307
threshold=0 21.500000000000004 0.51474285445553802 23.500000000000004 1 22.500000000000004 0.20193756179149039 0.47079727713388814 0.53240572324126789 -0.52505454745659363 -0.11352668008148106 2 1.0901759131120683 3
decision_type=9 10 2 8 9 10 2 2 2 2 2 9 2 9
left_child=1 -1 5 4 -4 8 13 -8 11 -9 -11 -2 -13 -7
right_child=2 -3 3 -5 -6 6 7 9 -10 10 -12 12 -14 -15
leaf_value=3.6706866466723353e-05 -0.00028845086279856647 -0.001092857446229363 0.0010959104743098445 -4.0862703116094464e-05 0.00035756411860967411 -0.00061067439356508348 -0.0017139972625473338 -0.0013290519389175923 0.00048656154993389339 -0.00077618840599107911 0.0008391433740359579 0.0002554164165613991 -0.00069625977403876707 0.00027326232596003118
leaf_weight=449 1020 411 309 1232 1347 135 143 102 520 104 81 1223 173 468
leaf_count=449 1020 411 309 1232 1347 135 143 102 520 104 81 1223 173 468
internal_value=1.71261e-05 -0.00050053 8.29761e-05 0.000273602 0.00050697 -5.56916e-05 -0.000354464 -0.000938663 4.98522e-05 -0.000529612 -6.54642e-05 -4.49523e-05 0.000134456 6.64219e-05
internal_weight=7717 860 6857 2888 1656 3969 1033 430 2936 287 185 2416 1396 603
internal_count=7717 860 6857 2888 1656 3969 1033 430 2936 287 185 2416 1396 603
cat_boundaries=0 1 2 3 4
cat_threshold=320 16 532 644
is_linear=0
shrinkage=0.02


Tree=33
num_leaves=15
num_cat=1
split_feature=10 3 7 12 9 10 11 10 9 8 4 10 11 4
split_gain=0.576543 0.382824 0.442577 0.36177 0.443106 0.318594 0.316424 0.310965 0.315413 0.305932 0.273809 0.261187 0.24899 0.208898
threshold=23.500000000000004 0.53240572324126789 1.0000000180025095e-35 0 -0.17789724289808251 21.500000000000004 0.47690641930163152 22.500000000000004 0.77228234567628529 0.10053078059677061 0.07184172702595247 21.500000000000004 0.49530999512335877 -0.71293672825487597
decision_type=10 2 2 9 2 10 2 8 2 2 2 10 2 2
left_child=1 2 7 5 13 -4 -2 8 -1 10 -7 -3 -13 -5
right_child=6 11 3 4 -6 9 -8 -9 -10 -11 -12 12 -14 -15
leaf_value=0.00069693004288089047 -0.0016777263862045053 0.00057287207824455112 -0.00016973211370229676 0.00029349231873333694 0.00021086136321378794 -0.00058205736756253128 -0.00041239918864204668 1.3767060543557586e-05 -0.00016475145201733771 -0.00041034238351155716 -0.0020259080687171126 -0.00098679831945040135 0.00028639241657350633 -0.00049260560696552885
leaf_weight=628 99 758 586 159 1226 99 353 2051 230 285 122 89 173 801
leaf_count=628 99 758 586 159 1226 99 353 2051 230 285 122 89 173 801
internal_value=-1.59877e-05 2.76751e-05 -3.16097e-05 -0.000190823 -4.05893e-05 -0.000485217 -0.000704863 0.000147819 0.000466327 -0.000854841 -0.0014063 0.000385678 -0.000156484 -0.000361562
internal_weight=7659 7207 6187 3278 2186 1092 452 2909 858 506 221 1020 262 960
internal_count=7659 7207 6187 3278 2186 1092 452 2909 858 506 221 1020 262 960
cat_boundaries=0 1
cat_threshold=832
is_linear=0
shrinkage=0.02


Tree=34
num_leaves=15
num_cat=0
split_feature=11 10 10 7 5 11 6 6 5 2 1 9 2 1
split_gain=0.675412 0.82192 0.520727 0.236119 0.228494 0.191941 0.340302 0.32569 0.182276 0.230717 0.21944 0.207595 0.257234 0.169062
threshold=0.48147571442721254 21.500000000000004 22.500000000000004 0.63894507399545064 -0.37099410993296716 0.4694856827732678 -0.37025755533744836 0.1290822129823791 -0.89484311050963761 0.33599641067998248 0.86145533037004596 -0.17789724289808251 -0.7843650088288493 0.95621831842684346
decision_type=2 10 8 2 2 2 2 2 2 2 2 2 2 2
left_child=1 -1 8 -4 -3 6 -6 -8 -2 11 -11 12 -10 -5
right_child=2 4 3 13 5 -7 7 -9 9 10 -12 -13 -14 -15
leaf_value=2.4450840809887523e-05 0.00084637379095167621 -0.00033599786088945509 7.9517876041724749e-05 -0.00015758179799749264 -0.0019965879706830736 -0.00043616465175723505 0.00024386035776588808 -0.0013385061422118369 0.00091496777802787025 -0.00031471976755567319 0.00046064579031325037 0.00086362942509771406 -9.184328803641729e-05 -0.00084734781456659194
leaf_weight=1172 302 282 2898 865 156 154 81 134 144 350 243 378 316 166
leaf_count=1172 302 282 2898 865 156 154 81 134 144 350 243 378 316 166
internal_value=3.3068e-06 -0.000314281 0.000114491 -1.30026e-05 -0.000803341 -0.00104883 -0.00129397 -0.000750365 0.000402745 0.000306499 4.20508e-06 0.00051912 0.000229782 -0.000272194
internal_weight=7641 1979 5662 3929 807 525 371 215 1733 1431 593 838 460 1031
internal_count=7641 1979 5662 3929 807 525 371 215 1733 1431 593 838 460 1031
is_linear=0
shrinkage=0.02


Tree=35
num_leaves=15
num_cat=2
split_feature=12 1 4 12 6 2 6 6 9 6 9 3 4 6
split_gain=0.423443 0.294421 0.223765 0.487073 0.230991 0.214039 0.184399 0.2151 0.235014 0.190747 0.189428 0.177086 0.173578 0.163869
threshold=0 -0.30796268374323377 1.1263134205831375 1 0.4309299820367441 0.040942842419488867 -0.21355024031638767 0.47234235893238191 -0.25127666661091963 0.59130328100109786 1.2178906842682478 1.2487152161403101 -0.073492182561642638 0.70976301238235751
decision_type=9 2 2 9 2 2 2 2 2 2 2 2 2 2
left_child=1 12 6 -4 5 -5 11 8 -8 -9 -10 -2 -1 -6
right_child=2 -3 3 4 13 -7 7 9 10 -11 -12 -13 -14 -15
leaf_value=0.00061553081313332357 -7.6150237596182293e-05 -0.0010858631519949995 -0.0011333564543469466 6.4157872892048386e-05 0.0009612645837216733 -0.0013440653366256464 5.7464017458583926e-05 -0.00052413780558616336 0.0006360904916017353 9.5190727403154896e-05 -4.5658535433604432e-05 0.00060193934295029361 -0.00059456292812646639 2.9215188831216831e-05
leaf_weight=86 2807 235 184 83 84 84 793 231 881 1261 199 158 94 498
leaf_count=86 2807 235 184 83 84 84 793 231 881 1261 199 158 94 498
internal_value=-2.83834e-06 -0.000612687 3.32026e-05 -0.000255081 -1.79688e-05 -0.000662651 7.59139e-05 0.000177131 0.000319552 -2.12763e-06 0.00051084 -3.90634e-05 -1.53969e-05 0.00017078
internal_weight=7678 415 7263 933 749 167 6330 3365 1873 1492 1080 2965 180 582
internal_count=7678 415 7263 933 749 167 6330 3365 1873 1492 1080 2965 180 582
cat_boundaries=0 1 2
cat_threshold=64 384
is_linear=0
shrinkage=0.02


Tree=36
num_leaves=15
num_cat=3
split_feature=10 10 12 5 12 6 8 6 7 7 12 10 5 9
split_gain=0.452805 0.319592 0.234178 0.231141 0.256772 0.257245 0.250792 0.308907 0.224973 0.269938 0.21678 0.252436 0.258044 0.288984
threshold=22.500000000000004 23.500000000000004 0 -1.0056127114619029 1 0.57769195753068592 -0.80804766610883616 0.53296963028393607 0.67815424547446723 0.78195637699691189 2 22.500000000000004 -0.47372513014814038 0.42078437539528946
decision_type=8 10 9 2 9 2 2 2 2 2 9 10 2 2
left_child=3 8 -3 -1 5 -5 7 -6 10 -10 11 -2 -13 -14
right_child=1 2 -4 4 6 -7 -8 -9 9 -11 -12 12 13 -15
leaf_value=0.00075716003424554118 2.2476924989963832e-05 -0.0013784109509307084 -0.0002966629852953271 -0.0006842006757530626 0.0015347454633492118 0.00053653671759613128 0.00018048888446324545 -9.7657495452050158e-06 -0.0007074843902051492 -7.3050176875938497e-05 0.0001706196301510861 0.00029508773482445143 -0.001188380157323671 7.9488734340417056e-05
leaf_weight=319 1151 100 344 233 125 93 1256 86 378 900 2220 110 234 102
leaf_count=319 1151 100 344 233 125 93 1256 86 378 900 2220 110 234 102
internal_value=1.63173e-05 -7.87086e-05 -0.000590243 0.000265132 0.000175732 -0.000323341 0.000287601 0.000919575 -3.35963e-05 -0.000262726 4.33636e-05 -0.000133746 -0.00053566 -0.000807969
internal_weight=7651 5539 444 2112 1793 326 1467 211 5095 1278 3817 1597 446 336
internal_count=7651 5539 444 2112 1793 326 1467 211 5095 1278 3817 1597 446 336
cat_boundaries=0 1 2 3
cat_threshold=832 576 454
is_linear=0
shrinkage=0.02


Tree=37
num_leaves=15
num_cat=1
split_feature=10 5 10 2 12 10 6 7 0 2 2 1 7 1
split_gain=0.645681 0.345677 0.256436 0.276861 0.227862 0.396426 0.77675 0.280736 0.209436 0.253518 0.211232 0.205757 0.189055 0.187731
threshold=23.500000000000004 -0.98099657479358726 22.500000000000004 0.2848798145730056 0 21.500000000000004 0.81632120176169087 0.67815424547446723 -0.49966416899901206 -0.10590102504542 0.6923487409847634 0.6125788464594174 0.97680281549362258 1.0923906675671262
decision_type=10 2 8 2 9 10 2 2 2 2 2 2 2 2
left_child=1 2 3 -1 5 -3 13 -6 9 -9 11 -10 -2 -7
right_child=12 4 -4 -5 7 6 -8 8 10 -11 -12 -13 -14 -15
leaf_value=0.00033909440979949156 -0.00091310891833438427 3.374366771102035e-05 0.00016795809836019044 0.0015117286648800984 0.00014586486751800142 -0.00052002259388679215 -0.002335739277837728 -0.0014400932746117606 -1.7432037447172924e-05 -0.00027946554101909227 -0.00067233351608361476 0.0009666034268836181 0.00012760942732507175 0.00050436102653232716
leaf_weight=205 378 780 889 132 3306 356 88 97 740 301 168 91 84 85
leaf_count=205 378 780 889 132 3306 356 88 97 740 301 168 91 84 85
internal_value=-3.75301e-06 4.27235e-05 0.000348068 0.000813791 -1.97814e-05 -0.000251564 -0.000673332 4.53679e-05 -0.000191806 -0.00057669 -3.63612e-05 9.5463e-05 -0.000724547 -0.000319138
internal_weight=7700 7238 1226 337 6012 1309 529 4703 1397 398 999 831 462 441
internal_count=7700 7238 1226 337 6012 1309 529 4703 1397 398 999 831 462 441
cat_boundaries=0 1
cat_threshold=448
is_linear=0
shrinkage=0.02


Tree=38
num_leaves=15
num_cat=3
split_feature=10 3 5 3 12 11 12 10 0 0 11 12 8 8
split_gain=0.474838 0.542562 0.339611 0.298029 0.581036 0.292506 0.281829 0.21557 0.250015 0.199688 0.172887 0.17143 0.314276 0.256646
threshold=22.500000000000004 0.53240572324126789 -0.31710837788239876 -0.12630369860803434 0 0.47079727713388814 1 22.500000000000004 0.39829428491736624 -1.2491934750879887 0.45432841858481171 2 0.20479055984131 0.71874331875231168
decision_type=8 2 2 2 9 2 9 10 2 2 2 9 2 2
left_child=2 3 11 4 -2 10 -5 -3 -9 -7 -4 -1 -13 -14
right_child=1 7 5 6 -6 9 -8 8 -10 -11 -12 12 13 -15
leaf_value=0.00090375929369297214 -0.00021931672010808091 0.0005169836315951496 -3.3743010189514175e-05 0.0006108812132244191 0.00048730326890330296 -0.00049829302519547604 -0.00037074622515429536 -0.00089239409363626521 0.00056584069868275788 0.00027943716785061053 -0.0013095182081063589 -0.00020134350735368013 0.0016008295179956188 0.00015565475856974011
leaf_weight=362 1515 712 81 111 654 147 2380 101 80 1017 85 232 94 100
leaf_count=362 1515 712 81 111 654 147 2380 101 80 1017 85 232 94 100
internal_value=7.89155e-06 -8.9301e-05 0.000262322 -0.000175887 -4.39222e-06 6.67309e-05 -0.000324906 0.000361002 -0.000249986 0.000179507 -0.00070619 0.000589943 0.000288226 0.000878522
internal_weight=7671 5553 2118 4660 2169 1330 2491 893 181 1164 166 788 426 194
internal_count=7671 5553 2118 4660 2169 1330 2491 893 181 1164 166 788 426 194
cat_boundaries=0 1 2 3
cat_threshold=598 22 154
is_linear=0
shrinkage=0.02


Tree=39
num_leaves=15
num_cat=3
split_feature=12 7 9 9 7 5 2 11 5 12 7 9 7 12
split_gain=0.389735 0.334496 0.283108 0.29714 0.228633 0.180601 0.280242 0.177175 0.175546 0.277676 0.197169 0.174304 0.146914 0.141409
threshold=0 -0.20082188880577817 -0.24189571156346482 0.92727835568239281 -0.6433798502629936 0.70214652912167952 -0.35795313912544807 0.49450827027800487 -0.69568412568079163 1 0.019689883212350743 1.524224144075059 -0.081876095568358939 2
decision_type=9 2 2 2 2 2 2 2 2 9 2 2 2 9
left_child=1 -1 8 4 7 -6 -7 -4 -2 10 -10 -5 -8 -3
right_child=2 13 3 11 5 6 12 -9 9 -11 -12 -13 -14 -15
leaf_value=0.00012461352809273703 0.00022110805678837047 1.6309477676322944e-05 -0.00049914797183990642 -0.00022447762306881123 0.00061721512692212012 0.0011223716307214875 0.00046009502008253025 0.0002762387846679201 -7.7539788131825391e-05 -3.7995323816745504e-05 -0.0011268107664828347 0.00038886570531473149 -0.00046929337844249817 -0.00045347332374163086
leaf_weight=869 637 327 176 674 1169 81 96 333 117 1274 183 250 205 1287
leaf_count=869 637 327 176 674 1169 81 96 333 117 1274 183 250 205 1287
internal_value=1.49107e-05 -0.000190525 0.000113338 0.000240487 0.000373886 0.00049425 0.000114837 5.88118e-06 -5.79083e-05 -0.000171169 -0.000702541 -5.733e-05 -0.000170203 -0.000361238
internal_weight=7678 2483 5195 2984 2060 1551 382 509 2211 1574 300 924 301 1614
internal_count=7678 2483 5195 2984 2060 1551 382 509 2211 1574 300 924 301 1614
cat_boundaries=0 1 2 3
cat_threshold=836 128 4
is_linear=0
shrinkage=0.02


Tree=40
num_leaves=15
num_cat=1
split_feature=12 10 8 10 5 5 6 6 6 0 5 0 6 0
split_gain=0.432042 0.791072 0.503926 0.408271 0.394143 0.238543 0.221735 0.286179 0.19982 0.198555 0.265314 0.267782 0.229324 0.182342
threshold=0 21.500000000000004 0.42465036208406842 22.500000000000004 -0.47372513014814038 0.19676732707255293 0.70976301238235751 0.25674956032888174 0.16210563098152134 -0.38463680679705564 -0.32172369419974844 0.26159241920306792 0.11458675709867504 -1.3040825264375078
decision_type=9 10 2 8 2 2 2 2 2 2 2 2 2 2
left_child=1 -1 6 5 -4 9 7 -3 -6 -2 12 -12 -11 -7
right_child=3 2 4 -5 8 13 -8 -9 -10 10 11 -13 -14 -15
leaf_value=0.00010331904612171749 0.00022085183536663892 -0.0011294697124373163 0.00093647199728101203 -2.3049411673477116e-05 -0.0010292459043746197 -0.00078920145080178643 -0.0018567144552745472 0.00015349746378057677 0.00017197303011964421 0.0020073560352605628 0.00097272979211993516 -0.00049025501819726616 0.00080726511203721321 0.00019080494520878685
leaf_weight=1038 398 321 98 4110 134 82 118 87 90 89 91 100 244 594
leaf_count=1038 398 321 98 4110 134 82 118 87 90 89 91 100 244 594
internal_value=-4.41877e-06 -0.000265634 -0.000718326 8.23681e-05 -9.25723e-05 0.000353238 -0.00109691 -0.00085735 -0.000553396 0.000561606 0.00081589 0.000213802 0.00115296 6.70068e-05
internal_weight=7594 1886 848 5708 322 1598 526 408 224 922 524 191 333 676
internal_count=7594 1886 848 5708 322 1598 526 408 224 922 524 191 333 676
cat_boundaries=0 1
cat_threshold=832
is_linear=0
shrinkage=0.02


Tree=41
num_leaves=15
num_cat=2
split_feature=12 10 10 6 7 11 7 12 10 10 10 7 11 8
split_gain=0.462291 0.498729 0.35653 0.313493 0.239727 0.196758 0.188783 0.223719 0.257196 0.224089 0.197964 0.361741 0.175054 0.170796
threshold=0 21.500000000000004 22.500000000000004 0.725671288883736 0.099952893286706437 0.46262462143723587 0.67815424547446723 1 26.500000000000004 22.500000000000004 23.500000000000004 -0.41198077576915565 0.57792267045318912 -0.062298065772731594
decision_type=9 10 8 2 2 2 2 9 8 10 10 2 2 2
left_child=1 -1 5 4 -3 -2 10 8 -8 -9 -4 -12 -7 -10
right_child=2 3 6 -5 -6 12 7 9 13 -11 11 -13 -14 -15
leaf_value=3.5915521201272697e-05 -0.00027926267605970069 0.00013453085623357607 0.00010017794138257869 -0.0019756303107262485 -0.0010051711891012037 0.00043297469448676804 -0.00082423704072446104 -0.0003260253271243225 0.00014772075886600527 0.00053880255493826451 -0.0012534693588367512 0.00024591552340151633 -0.00029443170353834049 -0.00057775628893813559
leaf_weight=455 204 110 3278 85 213 1574 350 220 336 252 119 131 141 205
leaf_count=455 204 110 3278 85 213 1574 350 220 336 252 119 131 141 205
internal_value=1.6388e-05 -0.000415651 7.19075e-05 -0.000923639 -0.000620903 0.000302658 -1.86979e-05 -0.000218161 -0.000401281 0.00013371 5.85617e-05 -0.000478375 0.000372488 -0.000129956
internal_weight=7673 863 6810 408 323 1919 4891 1363 891 472 3528 250 1715 541
internal_count=7673 863 6810 408 323 1919 4891 1363 891 472 3528 250 1715 541
cat_boundaries=0 1 2
cat_threshold=320 649
is_linear=0
shrinkage=0.02


Tree=42
num_leaves=15
num_cat=0
split_feature=10 3 9 3 7 3 10 11 4 1 6 8 4 9
split_gain=0.312443 0.328408 0.207878 0.173377 0.144283 0.165373 0.213852 0.139212 0.16689 0.218825 0.137544 0.301445 0.232088 0.177435
threshold=22.500000000000004 1.3922675656171271 -0.84695819044300846 -1.147990372662117 0.074990153799619055 -0.053033752178004066 22.500000000000004 0.48147571442721254 0.5797075201550228 -0.30810312394904826 -0.041048650671906724 0.20981299046526233 0.056042466385537996 0.92727835568239281
decision_type=8 2 2 2 2 2 10 2 2 2 2 2 2 2
left_child=7 2 4 -4 -2 -6 -7 8 9 -1 11 12 -9 -13
right_child=1 -3 3 -5 5 6 -8 10 -10 -11 -12 13 -14 -15
leaf_value=-0.00067597416251603706 -0.00015317916860239694 0.00044213910761137047 0.00031669470268441062 -9.4435453740878339e-05 -0.0002012613841152082 -0.00052809066045278268 -0.0018071589036303204 0.00075911074305858831 -0.00088835895398966559 0.00050315776538794991 0.00045986843735529152 5.6109736610495745e-05 -0.00030702939310597372 -0.00080394379362197857
leaf_weight=90 518 466 456 3731 186 150 81 303 84 182 939 236 108 156
leaf_count=90 518 466 456 3731 186 150 81 303 84 182 939 236 108 156
internal_value=1.47879e-05 -6.33632e-05 -0.00010974 -4.93355e-05 -0.000378535 -0.000653343 -0.00100538 0.000222598 -0.000136263 0.000107845 0.000296116 0.000102969 0.000478634 -0.000291971
internal_weight=7686 5588 5122 4187 935 417 231 2098 356 272 1742 803 411 392
internal_count=7686 5588 5122 4187 935 417 231 2098 356 272 1742 803 411 392
is_linear=0
shrinkage=0.02


Tree=43
num_leaves=15
num_cat=2
split_feature=10 12 7 0 11 11 2 7 7 10 6 12 11 4
split_gain=0.394656 0.760861 0.451002 0.382563 0.379629 0.330662 0.460947 0.231212 0.192658 0.189707 0.223088 0.29305 0.341254 0.235613
threshold=22.500000000000004 0 -0.41198077576915565 -0.76919392655057006 0.50714089552710162 0.49475173281955948 0.73782708880572023 1.0643678706976287 0.47015725562895527 20.500000000000004 0.81632120176169087 1 0.475354610867391 1.0901759131120683
decision_type=10 9 2 2 2 2 2 2 2 10 2 9 2 2
left_child=9 5 -3 -4 7 -2 -7 8 -5 -1 11 -11 -13 -12
right_child=1 2 3 4 -6 6 -8 -9 -10 10 13 12 -14 -15
leaf_value=2.7038850646738881e-06 -0.0014025208499515429 -0.00049701193448716918 -0.00049801054708917161 9.3964316078643426e-05 0.00085896073939105454 -0.00080606854926320128 0.00083788683487165893 0.00081929685122584216 -0.00095226279520594054 0.00058481776387603107 0.0010308183050017747 -0.00075749677128033655 0.00012936869454821049 4.6635498263999636e-05
leaf_weight=3467 235 460 212 200 425 306 83 99 103 426 253 202 1069 157
leaf_count=3467 235 460 212 200 425 306 83 99 103 426 253 202 1069 157
internal_value=5.34665e-06 -0.00022639 2.10036e-05 0.00025183 0.000445887 -0.000803691 -0.00044912 3.99306e-06 -0.000271369 9.37334e-05 0.000243159 0.000141037 -1.38879e-05 0.000659051
internal_weight=7697 2123 1499 1039 827 624 389 402 303 5574 2107 1697 1271 410
internal_count=7697 2123 1499 1039 827 624 389 402 303 5574 2107 1697 1271 410
cat_boundaries=0 1 2
cat_threshold=960 144
is_linear=0
shrinkage=0.02


Tree=44
num_leaves=15
num_cat=3
split_feature=12 10 5 8 2 10 9 2 12 3 9 12 10 5
split_gain=0.32585 0.564527 0.283926 0.261907 0.237784 0.237069 0.216938 0.216208 0.220802 0.189724 0.182916 0.165972 0.249291 0.175427
threshold=0 22.500000000000004 1.3982442253169511 0.56684083235947813 -0.37770541957176307 22.500000000000004 -0.31247406819167317 0.29673682829246179 1 0.23844124298144556 -1.5471788888393068 2 23.500000000000004 0.30943572576330741
decision_type=9 10 2 2 2 8 2 2 9 2 2 9 8 2
left_child=1 9 5 7 -4 -2 -7 8 -3 10 -1 -8 13 -13
right_child=2 3 4 -5 -6 6 11 -9 -10 -11 -12 12 -14 -15
leaf_value=-0.00096120015914958126 0.00034796509413438729 4.3155959987592311e-05 0.00023288324838504197 -3.8210249234885763e-05 -0.00076210460956698076 -0.00013768875016947351 7.8424864760809327e-06 -0.0018964597237361377 -0.0010585789736978768 0.00045576574048027395 -4.8475389960656573e-05 0.0011578364075192124 0.00012838327067009615 0.00020437536257892274
leaf_weight=89 1394 109 145 161 269 1544 1103 81 241 281 1349 208 603 125
leaf_count=89 1394 109 145 161 269 1544 1103 81 241 281 1349 208 603 125
internal_value=-1.3894e-07 -0.000198075 8.50263e-05 -0.000728783 -0.000414998 0.000127165 4.08955e-05 -0.00098335 -0.000748295 -1.48721e-05 -0.0001081 0.000176132 0.000369343 0.000808248
internal_weight=7702 2311 5391 592 414 4977 3583 431 350 1719 1438 2039 936 333
internal_count=7702 2311 5391 592 414 4977 3583 431 350 1719 1438 2039 936 333
cat_boundaries=0 1 2 3
cat_threshold=452 4 515
is_linear=0
shrinkage=0.02


Tree=45
num_leaves=15
num_cat=0
split_feature=10 11 10 11 11 5 5 8 6 10 5 6 2 2
split_gain=0.434199 0.284134 0.237158 0.2102 0.24937 0.180953 0.170571 0.177726 0.139002 0.169359 0.265944 0.134161 0.134286 0.246165
threshold=23.500000000000004 0.47526317620013042 22.500000000000004 0.57275004017446052 0.48147571442721254 1.0000000180025095e-35 0.22759476610275906 0.26016739560231444 1.0536056269011114 22.500000000000004 -0.47372513014814038 1.4047161112642013 0.6923487409847634 1.0640884381367537
decision_type=10 2 8 2 2 2 2 2 2 10 2 2 2 2
left_child=2 -2 3 4 6 -3 7 -1 -4 -10 -11 12 -6 -14
right_child=1 5 8 -5 11 -7 -8 -9 9 10 -12 -13 13 -15
leaf_value=-0.00032120414651190136 -0.0016177653351591693 -0.00083855527110306399 3.1127507555306469e-06 -0.00052312879931589926 0.00042898504637188458 6.7035361829841016e-05 -0.00074236454210907521 0.00083254855314499878 -7.6736531026633668e-05 -0.0001164090633392334 -0.0014416678548825853 0.00099457735110335078 -0.00063486576090213771 0.00036465645086697709
leaf_weight=129 85 158 4426 141 1107 191 141 84 484 134 107 122 148 272
leaf_count=129 85 158 4426 141 1107 191 141 84 484 134 107 122 148 272
internal_value=-2.19966e-06 -0.000613085 3.45387e-05 0.000211034 0.000263889 -0.000348999 -0.000215403 0.000142456 -3.90573e-05 -0.000294756 -0.000722145 0.000367121 0.000313908 9.11853e-06
internal_weight=7729 434 7295 2144 2003 349 354 213 5151 725 241 1649 1527 420
internal_count=7729 434 7295 2144 2003 349 354 213 5151 725 241 1649 1527 420
is_linear=0
shrinkage=0.02


Tree=46
num_leaves=15
num_cat=0
split_feature=5 11 9 0 7 6 7 3 8 0 5 3 11 3
split_gain=0.281556 0.263653 0.172749 0.240502 0.279001 0.258751 0.204345 0.185587 0.164975 0.186716 0.164786 0.146628 0.153979 0.176184
threshold=1.3097635530826424 0.45812118475002245 -0.13430333712074519 -0.16355454987974419 1.1207674684003994 -0.21355024031638767 -1.1680552539523739 -1.4950074885839737 -0.98726083287003852 -0.45304681437511313 -1.8401490724961544 0.53240572324126789 0.53586585962714806 -0.22081372626641327
decision_type=2 2 2 2 2 2 2 2 2 2 2 2 2 2
left_child=2 -2 6 5 -5 7 -1 -4 -3 -10 -8 12 -12 -14
right_child=1 8 3 4 -6 -7 10 -9 9 -11 11 -13 13 -15
leaf_value=0.00036978400843090393 -0.0013271360666473006 0.00055530228317998676 0.00046039916061357984 0.00022504524456798931 0.001128094350204657 0.00020395432233655646 0.00061383924498059378 -0.00033137935467738899 0.00025042538640314134 -0.00059781306783763806 -0.00031904992541032472 0.00015984318629045323 0.00048034670843960758 -0.00023019957892206865
leaf_weight=360 98 87 131 1349 148 1095 109 937 140 372 1765 467 230 339
leaf_count=360 98 87 131 1349 148 1095 109 937 140 372 1765 467 230 339
internal_value=-9.58954e-06 -0.000391269 2.90532e-05 0.00012336 0.000317783 -1.16215e-05 -7.65285e-05 -0.000232568 -0.000228437 -0.000365694 -0.000132282 -0.000162359 -0.000227031 5.86983e-05
internal_weight=7627 697 6930 3660 1497 2163 3270 1068 599 512 2910 2801 2334 569
internal_count=7627 697 6930 3660 1497 2163 3270 1068 599 512 2910 2801 2334 569
is_linear=0
shrinkage=0.02


Tree=47
num_leaves=15
num_cat=1
split_feature=12 10 7 1 1 4 10 7 2 2 8 7 8 9
split_gain=0.31724 0.779108 0.715977 0.286598 0.264482 0.264238 0.220674 0.22178 0.223225 0.166252 0.198246 0.164869 0.180974 0.189767
threshold=0 21.500000000000004 -0.24495050423895348 1.160177922190899 0.30646504900546617 0.07184172702595247 22.500000000000004 1.6907900435769381 0.78914180427810254 1.2016488375543035 1.3864444338515236 0.099952893286706437 -0.71361345125074027 0.21226191292758842
decision_type=9 10 2 2 2 2 8 2 2 2 2 2 2 2
left_child=1 11 -3 4 5 -4 7 8 -2 -10 -11 -1 -13 -14
right_child=6 2 3 -5 -6 -7 -8 -9 9 10 -12 12 13 -15
leaf_value=0.0004151673976337589 0.00036437912874184186 0.00035922840538403494 -0.00028453998815287685 -0.00012268097315871611 -0.0017758814436085269 -0.0014347957816981331 5.9063189350678366e-06 0.001210724328639773 -0.00069265508946161013 0.00091430646356541743 -0.00028385318495002728 0.00041740429000833968 -0.00072320449438080655 0.00014691029902562462
leaf_weight=484 1118 204 175 124 196 147 4137 92 153 81 150 191 213 183
leaf_count=484 1118 204 175 124 196 147 4137 92 153 81 150 191 213 183
internal_value=8.37303e-06 -0.000213363 -0.000666281 -0.000992402 -0.00119743 -0.000823566 8.28917e-05 0.000282571 0.000221892 -0.000192304 0.00014675 0.000143856 -8.14666e-05 -0.000324288
internal_weight=7648 1917 846 642 518 322 5731 1594 1502 384 231 1071 587 396
internal_count=7648 1917 846 642 518 322 5731 1594 1502 384 231 1071 587 396
cat_boundaries=0 1
cat_threshold=832
is_linear=0
shrinkage=0.02


Tree=48
num_leaves=15
num_cat=5
split_feature=12 11 7 12 3 12 7 12 1 5 7 12 9 2
split_gain=0.303737 0.270933 0.193394 0.220194 0.261586 0.185198 0.165239 0.144238 0.140614 0.187915 0.160151 0.130021 0.117677 0.311603
threshold=0 0.48147571442721254 0.67815424547446723 1 -0.60818392914135833 2 -0.55760656531762143 3 0.62793206847958627 0.22035235766843944 0.67815424547446723 4 -0.31247406819167317 -0.082284003920462437
decision_type=9 2 2 9 2 9 2 9 2 2 2 9 2 2
left_child=-1 7 5 4 -4 -3 11 -2 10 -10 -9 -7 13 -8
right_child=1 2 3 -5 -6 6 12 8 9 -11 -12 -13 -14 -15
leaf_value=-0.00051843544876549474 -2.4543270358980339e-05 -3.6935701707939376e-06 -0.00021135565528706852 -0.00022643059473072139 0.00084273863218438166 0.00053285559187085294 0.00041504985249076978 -2.837602626249288e-05 -0.00021544689327928718 -0.0015484585681724116 -0.00072071044700369941 -1.5744069232519464e-05 0.00056580876296311142 -0.00090612098869645376
leaf_weight=415 1054 1445 179 1146 190 202 376 431 86 82 189 852 883 83
leaf_count=415 1054 1445 179 1146 190 202 376 431 86 82 189 852 883 83
internal_value=-2.06041e-06 2.87302e-05 0.000100724 -9.04219e-05 0.000326679 0.000176136 0.000283207 -0.000180156 -0.000381708 -0.000892032 -0.000243504 9.6298e-05 0.000431205 0.000168955
internal_weight=7613 7198 5356 1515 369 3841 2396 1842 788 168 620 1054 1342 459
internal_count=7613 7198 5356 1515 369 3841 2396 1842 788 168 620 1054 1342 459
cat_boundaries=0 1 2 3 4 5
cat_threshold=64 20 390 27 512
is_linear=0
shrinkage=0.02


Tree=49
num_leaves=15
num_cat=2
split_feature=10 7 12 10 10 6 9 12 5 9 9 5 9 7
split_gain=0.359709 0.218079 0.633544 0.499314 0.468507 0.215312 0.374743 0.343006 0.375003 0.225359 0.206827 0.34765 0.197545 0.204446
threshold=23.500000000000004 1.0000000180025095e-35 0 1.0000000180025095e-35 21.500000000000004 0.15350317196388083 0.85308057665971793 1 -0.13792360885777319 -0.55451902801112218 0.95995014500569675 -0.16448510717015266 -0.13430333712074519 1.1852650154968642
decision_type=10 2 9 10 10 2 2 9 2 2 2 2 2 2
left_child=1 -1 4 -4 -3 -6 7 9 -9 -7 11 -2 -5 -14
right_child=10 2 3 12 5 6 -8 8 -10 -11 -12 -13 13 -15
leaf_value=0.00013972107808813292 -0.0010297189179160025 -2.1382190592774744e-05 -0.0001796517945225631 0.00021104085453724228 -0.00087178438382351986 -0.00072532310134911242 0.00083728612182312648 -0.0003617228922566127 -0.002197632682081526 0.00041959502805664315 -0.0013918387864597459 0.00020417776154441663 0.00055040607505181896 0.0014647674020817317
leaf_weight=3461 156 1270 601 342 534 114 91 96 82 158 89 208 319 144
leaf_count=3461 156 1270 601 342 534 114 91 96 82 158 89 208 319 144
internal_value=-9.16982e-06 2.53284e-05 -8.02657e-05 0.000254007 -0.000280687 -0.000588111 -0.000302689 -0.000539885 -0.00117994 -6.24371e-05 -0.000552681 -0.000331422 0.000580016 0.000847397
internal_weight=7665 7212 3751 1406 2345 1075 541 450 178 272 453 364 805 463
internal_count=7665 7212 3751 1406 2345 1075 541 450 178 272 453 364 805 463
cat_boundaries=0 1 2
cat_threshold=961 513
is_linear=0
shrinkage=0.02


Tree=50
num_leaves=15
num_cat=4
split_feature=10 11 3 7 12 10 11 10 11 10 12 7 12 12
split_gain=0.385155 0.39254 0.351154 0.328654 0.364955 0.462843 0.382498 0.362294 0.344698 0.26498 0.352871 0.323506 0.255903 0.253739
threshold=23.500000000000004 0.47526317620013042 0.51228667451141907 0.019689883212350743 0 1.0000000180025095e-35 0.46229593534533037 21.500000000000004 0.4694856827732678 20.500000000000004 1 -0.36825521204661399 2 3
decision_type=10 2 2 2 9 10 2 10 2 10 9 2 9 9
left_child=2 -2 3 9 7 12 -7 -5 -9 13 -11 -12 -6 -1
right_child=1 -3 -4 4 5 6 -8 8 -10 10 11 -13 -14 -15
leaf_value=-0.00053426676116666652 -0.0016653333384042176 -0.00025973187407964143 0.00035677091887891118 -0.00013106058578705415 -0.00114108865335741 -0.00076678385675159224 0.00039101086827749988 -0.0017804358448195565 -0.00054791652143792037 0.00066221349445200802 -0.00025163890882614508 0.00052911516875653612 -0.0001834001884824013 7.4810926648876538e-05
leaf_weight=355 99 348 1030 835 133 124 1005 106 555 608 563 334 520 1042
leaf_count=355 99 348 1030 835 133 124 1005 106 555 608 563 334 520 1042
internal_value=-1.96782e-05 -0.000586018 1.58151e-05 -4.12534e-05 -0.000178357 1.61411e-05 0.000261028 -0.000406719 -0.00075745 0.000113655 0.00029735 3.99552e-05 -0.000405775 -8.4596e-05
internal_weight=7657 447 7210 6180 3278 1782 1129 1496 661 2902 1505 897 653 1397
internal_count=7657 447 7210 6180 3278 1782 1129 1496 661 2902 1505 897 653 1397
cat_boundaries=0 1 2 3 4
cat_threshold=960 656 16 20
is_linear=0
shrinkage=0.02


Tree=51
num_leaves=15
num_cat=2
split_feature=12 7 5 2 5 8 2 2 6 1 12 3 6 2
split_gain=0.299075 0.350751 0.203181 0.227387 0.186972 0.229184 0.361795 0.263557 0.226475 0.20552 0.166615 0.137784 0.126582 0.111592
threshold=0 -0.57330798725942012 1.4571995433999667 0.40888878676934315 -0.41304354542645311 -0.71361345125074027 -0.58936427628618415 -0.93974003773248782 0.4049192835288748 1.0923906675671262 1 -1.6388156464462722 0.99230739806512147 1.1766800907110833
decision_type=9 2 2 2 2 2 2 2 2 2 9 2 2 2
left_child=1 12 11 -4 10 7 -7 8 -6 13 -3 -2 -1 -8
right_child=2 4 3 -5 5 6 9 -9 -10 -11 -12 -13 -14 -15
leaf_value=0.00033448976467605657 0.0006748756816030969 -0.00045878133643630098 4.7951261553885282e-05 -0.0010672315394941298 0.00017259071025972728 -0.0016776700766058638 -0.00061042703202420694 0.00069021256459707032 -0.0010121021908912156 0.00010580907995776775 0.00017481193636307828 0.00013319300621359361 -0.00047789090493661834 5.3934806726966841e-05
leaf_weight=678 193 212 194 112 146 91 840 154 109 255 603 3825 82 114
leaf_count=678 193 212 194 112 146 91 840 154 109 255 603 3825 82 114
internal_value=1.27004e-05 -0.000130871 0.000121786 -0.000370816 -0.000244612 -0.000363193 -0.000492673 4.93366e-05 -0.000343533 -0.000396938 4.74441e-06 0.000160019 0.000244288 -0.000531171
internal_weight=7608 3284 4324 306 2524 1709 1300 409 255 1209 815 4018 760 954
internal_count=7608 3284 4324 306 2524 1709 1300 409 255 1209 815 4018 760 954
cat_boundaries=0 1 2
cat_threshold=964 512
is_linear=0
shrinkage=0.02


Tree=52
num_leaves=15
num_cat=0
split_feature=10 11 9 8 11 11 1 5 9 8 1 0 10 11
split_gain=0.364056 0.326515 0.191193 0.251711 0.30053 0.255127 0.224679 0.188695 0.211436 0.188574 0.23226 0.187599 0.24526 0.18575
threshold=23.500000000000004 0.47526317620013042 -0.24189571156346482 -0.27721025980884095 0.55819200910936217 0.48824853774373872 0.89867883714797669 -0.47372513014814038 0.77228234567628529 -0.71361345125074027 0.11580546845070021 -0.070736555895867054 22.500000000000004 0.53349769348080656
decision_type=10 2 2 2 2 2 2 2 2 2 2 2 8 2
left_child=2 -2 9 11 5 7 13 8 -5 10 -1 -4 -13 -7
right_child=1 -3 3 4 -6 6 -8 -9 -10 -11 -12 12 -14 -15
leaf_value=0.00019564722280893815 -0.0015548584641267857 -0.00026466948614330891 0.00010038564996429756 0.00062484052727490461 -0.00063288053463621751 0.00023505668868722629 0.00056957450683106658 -0.00038581247113657352 -0.00052570522902053356 -0.00023931901178854409 -0.00045188393166217095 0.0014437132635297619 0.00040915516288904825 -0.00024909804088940081
leaf_weight=1173 97 353 461 184 248 1021 515 621 92 1635 268 117 398 454
leaf_count=1173 97 353 461 184 248 1021 515 621 92 1635 268 117 398 454
internal_value=-8.1713e-06 -0.000556807 2.65437e-05 0.000115714 2.81767e-05 8.59591e-05 0.000212036 -0.000193367 0.000238795 -9.26242e-05 7.4072e-05 0.000395313 0.000655813 8.56974e-05
internal_weight=7637 450 7187 4111 3135 2887 1990 897 276 3076 1441 976 515 1475
internal_count=7637 450 7187 4111 3135 2887 1990 897 276 3076 1441 976 515 1475
is_linear=0
shrinkage=0.02


Tree=53
num_leaves=15
num_cat=0
split_feature=10 7 0 2 7 11 0 5 4 1 0 8 0 0
split_gain=0.351934 0.262142 0.264588 0.215961 0.196388 0.191311 0.186223 0.182734 0.235281 0.182842 0.238897 0.187267 0.214605 0.182699
threshold=22.500000000000004 0.67815424547446723 -0.24645968346762284 0.78914180427810254 1.1207674684003994 0.48824853774373872 -0.71171466320941934 -0.32172369419974844 -0.61766491416235259 -0.70445018711930951 -0.35564671365996081 -0.70781357178995508 0.36802217102310802 0.25509330479992204
decision_type=8 2 2 2 2 2 2 2 2 2 2 2 2 2
left_child=3 -2 -3 6 -4 -5 -1 -8 -9 -10 -11 -12 -13 -6
right_child=1 2 4 5 13 -7 7 8 9 10 11 12 -14 -15
leaf_value=-2.1871406428969755e-05 1.690197904377032e-05 -0.00068017259684772103 -0.000328593647270062 -0.00084581262599844648 0.00084807908228012158 8.3885571791033061e-05 0.00081791638885811359 -0.00067579951845606512 0.0011855826587723742 0.0010169380507259458 0.00063074763745961263 0.00015985518271004521 -0.00093490468037568707 -8.0994238682172216e-05
leaf_weight=389 4150 475 575 106 130 434 416 84 101 130 148 202 105 225
leaf_count=389 4150 475 575 106 130 434 416 84 101 130 148 202 105 225
internal_value=2.04893e-05 -6.31254e-05 -0.000298727 0.000239733 -0.000101307 -0.000104696 0.00035778 0.000481872 0.000296216 0.000419267 0.000278036 5.81628e-05 -0.000223556 0.000266283
internal_weight=7670 5555 1405 2115 930 540 1575 1186 770 686 585 455 307 355
internal_count=7670 5555 1405 2115 930 540 1575 1186 770 686 585 455 307 355
is_linear=0
shrinkage=0.02


Tree=54
num_leaves=15
num_cat=0
split_feature=10 10 3 9 6 1 1 1 6 10 4 9 8 3
split_gain=0.382767 0.259519 0.399675 0.280889 0.276471 0.227957 0.224716 0.290108 0.244716 0.195486 0.184009 0.25661 0.226705 0.169009
threshold=23.500000000000004 22.500000000000004 0.53240572324126789 -0.47915479933249333 0.83155660330888848 -0.34698873517740425 -0.44442742601272883 -0.39074467454762635 -0.21355024031638767 22.500000000000004 0.07184172702595247 0.91000326078653482 0.7518461660747795 0.31847732462428863
decision_type=10 8 2 2 2 2 2 2 2 10 2 2 2 2
left_child=1 4 3 -3 6 -2 8 -8 -1 -4 11 12 -9 -6
right_child=5 2 9 -5 13 -7 7 10 -10 -11 -12 -13 -14 -15
leaf_value=8.3780493526182663e-05 -0.0012381763859944297 -0.00033932098107745809 0.000503271709121976 4.5954632989082598e-06 0.00034970029755746672 -0.00025319653953155915 -0.0010272871297991623 0.00071191233456612078 0.001152184059076105 -0.00029994830581976255 -0.0001935270635520256 -0.00033985888070674263 -0.0003065260925103684 0.0011923655724044176
leaf_weight=188 132 1423 697 2837 236 311 96 436 154 143 537 187 106 162
leaf_count=188 132 1423 697 2837 236 311 96 436 154 143 537 187 106 162
internal_value=1.00094e-05 4.52633e-05 -3.18483e-05 -0.000110549 0.000231988 -0.000557233 0.000120184 4.40993e-06 0.000574544 0.000365567 8.63764e-05 0.000292474 0.000511753 0.000703233
internal_weight=7645 7202 5100 4260 2102 443 1704 1362 342 840 1266 729 542 398
internal_count=7645 7202 5100 4260 2102 443 1704 1362 342 840 1266 729 542 398
is_linear=0
shrinkage=0.02


Tree=55
num_leaves=15
num_cat=2
split_feature=10 2 7 12 10 3 10 4 6 12 7 4 10 2
split_gain=0.237677 0.207966 0.199258 0.376311 0.438878 0.299323 0.2786 0.209531 0.195262 0.167698 0.17155 0.15431 0.266989 0.240028
threshold=23.500000000000004 -0.80610947925022558 0.019689883212350743 0 20.500000000000004 0.12027348027534619 22.500000000000004 -0.5449511037354392 0.51132504271336054 1 -0.55760656531762143 0.07184172702595247 21.500000000000004 -0.02245833764117831
decision_type=10 2 2 9 10 2 10 2 2 9 2 2 10 2
left_child=2 -2 -1 6 5 -5 11 -6 -9 -3 -11 -4 -13 -14
right_child=1 9 3 4 7 -7 -8 8 -10 10 -12 12 13 -15
leaf_value=0.00013118781415116242 -0.001333465429217836 -0.00086743203079343856 7.0565114458876878e-05 -0.00057796171806604975 0.0011114439527743949 0.00033687544897908253 -0.00063136243404255722 1.143455440252233e-05 0.00070308373432911549 -0.00067423772783233569 0.00038097122678635599 -6.3039440396990513e-05 -0.001457509944439081 -0.00026310937241016128
leaf_weight=3530 81 102 891 373 162 226 542 374 285 86 186 589 122 149
leaf_count=3530 81 102 891 373 162 226 542 374 285 86 186 589 122 149
internal_value=-4.28637e-06 -0.000445125 2.36948e-05 -7.85393e-05 0.000176438 -0.000232866 -0.000236221 0.000476803 0.000313596 -0.000237677 3.97556e-05 -0.000113805 -0.000304125 -0.000817473
internal_weight=7698 455 7243 3713 1420 599 2293 821 659 374 272 1751 860 271
internal_count=7698 455 7243 3713 1420 599 2293 821 659 374 272 1751 860 271
cat_boundaries=0 1 2
cat_threshold=961 584
is_linear=0
shrinkage=0.02


Tree=56
num_leaves=15
num_cat=0
split_feature=10 7 3 10 0 10 9 7 9 3 6 3 7 6
split_gain=0.370516 0.275676 0.250417 0.406292 0.442585 0.332842 0.237866 0.229691 0.24148 0.160098 0.159247 0.158516 0.143096 0.129692
threshold=23.500000000000004 0.93982558028656393 0.55731827687505309 21.500000000000004 -0.0084986446821173744 22.500000000000004 -0.82354660725746875 0.044682183084058684 -0.46923924306996251 1.3330318007170938 0.27881253910082998 -0.12630369860803434 1.2440706888874866 -0.31162983237622394
decision_type=10 2 2 10 2 8 2 2 2 2 2 2 2 2
left_child=2 11 5 -4 -5 6 10 -7 13 -6 -1 -2 -8 -9
right_child=1 -3 3 4 9 7 12 8 -10 -11 -12 -13 -14 -15
leaf_value=0.0014656853956305927 -0.00032474473956421279 0.00043290657401954819 0.00054225307373542892 -0.0014537937881080629 0.00085747144120030627 1.6764171745730096e-05 5.1142957554268061e-05 -0.00011743002023229985 -0.00011464716822852074 -0.00033618320686448565 0.00034176208631056428 -0.0011671219975742735 0.00068092633166889308 -0.00070861185480377274
leaf_weight=84 164 86 754 91 81 2197 1575 203 1386 90 126 206 154 571
leaf_count=84 164 86 754 91 81 2197 1575 203 1386 90 126 206 154 571
internal_value=-1.7856e-05 -0.000567788 1.68041e-05 0.000307357 -0.000366139 -3.02897e-05 0.000187392 -0.000127269 -0.000273469 0.000237529 0.000814962 -0.000803052 0.000109039 -0.000555309
internal_weight=7768 456 7312 1016 262 6296 1939 4357 2160 171 210 370 1729 774
internal_count=7768 456 7312 1016 262 6296 1939 4357 2160 171 210 370 1729 774
is_linear=0
shrinkage=0.02


Tree=57
num_leaves=15
num_cat=3
split_feature=12 10 11 3 2 6 3 3 10 3 12 11 6 12
split_gain=0.355253 0.360366 0.530732 0.312236 0.244426 0.261168 0.191212 0.231767 0.167406 0.316923 0.369474 0.278883 0.274398 0.217936
threshold=0 22.500000000000004 0.48436281952651783 -0.053033752178004066 0.73782708880572023 0.047250333342077587 0.55731827687505309 -0.35245634188125069 23.500000000000004 0.53240572324126789 1 0.46543962845459391 -0.27212253150532034 2
decision_type=9 10 2 2 2 2 2 2 8 2 9 2 2 9
left_child=1 6 3 -3 5 -4 7 -1 11 10 -10 12 -2 -13
right_child=8 2 4 -5 -6 -7 -8 -9 9 -11 -12 13 -14 -15
leaf_value=0.00029744590094853352 -0.0010985803353153946 -0.00043775014039129022 -0.00092165259789908302 -0.0019522989032723544 0.00056014620082995561 3.0182613144544038e-05 0.00041756402977476841 -0.00022351778651462755 -0.00064389725706126349 0.00040628535939114433 2.0114371231884403e-05 0.00063032301628248579 0.00014981330905346514 0.00016060513040628307
leaf_weight=416 115 95 219 135 122 237 288 1814 451 499 1199 554 168 1392
leaf_count=416 115 95 219 135 122 237 288 1814 451 499 1199 554 168 1392
internal_value=-2.54596e-05 -0.000180818 -0.000547484 -0.00134935 -0.000219567 -0.000431987 -6.30233e-05 -0.000125886 9.28395e-05 -3.29013e-05 -0.000166548 0.000214285 -0.00036775 0.000299654
internal_weight=7704 3326 808 230 578 456 2518 2230 4378 2149 1650 2229 283 1946
internal_count=7704 3326 808 230 578 456 2518 2230 4378 2149 1650 2229 283 1946
cat_boundaries=0 1 2 3
cat_threshold=964 16 16
is_linear=0
shrinkage=0.02


Tree=58
num_leaves=15
num_cat=2
split_feature=11 5 11 12 3 12 1 3 11 11 9 2 2 5
split_gain=0.288301 0.261694 0.200992 0.164873 0.174039 0.152112 0.182862 0.255482 0.151074 0.166806 0.143218 0.141653 0.197802 0.162767
threshold=0.48147571442721254 1.4279658115109959 0.56893949097581609 0 -0.078001515708069513 1 0.59024376827379776 -0.053033752178004066 0.50749939512740061 0.51653592757558953 0.080617714443879843 -0.35795313912544807 -0.29550548132423476 -1.0786856089032726
decision_type=2 2 2 9 2 9 2 2 2 2 2 2 2 2
left_child=1 5 3 4 -2 -1 -7 -8 10 -10 -6 -5 -13 -14
right_child=2 -3 -4 11 8 6 7 -9 9 -11 -12 12 13 -15
leaf_value=0.00025169719048494173 0.00047463355405877035 -0.0010230799996777062 -0.00036428541229693243 0.00030981869703762451 -0.0003197399503041575 -9.9431627874965077e-05 -4.9863371409961346e-05 -0.0011605708862135679 -0.0010915036569086876 -0.00023951262831533197 0.00063584889451860735 -0.0007874528227793966 0.00050614485146393737 4.9862351326221368e-05
leaf_weight=329 145 137 368 1668 132 1175 159 169 128 311 111 97 355 2393
leaf_count=329 145 137 368 1668 132 1175 159 169 128 311 111 97 355 2393
internal_value=1.27654e-05 -0.000195613 8.47546e-05 0.000116012 -0.00014217 -0.000131117 -0.000215709 -0.000630982 -0.000277878 -0.000497423 0.000120783 0.000163381 7.77059e-05 0.000109619
internal_weight=7677 1969 5708 5340 827 1832 1503 328 682 439 243 4513 2845 2748
internal_count=7677 1969 5708 5340 827 1832 1503 328 682 439 243 4513 2845 2748
cat_boundaries=0 1 2
cat_threshold=192 10
is_linear=0
shrinkage=0.02


Tree=59
num_leaves=15
num_cat=2
split_feature=10 3 3 7 0 10 7 12 10 7 12 7 6 6
split_gain=0.196345 0.287072 0.156255 0.186961 0.190466 0.166259 0.245238 0.206812 0.160231 0.326418 0.148041 0.292415 0.194718 0.189948
threshold=22.500000000000004 1.3036978416513161 -0.9776424036788347 -0.20082188880577817 -0.53787823343858987 23.500000000000004 -0.41198077576915565 0 22.500000000000004 0.11762364073679714 1 -0.20082188880577817 -0.10029505290203815 -0.69924288223615305
decision_type=8 2 2 2 2 8 2 9 10 2 9 2 2 2
left_child=10 2 8 5 -5 6 7 -4 -2 -10 11 -1 -13 -12
right_child=1 -3 3 4 -6 -7 -8 -9 9 -11 13 12 -14 -15
leaf_value=0.00058823940868392183 0.00043862945847361097 0.00038540851406196455 -0.00048911675666321944 -0.00056675628561117302 -0.000164405289901988 -0.00011602502454342202 0.001050621337454879 0.00041467778266762826 -0.0010295489700645423 0.00063305686281501562 -0.00018764918326929651 -0.00095447502655499593 -3.2056449989552123e-05 0.00036150553332139071
leaf_weight=153 373 507 155 614 1995 1318 127 236 99 82 309 159 208 1298
leaf_count=153 373 507 155 614 1995 1318 127 236 99 82 309 159 208 1298
internal_value=-2.70802e-06 -6.57564e-05 -0.000111853 -0.000151352 -0.000259997 3.32166e-06 0.000305194 5.28643e-05 0.000203586 -0.000279555 0.000160272 -0.000131626 -0.000439145 0.000254081
internal_weight=7633 5506 4999 4445 2609 1836 518 391 554 181 2127 520 367 1607
internal_count=7633 5506 4999 4445 2609 1836 518 391 554 181 2127 520 367 1607
cat_boundaries=0 1 2
cat_threshold=7 832
is_linear=0
shrinkage=0.02


Tree=60
num_leaves=15
num_cat=1
split_feature=10 12 0 8 4 4 3 10 3 3 3 0 5 5
split_gain=0.262197 0.752312 0.421572 0.349207 0.246233 0.290509 0.242441 0.285867 0.456761 0.33681 0.206738 0.263716 0.23667 0.180509
threshold=22.500000000000004 0 -1.4071484393737796 -1.118970339744455 -0.98706258676278058 1.4145343411090627 0.64996861741398659 20.500000000000004 -0.66772926546683142 -0.65926709729895983 1.0355852619930122 -0.76919392655057006 -0.09017814486165085 0.27407520781517486
decision_type=10 9 2 2 2 2 2 10 2 2 2 2 2 2
left_child=6 3 -3 -2 -4 -6 7 8 -1 -10 11 12 -5 -13
right_child=1 2 4 10 5 -7 -8 -9 9 -11 -12 13 -14 -15
leaf_value=0.00046008115510129096 -0.00088930753303099086 0.00064340900720178513 -0.0016684704741976241 -0.001045730308026952 -0.00045798548088335321 -0.0016244507210604769 0.00038554599465287991 0.00020339582970513211 -0.00082556809526808882 -0.00013093785883901531 -0.0006112728317032803 0.00086726505265424391 0.00030716337050010163 0.00020220062392130244
leaf_weight=459 105 98 93 80 747 93 818 1892 319 2043 86 382 128 289
leaf_count=459 105 98 93 80 747 93 818 1892 319 2043 86 382 128 289
internal_value=-3.43938e-06 -0.000193374 -0.000574417 0.000178428 -0.000711206 -0.000595978 6.88185e-05 1.34961e-05 -0.000114001 -0.000226297 0.000300431 0.000392584 -0.000225513 0.000584436
internal_weight=7632 2101 1031 1070 933 840 5531 4713 2821 2362 965 879 208 671
internal_count=7632 2101 1031 1070 933 840 5531 4713 2821 2362 965 879 208 671
cat_boundaries=0 1
cat_threshold=30
is_linear=0
shrinkage=0.02


Tree=61
num_leaves=15
num_cat=0
split_feature=11 10 7 3 7 9 8 8 0 3 10 3 3 6
split_gain=0.226357 0.601786 0.233373 0.327061 0.358192 0.275555 0.191484 0.172028 0.189643 0.160466 0.135034 0.330545 0.22879 0.24576
threshold=0.48824853774373872 21.500000000000004 1.0000000180025095e-35 0.45650537733364854 0.10411831529672662 -0.68395609296954973 0.19825484309063182 0.8391020752295496 -0.093886573545551813 0.53240572324126789 23.500000000000004 0.59585617488542375 1.081596419425872 -0.62925459361624203
decision_type=2 10 2 2 2 2 2 2 2 2 8 2 2 2
left_child=1 9 5 4 -4 -3 -6 8 -7 -1 12 -12 13 -2
right_child=10 2 3 -5 6 7 -8 -9 -10 -11 11 -13 -14 -15
leaf_value=-1.7935929044360028e-05 -0.00014492523220327068 0.00082162333485286902 -0.0015903881082065508 -0.0015724971477608224 -0.00065666801084249455 -0.00068348412989594409 0.00037544892228540182 -0.0011910532357211671 0.00045956439450728126 0.00050874397814998547 -0.00015137809821217304 0.00043416290676041251 -0.00063410926080457325 0.00030575157450364089
leaf_weight=1099 627 80 85 163 137 121 141 87 103 288 2027 471 133 2080
leaf_count=1099 627 80 85 163 137 121 141 87 103 288 2027 471 133 2080
internal_value=-4.61051e-06 -0.000170078 -0.000566129 -0.000839446 -0.000493387 -0.000192487 -0.0001358 -0.000462225 -0.000159328 9.28597e-05 6.69013e-05 -4.03271e-05 0.000161122 0.00020129
internal_weight=7642 2304 917 526 363 391 278 311 224 1387 5338 2498 2840 2707
internal_count=7642 2304 917 526 363 391 278 311 224 1387 5338 2498 2840 2707
is_linear=0
shrinkage=0.02


Tree=62
num_leaves=15
num_cat=3
split_feature=11 5 12 11 2 0 0 11 9 12 1 0 12 8
split_gain=0.234323 0.242873 0.221925 0.147899 0.229449 0.141126 0.176677 0.238299 0.214852 0.179408 0.164858 0.190498 0.233639 0.328082
threshold=0.47079727713388814 1.3982442253169511 0 0.56582255068642362 0.22641406330836147 -1.7193408238593388 -0.88992445002016363 0.49530999512335877 -0.10330656318438837 1 0.6125788464594174 0.10485452366085748 2 -0.3895817402667141
decision_type=2 2 9 2 2 2 2 2 2 9 2 2 9 2
left_child=1 -1 -2 5 -5 -4 7 -7 -9 -10 11 12 -8 -14
right_child=2 -3 3 4 -6 6 10 8 9 -11 -12 -13 13 -15
leaf_value=-0.00015117776505536537 0.00023405542690320972 -0.0010588335035059261 0.0006918072777174028 -4.8732659238081544e-05 -0.0011336628053880606 -0.0011057311959388689 0.00042892533179516619 -0.0010181495966931243 -0.00026702847874781834 0.00061044926855232642 0.00035709878841374187 0.00010812408259455858 0.00027207234349512193 -0.00060187279227495586
leaf_weight=1412 1795 124 111 224 115 122 166 81 216 142 542 1678 231 639
leaf_count=1412 1795 124 111 224 115 122 166 81 216 142 542 1678 231 639
internal_value=-7.41881e-06 -0.00022765 4.85253e-05 -3.01815e-05 -0.000427905 4.56705e-06 -1.62971e-05 -0.000342459 -0.000120279 9.40963e-05 4.03387e-05 -2.34603e-05 -0.000236082 -0.00036542
internal_weight=7598 1536 6062 4267 339 3928 3817 561 439 358 3256 2714 1036 870
internal_count=7598 1536 6062 4267 339 3928 3817 561 439 358 3256 2714 1036 870
cat_boundaries=0 1 2 3
cat_threshold=24 71 128
is_linear=0
shrinkage=0.02


Tree=63
num_leaves=15
