tree
version=v4
num_class=1
num_tree_per_iteration=1
label_index=0
max_feature_idx=12
objective=regression
feature_names=dash_z speed_score_z explosion_z agility_z weight_z height_z bmi_z bench_z vert_leap_z broad_z age col_enc pos_g
feature_infos=[-2.8825941107634123:4] [-3.6051347193562182:4] [-3.9393026627979766:4] [-4:4] [-4:4] [-4:3.7581599448484058] [-4:4] [-4:4] [-3.9017356605843081:4] [-4:4] [20:28] [0.41065709470300521:0.58166464743239199] -1:0:4:9:3:7:2:1:8:6
tree_sizes=1495 1520 1510 1508 1523 1527 1542 1534 1519 1507 1522 1529 1538 1535 1525 1529 1523 1521 1537 1506 1521 1522 1524 1528 1522 1529 1516 1524 1528 1529 1530 1539 1529 1523 1529 1555 1516 1527 1530 1521 1536 1528 1534 1549 1535 1540 1523 1536 1529 1523 1529 1530 1534 1537 1520 1531 1539 1510 1559 1539 1543 1532 1535 1551 1543 1532 1551 1535 1535 1529 1531 1519 1546 1538 1527 1524 1528 1537 1523 1529 1527 1514 1532 1542 1524 1520 1528 1522 1522 1535 1535 1532 1531 1526 1526 1526 1517 1527 1529 1550 1526 1535 1538 1526 1542 1526 1546 1549 1537 1522 1527 1532 1539 1550 1544 1534 1515 1525 1544 1525 1526 1553 1545 1530 1532 1526 1537 1531 1525 1539 1549 1536 1520 1538 1547 1530 1549 1549 1536 1544 1544 1527 1519 1533 1528 1538 1551 1520 1548 1533 1536 1522 1524 1533 1522 1551 1559 1523 1514 1548 1530 1546 1519 1533 1546 1520 1547 1529 1533 1536 1540 1525 1527 1533 1535 1526 1553 1543 1544 1511 1536 1545 1542 1534 1524 1528 1543 1546 1526 1553 1522 1534 1550 1561 1550 1549 1540 1536 1534 1531 1527 1546 1522 1519 1517 1511 1512 1512 1548 1544 1549 1529 1541 1526 1536 1551 1528 1531 1566 1532 1510 1516 1514 1520 1520 1532 1527 1552 1544 1557 1517 1518 1531 1548 1532 1525 1543 1548 1533 1530 1527 1541 1538 1516 1529 1520 1562 1533 1518 1545 1534 1546 1545 1558 1540 1552 1539 1521 1543 1540 1535 1532 1541 1540 1520 1524 1550 1554 1530 1545 1552 1526 1524 1562 1544 1525 1528 1525 1531 1543 1553 1545 1566 1536 1550 1556 1541 1530 1538 1543 1533 1540 1528 1532 1539 1544 1527 1540 1540 1561 1531 1550 1533 1561 1533 1544 1549 1545 1539 1517 1542 1541 1558 1553 1544 1540 1539 1534 1553 1529 1540 1533 1523 1529 1538 1531 1541 1525 1521 1521 1537 1529 1543 1530 1536 1548 1537 1553 1539 1533 1538 1525 1509 1553 1513 1538 1555 1527 1519 1550 1535 1538 1543 1563 1540 1531 1540 1547 1547 1532 1542 1527 1546 1547 1547 1541 1540 1545 1528 1549 1541 1544 1558 1530 1529 1544 1539 1546 1539 1542 1543 1548 1530 1531 1545 1532 1532 1539 1534 1542 1535 1534 1533 1543 1512 1540 1530 1545 1541 1555 1559 1525 1527 1541 1552 1556 1535 1547 1550 1563 1556 1553 1542 1539 1522 1548 1535 1530 1538 1533 1541 1525 1542 1517 1534 1554 1527 1537 1554 1546 1524 1532 1527 1528 1545 1542 1544 1539 1546 1553 1533 1536 1564 1548 1503 1545 1560 1551 1525 1543 1527 1541 1539 1543 1537 1538 1519 1535 1551 1546 1516 1520 1542 1550 1561 1533 1543 1548 1531 1531 1543 1533 1556 1549 1535 1525 1536 1549 1535 1560 1532 1533 1560 1518 1530 1551 1551 1554 1550 1543 1549 1535 1540 1519 1536 1524 1558 1537 1534 1530 1532 1543 1522 1521 1531 1550 1555 1542 1540 1535 1522 1543 1514 1536 1528 1535 1551 1527 1547 1556 1528 1543 1534 1537 1542 1551 1523 1543 1550 1543 1528 1557 1534 1555 1555 1548 1553 1536 1536 1534 1526 1538 1520 1561 1550 1548 1534 1537 1532 1557 1525 1546 1557 1513 1556 1543 1556 1524 1539 1528 1550 1543 1523 1528 1527 1539 1525 1557 1561 1526 1543 1543 1538 1530 1549 1536 1533 1551 1534 1554 1563 1544 1545 1561 1515 1531 1541 1549 1542 1552 1531 1548 1559 1532 1551 1540 1547 1540 1531 1518

Tree=0
num_leaves=15
num_cat=0
split_feature=10 11 0 3 5 10 10 9 11 11 5 9 3 10
split_gain=68.3986 2.00054 1.87844 0.862858 0.79703 0.62453 0.611619 0.444797 0.28477 0.39239 0.23416 0.217738 0.215797 0.176531
threshold=1.0000000180025095e-35 0.46972703222844286 -0.37264119731108353 0.51279693141352711 0.2288078910693532 22.500000000000004 22.500000000000004 -0.26694532145084404 0.49273685403208262 0.50222158941796169 -0.061982427716790474 -0.12513388260319716 0.098823862975799412 23.500000000000004
decision_type=10 2 2 2 2 10 10 2 2 2 2 2 2 10
left_child=2 4 8 7 6 -3 -2 -4 -1 -10 -11 -5 -8 -7
right_child=1 5 3 11 -6 13 12 -9 9 10 -12 -13 -14 -15
leaf_value=-0.081681966803529599 -0.077806604247158531 -0.077878423742954103 -0.082688584471509313 -0.081841236810674525 -0.080266225281208275 -0.078313131734891905 -0.078961696864118316 -0.082088325002048892 -0.080068799776287211 -0.081608715765187148 -0.080812167554516881 -0.081077076454639657 -0.080219821739085984 -0.078844881086379687
leaf_weight=401 144 1859 1144 471 246 1368 124 1113 144 315 305 254 93 378
leaf_count=401 144 1859 1144 471 246 1368 124 1113 144 315 305 254 93 378
internal_value=-0.0801131 -0.078319 -0.0819353 -0.0822021 -0.079389 -0.0781401 -0.0787971 -0.0823976 -0.0812463 -0.0810088 -0.0812257 -0.081582 -0.0794914 -0.0784243
internal_weight=8359 4212 4147 2982 607 3605 361 2257 1165 764 620 725 217 1746
internal_count=8359 4212 4147 2982 607 3605 361 2257 1165 764 620 725 217 1746
is_linear=0
shrinkage=1


Tree=1
num_leaves=15
num_cat=2
split_feature=10 0 10 12 9 7 7 8 5 8 6 12 0 9
split_gain=64.5095 1.83613 0.779915 0.753802 0.590789 0.405065 0.325154 0.320221 0.315661 0.365057 0.203872 0.174801 0.170106 0.195155
threshold=26.500000000000004 -0.70189520247001125 22.500000000000004 0 -0.24124154945680162 -0.41116274651641255 0.49008488033894254 -0.85315249739500276 0.025742769822835219 -0.70774217847394627 0.02059353559554095 1 0.47623102587868377 -0.12513388260319716
decision_type=8 2 10 9 2 2 2 2 2 2 2 9 2 2
left_child=2 11 8 6 -3 -5 -4 -7 -1 -10 -6 -2 13 -9
right_child=1 4 3 5 10 7 -8 12 9 -11 -12 -13 -14 -15
leaf_value=0.0022539389547601425 -0.0011334872088438767 -0.0022600546017289163 0.0012839814605982594 0.0012187183130526911 -0.0014937321905143044 0.001035111731576637 0.00053495737890046262 0.0014186910758632091 0.0024704736419785601 0.0015094860886125786 -0.0019977120599683177 -0.00043232331502954024 0.0029870627414312783 0.0023414950908069881
leaf_weight=1061 539 1770 677 328 923 111 368 168 217 803 633 262 132 350
leaf_count=1061 539 1770 677 328 923 111 368 168 217 803 633 262 132 350
internal_value=-1.94327e-05 -0.00179575 0.00171986 0.0014432 -0.0020031 0.00182228 0.00101435 0.00209656 0.00199943 0.00172499 -0.0017045 -0.000927674 0.00226854 0.00205863
internal_weight=8342 4127 4215 2134 3326 1089 1045 761 2081 1020 1556 801 650 518
internal_count=8342 4127 4215 2134 3326 1089 1045 761 2081 1020 1556 801 650 518
cat_boundaries=0 1 2
cat_threshold=961 157
is_linear=0
shrinkage=0.02


Tree=2
num_leaves=15
num_cat=3
split_feature=10 0 11 10 5 9 12 10 12 11 12 5 11 11
split_gain=63.3204 1.8932 1.55426 0.738922 0.593464 0.553172 0.545795 0.59398 0.434631 0.423514 0.356709 0.215084 0.19734 0.181658
threshold=1.0000000180025095e-35 -0.70189520247001125 0.48305576652563359 22.500000000000004 0.39455220288158427 -0.24124154945680162 0 22.500000000000004 1 0.4942785438284068 2 0.58116840028173955 0.46219915696710395 0.57172826293137835
decision_type=10 2 2 10 2 2 9 10 9 2 9 2 2 2
left_child=1 9 4 13 6 -3 -2 12 -5 -1 -6 -11 -8 -4
right_child=2 5 3 8 10 -7 7 -9 -10 11 -12 -13 -14 -15
leaf_value=-0.0015229775583017685 0.0021323557732200811 -0.0022234464010180625 0.0022668410476566229 0.0011878295034734589 -0.00063490833878517147 -0.0016857241504107745 0.0023526802463456988 4.1951887433421736e-05 0.0019446131597709326 -0.00077574240742815041 0.00072632365368332185 0.00015448699747003727 0.00092025958562858012 0.0014291718385694241
leaf_weight=274 208 1766 1594 810 110 1566 80 198 809 408 190 129 90 146
leaf_count=274 208 1766 1594 810 110 1566 80 198 809 408 190 129 90 146
internal_value=-5.58465e-06 -0.00176244 0.00171315 0.00190928 0.000954559 -0.00197363 0.00132777 0.000772634 0.0015901 -0.000887979 0.000227976 -0.000552916 0.0016423 0.00220085
internal_weight=8378 4143 4235 3359 876 3332 576 368 1619 811 300 537 170 1740
internal_count=8378 4143 4235 3359 876 3332 576 368 1619 811 300 537 170 1740
cat_boundaries=0 1 2 3
cat_threshold=26 835 834
is_linear=0
shrinkage=0.02


Tree=3
num_leaves=15
num_cat=0
split_feature=10 0 11 10 0 10 6 1 0 7 0 2 0 11
split_gain=60.104 1.71437 1.29714 0.788538 0.342797 0.300246 0.291225 0.294788 0.282188 0.237714 0.242268 0.243902 0.22088 0.205956
threshold=1.0000000180025095e-35 -0.70189520247001125 0.46972703222844286 22.500000000000004 0.61024172420810963 23.500000000000004 -0.60762831500775605 0.66456789572167929 0.59764100681987598 0.67480515224805793 -0.41300963742791608 0.64095390446995071 0.30915682834396591 0.4893345768395137
decision_type=10 2 2 10 2 10 2 2 2 2 2 2 2 2
left_child=1 13 6 -4 -3 9 -2 8 -8 -5 11 -11 -12 -1
right_child=2 4 3 5 -6 -7 7 -9 -10 10 12 -13 -14 -15
leaf_value=-0.0013887254623421133 2.6773344459223537e-05 -0.0017273348314860433 0.0021104236171956077 0.0018242114647422161 -0.0021640377772766499 0.0009773463604907536 0.0018263567017493187 0.00031145019981369088 0.00048318059640097444 -0.00015053564993043741 0.0022090625980725658 0.0013354429856343715 0.00098511340968044747 -0.00067477704705418769
leaf_weight=232 147 1935 1859 958 1400 372 203 149 96 85 125 85 135 587
leaf_count=232 147 1935 1859 958 1400 372 203 149 96 85 125 85 135 587
internal_value=-5.80936e-06 -0.00171197 0.0016761 0.00181864 -0.00191362 0.00150533 0.000801194 0.0010522 0.00141014 0.00164282 0.00122238 0.000609381 0.00160413 -0.000884218
internal_weight=8368 4154 4214 3619 3335 1760 595 448 299 1388 430 170 260 819
internal_count=8368 4154 4214 3619 3335 1760 595 448 299 1388 430 170 260 819
is_linear=0
shrinkage=0.02


Tree=4
num_leaves=15
num_cat=2
split_feature=10 11 0 3 10 12 9 11 12 8 7 0 9 11
split_gain=56.7351 1.82071 1.52017 0.931349 0.608371 0.63019 0.419909 0.350947 0.345302 0.282794 0.2718 0.261674 0.249892 0.224439
threshold=25.500000000000004 0.46622026847105996 -0.38163012375583155 0.56670882651888632 22.500000000000004 0 -0.85956318007396748 0.4893345768395137 1 -1.0131994634238064 0.044396546509327846 -0.2012619963632562 -0.16605987349006782 0.50136311207234074
decision_type=8 2 2 2 10 9 2 2 9 2 2 2 2 2
left_child=1 8 7 6 -3 -6 -4 -2 -1 -7 11 -10 -5 -9
right_child=2 4 3 12 5 9 -8 13 10 -11 -12 -13 -14 -15
leaf_value=0.0013172300417441873 -0.0015593824273073906 0.0020579612137037804 -0.0026281500176379559 -0.00154088761762528 0.00086815464408586992 0.00086430393587661933 -0.0019371120664335834 -0.00017874435760587923 5.8396991424180648e-05 0.0018922819589737505 -0.00019834767224136818 0.0016221114367261519 -0.00074620740385073132 -0.00097654664536910994
leaf_weight=160 354 1867 508 456 523 132 1764 186 86 1118 238 81 266 614
leaf_count=160 354 1867 508 456 523 132 1764 186 86 1118 238 81 266 614
internal_value=4.95443e-07 0.00163661 -0.00165808 -0.00189649 0.00180055 0.00152447 -0.00209705 -0.00103403 0.000573917 0.00177347 0.000230041 0.000841952 -0.00125526 -0.00079332
internal_weight=8353 4205 4148 2994 3640 1773 2272 1154 565 1250 405 167 722 800
internal_count=8353 4205 4148 2994 3640 1773 2272 1154 565 1250 405 167 722 800
cat_boundaries=0 1 2
cat_threshold=960 24
is_linear=0
shrinkage=0.02


Tree=5
num_leaves=15
num_cat=1
split_feature=10 0 10 12 3 4 3 7 0 0 5 10 7 4
split_gain=56.2957 1.52428 1.05257 0.91165 0.808347 0.486988 0.45448 0.403909 0.402241 0.330228 0.302415 0.247306 0.217484 0.20191
threshold=24.500000000000004 -0.70189520247001125 22.500000000000004 0 0.56670882651888632 1.127349939383258 0.50884251046460649 -0.43875318289239179 0.41941211322774186 0.62201844049264621 -0.14277844027835113 23.500000000000004 -0.32599275943412015 -0.62142064936236874
decision_type=8 2 10 9 2 2 2 2 2 2 2 10 2 2
left_child=2 -2 10 5 9 7 11 -4 12 -3 -1 -5 -8 -9
right_child=1 4 3 6 -6 -7 8 13 -10 -11 -12 -13 -14 -15
leaf_value=0.0022546751948556531 -0.00085034979363528176 -0.0017917230015528146 0.0017969068829036244 0.0019987362505432295 -0.0012263480815473508 -0.00075813744563695993 -0.00018555747229874749 -0.00031566273086191561 0.0019758556853230404 -0.0022850508599239609 0.0017346833153348261 0.001162417754890838 0.00097340258662790375 0.00076573917941788017
leaf_weight=917 824 1617 136 821 756 81 92 84 123 1008 1181 202 203 330
leaf_count=917 824 1617 136 821 756 81 92 84 123 1008 1181 202 203 330
internal_value=2.69336e-06 -0.00162925 0.00164831 0.00132188 -0.00181754 0.00064488 0.00159956 0.000868095 0.00103399 -0.00198514 0.00196678 0.00184006 0.000614896 0.000545176
internal_weight=8375 4205 4170 2072 3381 631 1441 550 418 2625 2098 1023 295 414
internal_count=8375 4205 4170 2072 3381 631 1441 550 418 2625 2098 1023 295 414
cat_boundaries=0 1
cat_threshold=960
is_linear=0
shrinkage=0.02


Tree=6
num_leaves=15
num_cat=1
split_feature=10 0 10 12 4 10 5 5 4 1 7 4 5 0
split_gain=52.926 1.41804 1.02603 0.996501 0.350156 0.31612 0.309482 0.223169 0.198659 0.20216 0.193784 0.239807 0.183733 0.183145
threshold=1.0000000180025095e-35 -0.38163012375583155 22.500000000000004 0 0.94436158684252425 23.500000000000004 -0.14277844027835113 -0.14006552667054986 0.38885185877067663 -0.44191327786494544 1.0000000180025095e-35 -0.64117244951029151 -0.016746400209507788 -0.082668601232976105
decision_type=10 2 10 9 2 10 2 2 2 2 2 2 2 2
left_child=1 12 6 4 -4 13 -2 -7 9 -3 11 -8 -1 -5
right_child=2 8 3 5 -6 7 10 -9 -10 -11 -12 -13 -14 -15
leaf_value=-0.0012414303533793663 0.0021669900516032947 -0.0018773560969817032 0.00077363349157048248 0.0014308422935135681 -0.00045401058772480803 0.00024859406755328359 0.0008704698257062626 0.001374882032971952 -0.0020891560541340978 -0.0014236449983442889 0.0013858079705882662 0.0021213232249486188 -0.00071374576181972623 0.001973577818954774
leaf_weight=608 934 1232 530 628 109 119 82 177 1024 737 639 458 517 555
leaf_count=608 934 1232 530 628 109 119 82 177 1024 737 639 458 517 555
internal_value=-2.71278e-06 -0.0016158 0.00156735 0.00125017 0.000553726 0.00153412 0.00188157 0.000933735 -0.00184402 -0.00171157 0.00164727 0.00194111 -0.00100316 0.0016927
internal_weight=8349 4118 4231 2118 639 1479 2113 296 2993 1969 1179 540 1125 1183
internal_count=8349 4118 4231 2118 639 1479 2113 296 2993 1969 1179 540 1125 1183
cat_boundaries=0 1
cat_threshold=960
is_linear=0
shrinkage=0.02


Tree=7
num_leaves=15
num_cat=1
split_feature=10 11 9 12 3 3 6 3 2 10 1 9 9 2
split_gain=51.2352 1.48146 1.24278 0.626194 0.493338 0.412092 0.370452 0.36441 0.35525 0.332399 0.297635 0.297603 0.355224 0.296788
threshold=25.500000000000004 0.46622026847105996 -0.16605987349006782 0 0.21647971406499397 0.67506312372118038 0.02059353559554095 0.3439530565195158 -1.5747932159974061 21.500000000000004 -0.45888351510794972 0.95272824266992917 -0.17699547880782807 0.49050384233840566
decision_type=8 2 2 9 2 2 2 2 2 10 2 2 2 2
left_child=1 7 4 9 -2 6 10 -1 -5 -3 -4 12 -10 -11
right_child=2 3 5 8 -6 -7 -8 -9 11 13 -12 -13 -14 -15
leaf_value=0.00099287373137769194 -0.0022225889268586434 0.0020699650341001667 -0.0016158209156344483 0.00060634074409549336 -0.0015738515755145857 -0.00055820884257555005 -0.0017254279085756402 -2.9810952239841091e-05 0.0017115706364798347 0.00068034678008997945 -0.00088435783607802561 0.0014660119126068067 0.0022655032609579179 0.0015864930482002903
leaf_weight=380 1119 134 332 93 939 320 673 218 967 474 761 566 1157 214
leaf_count=380 1119 134 332 93 939 320 673 218 967 474 761 566 1157 214
internal_value=-3.32569e-06 0.00155165 -0.00158041 0.00170463 -0.00193112 -0.00123061 -0.00135053 0.0006229 0.00185585 0.00114821 -0.00111289 0.00190473 0.00201792 0.000971613
internal_weight=8347 4203 4144 3605 2058 2086 1766 598 2783 822 1093 2690 2124 688
internal_count=8347 4203 4144 3605 2058 2086 1766 598 2783 822 1093 2690 2124 688
cat_boundaries=0 1
cat_threshold=832
is_linear=0
shrinkage=0.02


Tree=8
num_leaves=15
num_cat=0
split_feature=10 0 11 10 3 3 9 11 11 10 3 3 0 8
split_gain=49.7719 1.57523 1.48894 0.827517 0.819369 0.658251 0.386522 0.267487 0.266656 0.249286 0.236025 0.238258 0.27759 0.280383
threshold=24.500000000000004 -0.38163012375583155 0.48305576652563359 22.500000000000004 0.56670882651888632 0.3439530565195158 -0.85956318007396748 0.4893345768395137 0.50136311207234074 22.500000000000004 1.0170594091827201 -0.67568654184810051 -0.43533906173963099 0.54895697433479029
decision_type=8 2 2 10 2 2 2 2 2 10 2 2 2 2
left_child=2 7 5 -4 6 -1 -3 -2 -9 -7 11 -5 13 -13
right_child=1 4 3 10 -6 9 -8 8 -10 -11 -12 12 -14 -15
leaf_value=0.0011863231140664271 -0.0013764153408206332 -0.0024534244398689933 0.0020467447028203502 0.00070404175644008709 -0.001167528564658235 0.00062305576516396926 -0.0018070888018424812 -4.6391822397708896e-05 -0.00089740708036033191 -0.00055149484857965536 0.00032983169168362329 0.00071689636779238332 0.0017917965614840945 0.0016720848956222956
leaf_weight=569 330 535 1747 163 709 132 1806 195 604 148 82 280 779 235
leaf_count=569 330 535 1747 163 709 132 1806 195 604 148 82 280 779 235
internal_value=-2.74264e-06 -0.00154111 0.00155198 0.00174514 -0.00177777 0.000798512 -0.00195971 -0.000896736 -0.000691293 3.43834e-06 0.00139725 0.00145599 0.00154764 0.00116465
internal_weight=8314 4179 4135 3286 3050 849 2341 1129 799 280 1539 1457 1294 515
internal_count=8314 4179 4135 3286 3050 849 2341 1129 799 280 1539 1457 1294 515
is_linear=0
shrinkage=0.02


Tree=9
num_leaves=15
num_cat=0
split_feature=10 11 1 10 10 5 3 4 3 3 4 4 7 3
split_gain=47.6729 1.26048 0.831415 0.523875 0.493508 0.663917 0.475205 0.431654 0.360536 0.350384 0.295123 0.281627 0.266201 0.260977
threshold=25.500000000000004 0.46972703222844286 -0.44191327786494544 23.500000000000004 22.500000000000004 0.3026811821420417 0.15634288604787203 0.3629022510686582 0.48058549216263258 0.5312495714800255 1.127349939383258 1.2616342835806695 0.63375345379106152 -0.35504005633513969
decision_type=8 2 2 10 10 2 2 2 2 2 2 2 2 2
left_child=1 4 9 10 5 -1 -6 8 -4 -2 12 -12 -3 -9
right_child=2 3 7 -5 6 -7 -8 13 -10 -11 11 -13 -14 -15
leaf_value=0.0021172282036382314 -0.0020367471307904516 0.0019344000041328475 -0.0012547271221273063 0.00089441090687584406 0.00076238519071513636 4.0293965311277481e-05 -0.00069410538785159587 -0.0010475207093116055 -0.00055747203957691471 -0.0013531783982007593 0.00021113473048899324 0.0014676384867889781 0.0014799032142211424 -0.0018891192431560041
leaf_weight=156 1261 1971 1181 356 218 100 145 229 412 454 91 360 844 574
leaf_count=156 1261 1971 1181 356 218 100 145 229 412 454 91 360 844 574
internal_value=1.31063e-05 0.00149992 -0.00152068 0.00164258 0.000658655 0.00132224 0.000179065 -0.00127426 -0.0010767 -0.00186025 0.00172264 0.0012192 0.001801 -0.00165708
internal_weight=8352 4241 4111 3622 619 256 363 2396 1593 1715 3266 451 2815 803
internal_count=8352 4241 4111 3622 619 256 363 2396 1593 1715 3266 451 2815 803
is_linear=0
shrinkage=0.02


Tree=10
num_leaves=15
num_cat=0
split_feature=10 11 9 10 11 6 8 10 3 4 11 11 2 11
split_gain=44.0586 1.2378 1.23178 0.481422 0.36705 0.324629 0.319265 0.286205 0.284679 0.259764 0.251982 0.264757 0.233743 0.21507
threshold=1.0000000180025095e-35 0.46622026847105996 -0.12513388260319716 22.500000000000004 0.48335687424376989 -0.0050927350471388624 -1.3420777004851339 22.500000000000004 0.48058549216263258 -0.99866813568563251 0.51043938114189369 0.50063732476806189 0.3503873278736897 0.52074599400503774
decision_type=10 2 2 10 2 2 2 10 2 2 2 2 2 2
left_child=2 7 8 -3 -4 10 -5 -2 -1 12 11 -6 -8 -11
right_child=1 3 4 6 5 -7 9 -9 -10 13 -12 -13 -14 -15
leaf_value=-0.0020046085926213046 0.0010982592502032083 0.0017904804166738492 -0.0015502523034686428 0.00023953195199840241 -0.0008396695475414316 -0.0013349319080557299 -0.00010980524365668711 0.00019137836643164877 -0.0014782778091074033 0.0012470814897354355 -0.00099433644643735037 0.0002091430454994693 0.0013303904370506011 0.0017600245603414161
leaf_weight=1370 230 1862 593 106 184 540 87 348 712 862 506 193 87 634
leaf_count=1370 230 1862 593 106 184 540 87 348 712 862 506 193 87 634
internal_value=-9.97863e-06 0.0014246 -0.0014858 0.00156124 -0.00112815 -0.000947431 0.00131654 0.000558572 -0.00182859 0.00138398 -0.000704272 -0.000307035 0.00062734 0.0014696
internal_weight=8314 4216 4098 3638 2016 1423 1776 578 2082 1670 883 377 174 1496
internal_count=8314 4216 4098 3638 2016 1423 1776 578 2082 1670 883 377 174 1496
is_linear=0
shrinkage=0.02


Tree=11
num_leaves=15
num_cat=2
split_feature=1 11 11 1 12 1 12 0 5 3 4 7 4 5
split_gain=4.27877 2.22995 1.13325 0.936832 0.55067 0.515605 0.472882 0.35825 0.317081 0.298672 0.294143 0.286067 0.278499 0.259166
threshold=-0.40053030299085229 0.48335687424376989 0.48224619628278936 -1.0930142284431659 0 0.99646681113608682 1 -0.34409767847998757 -0.045046116190184345 0.15634288604787203 -0.54238173213231 -0.41116274651641255 1.552386065669725 1.3057874647282246
decision_type=2 2 2 2 9 2 9 2 2 2 2 2 2 2
left_child=2 9 -1 -4 -5 6 7 8 -3 -2 -8 -12 -7 -9
right_child=1 5 3 4 -6 12 10 13 -10 -11 11 -13 -14 -15
leaf_value=-0.0012319761582775765 -0.00011960171429174287 8.905008250159984e-05 -0.00094170084080743286 -0.00053495498852287773 0.00025295619530317541 0.0010862047930289688 0.00020762679562597006 -8.0169366215711372e-05 0.0011484996827706444 -0.00074011736625788718 0.00036068700655769227 0.0009486456884600841 -4.1336145653736358e-05 -0.0012799267085312411
leaf_weight=826 709 312 734 580 865 868 526 448 173 550 500 1029 97 81
leaf_count=826 709 312 734 580 865 868 526 448 173 550 500 1029 97 81
internal_value=-9.5608e-07 0.000341157 -0.000603118 -0.00036246 -6.59978e-05 0.000570341 0.00044228 8.384e-05 0.00047482 -0.000392532 0.000615119 0.000758179 0.000973238 -0.000274139
internal_weight=8298 5293 3005 2179 1445 4034 3069 1014 485 1259 2055 1529 965 529
internal_count=8298 5293 3005 2179 1445 4034 3069 1014 485 1259 2055 1529 965 529
cat_boundaries=0 1 2
cat_threshold=456 960
is_linear=0
shrinkage=0.02


Tree=12
num_leaves=15
num_cat=2
split_feature=10 0 10 3 12 9 7 7 9 3 6 9 12 0
split_gain=43.3544 1.28963 0.780805 0.722099 0.699107 0.393821 0.388304 0.306593 0.305268 0.273039 0.261559 0.251471 0.216348 0.210283
threshold=1.0000000180025095e-35 -0.70189520247001125 22.500000000000004 0.51279693141352711 0 -0.85956318007396748 -0.41116274651641255 1.0000000180025095e-35 0.59609413288739599 -0.57152831284283367 0.02059353559554095 -0.16605987349006782 1 -0.46884479240600729
decision_type=10 2 10 2 9 2 2 2 2 2 2 2 9 2
left_child=1 12 8 5 7 -3 -6 9 13 -4 -7 -5 -1 -2
right_child=2 3 4 11 6 10 -8 -9 -10 -11 -12 -13 -14 -15
leaf_value=-0.0011771584265172863 0.0014444198934619042 -0.0023138801671729538 0.00019540983528553785 -0.0013970936657182428 0.00090469805720817657 -0.0014565895744615856 0.001753222134837339 0.00047979302095256944 0.001289410512169908 0.0014906336486560999 -0.0019433241857336068 -0.00063624163128195277 -0.00046018893450785147 0.0020113672935698343
leaf_weight=297 449 537 86 448 327 1127 758 680 631 286 893 305 505 1017
leaf_count=297 449 537 86 448 327 1127 758 680 631 286 893 305 505 1017
internal_value=-1.61712e-05 -0.00147796 0.00140357 -0.00165255 0.00112898 -0.00181424 0.00148915 0.000731223 0.00168004 0.00119776 -0.00167603 -0.00109514 -0.000751638 0.00184323
internal_weight=8346 4112 4234 3310 2137 2557 1085 1052 2097 372 2020 753 802 1466
internal_count=8346 4112 4234 3310 2137 2557 1085 1052 2097 372 2020 753 802 1466
cat_boundaries=0 1 2
cat_threshold=961 137
is_linear=0
shrinkage=0.02


Tree=13
num_leaves=15
num_cat=1
split_feature=10 11 9 3 10 3 7 12 10 11 3 8 4 11
split_gain=40.5068 1.16649 0.991845 0.525984 0.510491 0.499878 0.462008 0.44083 0.389222 0.380837 0.329553 0.307874 0.273271 0.261151
threshold=1.0000000180025095e-35 0.48224619628278936 -0.17699547880782807 0.44469967695023505 22.500000000000004 0.21647971406499397 0.16194964271139214 0 23.500000000000004 0.4893345768395137 -0.658838927765793 -1.1186254984488506 0.96208718754193823 0.51138204684716582
decision_type=10 2 2 2 10 2 2 9 10 2 2 2 2 2
left_child=2 3 5 8 -3 -1 -5 10 12 -4 -6 -9 -2 -11
right_child=1 4 9 6 7 -7 -8 11 -10 13 -12 -13 -14 -15
leaf_value=-0.002081896625827306 0.0014539872878506321 0.0017651483336994696 -0.0015129454406647227 0.00077313875705984085 -6.8089529190079443e-05 -0.0014200117371493683 -0.00079672855557873842 0.0004186105158399133 -0.00020131621623618737 -0.00060592792354612383 0.001058984340064505 0.0017575339163077943 0.00016795265466413079 -0.0011664667308303833
leaf_weight=1007 418 1732 719 147 121 952 143 80 85 586 700 715 80 832
leaf_count=1007 418 1732 719 147 121 952 143 80 85 586 700 715 80 832
internal_value=-2.16018e-05 0.00135255 -0.00143761 0.000695667 0.00152254 -0.00176468 -1.35164e-06 0.00125787 0.00103945 -0.00113436 0.000882781 0.00160618 0.00125112 -0.000937763
internal_weight=8317 4221 4096 873 3348 1959 290 1616 583 2137 821 795 498 1418
internal_count=8317 4221 4096 873 3348 1959 290 1616 583 2137 821 795 498 1418
cat_boundaries=0 1
cat_threshold=835
is_linear=0
shrinkage=0.02


Tree=14
num_leaves=15
num_cat=2
split_feature=10 11 0 3 10 12 4 7 12 5 11 5 3 3
split_gain=39.9144 1.20444 1.11694 0.73788 0.480549 0.548305 0.461031 0.368727 0.318072 0.31822 0.286771 0.268514 0.250319 0.218331
threshold=1.0000000180025095e-35 0.46972703222844286 -0.70189520247001125 0.5579834697381677 22.500000000000004 0 0.8546903659352233 -0.41116274651641255 1 0.2288078910693532 0.49325249766042972 0.42383282286738405 0.50884251046460649 -0.67568654184810051
decision_type=10 2 2 2 10 9 2 2 9 2 2 2 2 2
left_child=2 8 10 13 -3 6 -6 -7 9 -2 -1 -12 -10 -4
right_child=1 4 3 -5 5 7 -8 -9 12 -11 11 -13 -14 -15
leaf_value=-0.0012422956035032376 0.00065571742890209992 0.0017371880318057433 -0.0012478525636751368 -0.0010040871281080045 0.0009575801464376981 0.00096111044188637129 -0.00055109398371046953 0.0017355453409808267 0.0013387627540152266 -0.00070154400492990112 -0.00071068356076928337 0.00029956668919446519 0.00022280437175099176 -0.0018055041999768412
leaf_weight=268 140 1856 382 765 413 377 97 857 229 127 377 142 126 2171
leaf_count=268 140 1856 382 765 413 377 97 857 229 127 377 142 126 2171
internal_value=4.03823e-06 0.0013686 -0.00139938 -0.00156029 0.00150906 0.001262 0.000655347 0.00149174 0.000550132 8.77737e-06 -0.000715393 -0.000434055 0.000925562 -0.00172467
internal_weight=8327 4222 4105 3318 3600 1744 510 1234 622 267 787 519 355 2553
internal_count=8327 4222 4105 3318 3600 1744 510 1234 622 267 787 519 355 2553
cat_boundaries=0 1 2
cat_threshold=960 962
is_linear=0
shrinkage=0.02


Tree=15
num_leaves=15
num_cat=1
split_feature=10 0 10 12 9 5 7 9 7 7 0 7 8 0
split_gain=36.8369 1.33617 0.76387 0.731872 0.512628 0.336448 0.324826 0.283772 0.25208 0.305519 0.250866 0.231053 0.178184 0.177769
threshold=24.500000000000004 -0.38163012375583155 22.500000000000004 0 -0.32773931702902942 -0.97699568091314493 -0.58397985765148841 0.47558626181683644 0.59952836553921041 0.30910500556381432 0.018334810709189908 -0.20174891802797851 0.68740110842941637 -1.2524242461955277
decision_type=8 2 10 9 2 2 2 2 2 2 2 2 2 2
left_child=2 7 5 6 -3 -1 -4 -2 9 10 13 -12 -10 -5
right_child=1 4 3 8 -6 -7 -8 -9 12 -11 11 -13 -14 -15
leaf_value=0.0022057417281134153 -0.0010696196125512469 -0.0018266924121635286 0.00086708177770971468 0.0012723841294646262 -0.0012867427854497905 0.0014836025644535331 0.0017600719078598415 -0.0004428670562709831 -3.5652799421064336e-05 0.0020300858607515695 0.0018011117361577777 0.00062366625365453503 0.0008848190996500236 0.00024725644567195231
leaf_weight=331 585 1489 243 80 1481 1774 616 590 252 83 137 141 121 351
leaf_count=331 585 1489 243 80 1481 1774 616 590 252 83 137 141 121 351
internal_value=-2.81429e-06 -0.00133392 0.00133344 0.00105076 -0.00156006 0.00160211 0.00149661 -0.00075812 0.000698272 0.000905441 0.000760489 0.00122549 0.0002707 0.000449945
internal_weight=8274 4145 4129 2024 2970 2105 859 1175 1165 792 709 278 373 431
internal_count=8274 4145 4129 2024 2970 2105 859 1175 1165 792 709 278 373 431
cat_boundaries=0 1
cat_threshold=26
is_linear=0
shrinkage=0.02


Tree=16
num_leaves=15
num_cat=0
split_feature=10 11 0 3 10 9 3 10 9 6 3 2 7 9
split_gain=37.7497 1.35263 1.03983 0.734286 0.297339 0.293773 0.26974 0.322644 0.32888 0.264718 0.255758 0.204289 0.193225 0.189823
threshold=1.0000000180025095e-35 0.48224619628278936 -0.37264119731108353 0.56670882651888632 22.500000000000004 -0.85956318007396748 -0.15319762845838827 22.500000000000004 0.21107334751957194 0.10491244639439493 0.30651561613385714 -1.2855692468442268 -0.36810152101077309 -0.16605987349006782
decision_type=10 2 2 2 10 2 2 10 2 2 2 2 2 2
left_child=2 6 9 5 -3 -4 12 -8 -9 10 -1 -6 -2 -5
right_child=1 4 3 13 11 -7 7 8 -10 -11 -12 -13 -14 -15
leaf_value=-0.00086621284629534749 0.00035869029391426266 0.001690459226101438 -0.002166524556633972 -0.0012236802065744997 0.00035264880052030402 -0.0015951605052676788 0.0008844681190620506 0.00039110730258364452 -0.00095030453068351277 -0.0013133103751022828 -8.7827769688731964e-05 0.0013516844322527945 0.001409373620424462 -0.00052498190959756697
leaf_weight=613 109 1749 520 455 91 1779 236 199 109 351 234 1505 215 253
leaf_count=613 109 1749 520 455 91 1779 236 199 109 351 234 1505 215 253
internal_value=-1.54167e-05 0.00132184 -0.0013552 -0.00155429 0.00150447 -0.00172882 0.000613472 0.000336262 -9.12103e-05 -0.00085108 -0.000652946 0.001296 0.00106673 -0.000979437
internal_weight=8418 4213 4205 3007 3345 2299 868 544 308 1198 847 1596 324 708
internal_count=8418 4213 4205 3007 3345 2299 868 544 308 1198 847 1596 324 708
is_linear=0
shrinkage=0.02


Tree=17
num_leaves=15
num_cat=0
split_feature=10 0 11 3 3 10 10 9 11 7 6 0 6 6
split_gain=35.3462 1.21536 1.13797 0.621007 0.598844 0.537994 0.501542 0.500224 0.261298 0.259266 0.24372 0.235301 0.22781 0.216804
threshold=24.500000000000004 -0.76919392655057006 0.48224619628278936 0.6057240437122452 0.15634288604787203 22.500000000000004 23.500000000000004 -0.8480676865058342 0.49377664751772071 0.023527780229006399 0.27024252383771891 -0.46884479240600729 0.12119679202157489 -0.79415209136512643
decision_type=8 2 2 2 2 10 10 2 2 2 2 2 2 2
left_child=2 8 4 7 13 -6 11 -3 -2 -7 -9 -4 -10 -1
right_child=1 3 6 -5 5 9 -8 10 12 -11 -12 -13 -14 -15
leaf_value=0.00021673668503325997 -0.0010901042274674591 -0.0021310754463580717 0.0013142424201681084 -0.00093370001615736579 0.00079717207272109159 0.00012427990368112576 0.00067428219744269523 -0.0012851737483868641 -1.9988640231768722e-05 -0.0013684881371054274 -0.0017611422078207114 0.0016994646601210439 -0.00095125986565206509 0.0013007188726038338
leaf_weight=93 240 564 1166 766 180 81 297 1454 363 102 702 1833 143 400
leaf_count=93 240 564 1166 766 180 81 297 1454 363 102 702 1833 143 400
internal_value=-4.99265e-06 -0.00129051 0.00130527 -0.00144734 0.000650137 3.18931e-05 0.00147417 -0.00159001 -0.000552887 -0.000722022 -0.00144387 0.00155213 -0.000289907 0.00110046
internal_weight=8384 4232 4152 3486 856 363 3296 2720 746 183 2156 2999 506 493
internal_count=8384 4232 4152 3486 856 363 3296 2720 746 183 2156 2999 506 493
is_linear=0
shrinkage=0.02


Tree=18
num_leaves=15
num_cat=1
split_feature=10 0 12 7 9 1 10 1 7 9 10 5 5 8
split_gain=32.7891 1.09627 0.978805 0.742607 0.400604 0.365241 0.393078 0.357525 0.322028 0.303644 0.30333 0.350896 0.207119 0.198537
threshold=1.0000000180025095e-35 -0.44823887551795399 0 -0.20174891802797851 0.95272824266992917 1.0867625864533623 21.500000000000004 0.55168101801193814 -0.64694854173048 -0.86956711138341725 22.500000000000004 -0.22954296308123323 0.13109419839688477 -0.45774904665549943
decision_type=10 2 9 2 2 2 10 2 2 2 10 2 2 2
left_child=1 -1 4 -4 8 6 -5 12 13 -3 11 -10 -8 -2
right_child=2 9 3 5 -6 -7 7 -9 10 -11 -12 -13 -14 -15
leaf_value=-0.00073764642245051544 0.0016021363608759319 -0.0018572618898732298 0.0014906325185445699 0.0012819796012188414 0.00095879832510876561 0.0012163365831519566 0.00071631838866436845 -0.00068185229873698615 0.002476890996230574 -0.0013637729287913597 0.0014257266208482025 0.0015965963712532589 -9.939934887338133e-05 0.00077211320947645501
leaf_weight=1095 198 705 406 126 575 207 277 175 356 2317 893 477 221 314
leaf_count=1095 198 705 406 126 575 207 277 175 356 2317 893 477 221 314
internal_value=-1.55542e-05 -0.00128499 0.00122149 0.000767524 0.00143977 0.000477356 0.000279532 8.37819e-05 0.00156735 -0.00148178 0.00170076 0.00198534 0.000356933 0.00110549
internal_weight=8342 4117 4225 1412 2813 1006 799 673 2238 3022 1726 833 498 512
internal_count=8342 4117 4225 1412 2813 1006 799 673 2238 3022 1726 833 498 512
cat_boundaries=0 1
cat_threshold=31
is_linear=0
shrinkage=0.02


Tree=19
num_leaves=15
num_cat=0
split_feature=10 0 11 9 10 5 0 6 2 6 0 5 11 11
split_gain=33.0642 1.17596 0.813808 0.369176 0.318849 0.3068 0.312548 0.305044 0.287707 0.285703 0.281355 0.277307 0.275263 0.27157
threshold=24.500000000000004 -0.33517832156813604 0.49583518730696724 -0.32773931702902942 21.500000000000004 0.39455220288158427 0.68068406311865981 -0.14101229369406168 -0.93915256291262217 0.45906266301293913 -0.075302371780153435 -1.0579145921745663 0.56798035518599288 0.48472358753112582
decision_type=8 2 2 2 10 2 2 2 2 2 2 2 2 2
left_child=2 -2 4 -3 -1 8 13 -4 -6 11 -10 -9 -11 -7
right_child=1 3 7 -5 5 6 -8 9 10 12 -12 -13 -14 -15
leaf_value=0.0018403511058333946 -0.00072590835676118975 -0.0016949468366752097 0.001197927210028522 -0.0012330162156973098 -9.0770921768977295e-05 -0.00035295185746037674 0.001353751449126073 0.0030397934914863371 0.00077056747415369601 0.0014853988153512513 0.0016257257755559762 0.0017668685056230187 0.00024797037254672413 0.00087819759880064757
leaf_weight=113 1223 1490 1224 1470 89 236 83 86 409 843 262 652 81 97
leaf_count=113 1223 1490 1224 1470 89 236 83 86 409 843 262 652 81 97
internal_value=3.82012e-06 -0.00125216 0.0012622 -0.00146801 0.000838762 0.000735136 0.000293693 0.00144955 0.00097327 0.00163071 0.00111403 0.00193466 0.00137884 1.33573e-05
internal_weight=8358 4183 4175 2960 1289 1176 416 2886 760 1662 671 738 924 333
internal_count=8358 4183 4175 2960 1289 1176 416 2886 760 1662 671 738 924 333
is_linear=0
shrinkage=0.02


Tree=20
num_leaves=15
num_cat=0
split_feature=10 0 11 3 3 9 10 5 0 11 10 1 3 7
split_gain=32.2738 0.894458 0.781794 0.678963 0.491951 0.405741 0.405291 0.292922 0.292319 0.216886 0.207424 0.204115 0.202063 0.19225
threshold=1.0000000180025095e-35 -0.7107072547540394 0.48305576652563359 0.59676735076322129 0.44469967695023505 -0.31689564419315647 23.500000000000004 -0.89483732215173184 0.19904125067363265 0.5358256053173408 22.500000000000004 -0.4217827495185949 -0.29512569318214393 -0.19770144375533344
decision_type=10 2 2 2 2 2 10 2 2 2 10 2 2 2
left_child=1 9 4 5 10 -3 7 12 -6 -1 13 -12 -4 -2
right_child=2 3 6 -5 8 -7 -8 -9 -10 -11 11 -13 -14 -15
leaf_value=-0.00081747164130584649 0.00076948860661293613 -0.0018381625128474216 0.0024512382428995604 -0.00086326215281737177 -0.00043892415942480933 -0.0013162856381993904 0.0006835788065846166 0.0013494361027958494 0.00087407107562355053 -1.1250501298635019e-05 -8.1918228263182943e-05 0.00097800685128132843 0.0015321472884982281 0.0019770869018556885
leaf_weight=593 101 1173 186 750 190 1398 326 2538 99 172 96 285 297 134
leaf_count=593 101 1173 186 750 190 1398 326 2538 99 172 96 285 297 134
internal_value=8.52348e-06 -0.00126001 0.00122758 -0.00140225 0.000700046 -0.00155749 0.00136897 0.00144168 1.8072e-05 -0.000637454 0.00101728 0.000713337 0.00190757 0.00148492
internal_weight=8338 4086 4252 3321 905 2571 3347 3021 289 765 616 381 483 235
internal_count=8338 4086 4252 3321 905 2571 3347 3021 289 765 616 381 483 235
is_linear=0
shrinkage=0.02


Tree=21
num_leaves=15
num_cat=0
split_feature=10 0 11 10 9 9 5 0 0 9 4 1 0 0
split_gain=30.095 1.09045 0.8828 0.331426 0.261901 0.240665 0.214787 0.307843 0.284474 0.421198 0.273814 0.292026 0.239109 0.205828
threshold=1.0000000180025095e-35 -0.36632162642587035 0.46972703222844286 23.500000000000004 -0.32773931702902942 0.56564693303083424 -0.92664243308949967 1.4791535495183143 0.52823804378893702 -0.60598507516758882 -0.71448496355575919 0.097386871311689535 -0.66028271825072904 0.39270357674984663
decision_type=10 2 2 10 2 2 2 2 2 2 2 2 2 2
left_child=1 -1 3 5 -3 -2 -4 8 9 12 11 -11 -8 -12
right_child=2 4 6 -5 -6 -7 7 -9 -10 10 13 -13 -14 -15
leaf_value=-0.00069825047215340565 0.00093109143911878939 -0.0016165406741507746 0.0016764456022413561 -0.00068732890892116475 -0.0012217245033227886 1.0610367306466047e-05 -0.00038044326944103427 0.00011744833094816582 0.0016881854943529815 4.991501791491395e-05 0.0014454779858320665 0.0012837744164391465 0.00081254262761031092 0.00047930794710936467
leaf_weight=1187 382 1467 563 80 1470 161 81 97 552 142 1590 163 328 100
leaf_count=1187 382 1467 563 80 1470 161 81 97 552 142 1590 163 328 100
internal_value=1.31689e-06 -0.00121431 0.00118401 0.000483552 -0.00142134 0.000660755 0.00130385 0.00123252 0.00126885 0.00116925 0.00128944 0.000719392 0.000574538 0.00138989
internal_weight=8363 4124 4239 623 2937 543 3616 3053 2956 2404 1995 305 409 1690
internal_count=8363 4124 4239 623 2937 543 3616 3053 2956 2404 1995 305 409 1690
is_linear=0
shrinkage=0.02


Tree=22
num_leaves=15
num_cat=0
split_feature=10 11 9 3 10 3 7 10 11 11 11 7 9 1
split_gain=29.1282 1.05141 0.748222 0.384481 0.424916 0.365089 0.364378 0.368548 0.300387 0.497082 0.302908 0.276182 0.363811 0.267014
threshold=1.0000000180025095e-35 0.48224619628278936 -0.17699547880782807 0.15634288604787203 22.500000000000004 0.21647971406499397 0.63375345379106152 23.500000000000004 0.49273685403208262 0.50155482129447326 0.49820564246938842 1.315530526971598 -0.46934724026500468 -0.084786848704522813
decision_type=10 2 2 2 10 2 2 10 2 2 2 2 2 2
left_child=2 3 5 -2 -5 -1 7 -3 -4 10 -10 -8 -13 -6
right_child=1 6 8 4 13 -7 11 -9 9 -11 -12 12 -14 -15
leaf_value=-0.0017497280971192387 0.00090053733834606891 0.0015621308193480591 -0.0012424780482808589 0.00078254831486420165 0.00026481043442748908 -0.001178326496349309 0.0007931895319506899 0.0007231218695533388 -0.00062283130662808242 -0.00092013212100458032 0.00078680067368578624 0.00037722791079431773 0.0019489783180672005 -0.001202618135299919
leaf_weight=1002 503 2081 805 164 84 915 736 247 116 1141 118 84 217 111
leaf_count=1002 503 2081 805 164 84 915 736 247 116 1141 118 84 217 111
internal_value=9.97938e-06 0.00117406 -0.001191 0.000546468 4.48217e-05 -0.00148077 0.00133378 0.00147485 -0.000933393 -0.000748592 8.95979e-05 0.00101152 0.00152368 -0.000579678
internal_weight=8324 4227 4097 862 359 1917 3365 2328 2180 1375 234 1037 301 195
internal_count=8324 4227 4097 862 359 1917 3365 2328 2180 1375 234 1037 301 195
is_linear=0
shrinkage=0.02


Tree=23
num_leaves=15
num_cat=2
split_feature=10 0 11 12 5 12 9 10 7 0 9 9 2 0
split_gain=28.0491 0.960947 0.919589 0.483325 0.356695 0.340705 0.288981 0.284844 0.295888 0.27224 0.562321 0.397312 0.353209 0.265228
threshold=1.0000000180025095e-35 -0.70189520247001125 0.48305576652563359 0 -0.40484710998778178 1 -0.90892233761486818 22.500000000000004 -0.20174891802797851 -0.7107072547540394 0.95272824266992917 -0.41387979572307482 1.0616598804675397 -0.83430437722496109
decision_type=10 2 2 9 2 9 2 10 2 2 2 2 2 2
left_child=1 -1 3 4 -2 -4 -3 -5 -9 11 -11 -7 -12 -13
right_child=2 6 5 7 -6 9 -8 8 -10 10 12 13 -14 -15
leaf_value=-0.00053646333032736078 0.0021904395431989717 -0.0016731509520059448 0.00061648001670706225 0.00070032209023284211 0.00072456652838313439 -0.00011255012809899506 -0.0012076705644129486 0.00066362398909404876 -0.00059716276392223725 0.00161759328541128 -0.00016518201359995002 0.0013703496032340407 0.0012462115719359009 0.00031923208128065486
leaf_weight=805 100 726 340 263 204 102 2647 107 218 1876 122 641 161 117
leaf_count=805 100 726 340 263 204 102 2647 107 218 1876 122 641 161 117
internal_value=1.1276e-06 -0.00116193 0.00114423 0.000568869 0.00119571 0.00129595 -0.00131019 0.000213673 -0.000178307 0.00136478 0.00149195 0.00105451 0.000645462 0.00121126
internal_weight=8429 4178 4251 892 304 3359 3373 588 325 3019 2159 860 283 758
internal_count=8429 4178 4251 892 304 3359 3373 588 325 3019 2159 860 283 758
cat_boundaries=0 1 2
cat_threshold=26 320
is_linear=0
shrinkage=0.02


Tree=24
num_leaves=15
num_cat=2
split_feature=10 0 11 12 3 5 12 11 1 6 6 10 8 1
split_gain=26.9182 0.930503 0.797601 0.751466 0.607467 0.328119 0.317637 0.306902 0.297537 0.319529 0.296879 0.296414 0.27903 0.246057
threshold=24.500000000000004 -0.7107072547540394 0.48224619628278936 0 0.56670882651888632 -0.40484710998778178 1 0.4942785438284068 0.51006150544590223 -0.039609127398574896 0.27024252383771891 22.500000000000004 0.91297701538241605 -0.64144478899760771
decision_type=8 2 2 9 2 2 9 2 2 2 2 10 2 2
left_child=2 7 3 5 10 -1 11 -2 -5 -10 13 -4 -13 -3
right_child=1 4 6 8 -6 -7 -8 -9 9 -11 -12 12 -14 -15
leaf_value=0.0023585258721418325 -0.0010437227189935771 -0.0015440493773240835 0.0013013325255511129 0.00051475227128128123 -0.00076954720876872636 0.00094321961123712886 0.0014847895377294988 -0.00022367578224753433 0.00048341377557295821 -0.0010723068720350664 -0.0017132131130354544 0.00046242826261165006 0.0015375936671250291 -0.0010265480656171872
leaf_weight=100 278 682 727 362 757 210 1907 525 87 121 944 476 119 933
leaf_count=100 278 682 727 362 757 210 1907 525 87 121 944 476 119 933
internal_value=1.43721e-05 -0.0011275 0.001159 0.000620017 -0.00127549 0.00138596 0.00130471 -0.000512279 0.000167996 -0.000425524 -0.00142336 0.00102144 0.000688483 -0.00124918
internal_weight=8228 4119 4109 880 3316 310 3229 803 570 208 2559 1322 595 1615
internal_count=8228 4119 4109 880 3316 310 3229 803 570 208 2559 1322 595 1615
cat_boundaries=0 1 2
cat_threshold=26 962
is_linear=0
shrinkage=0.02


Tree=25
num_leaves=15
num_cat=1
split_feature=10 0 12 7 3 10 7 1 1 6 7 0 4 1
split_gain=26.1938 0.980475 0.702927 0.5787 0.554739 0.382274 0.268406 0.261605 0.24857 0.254327 0.245119 0.238688 0.330092 0.213162
threshold=24.500000000000004 -0.76919392655057006 0 -0.20174891802797851 0.56670882651888632 22.500000000000004 -0.41116274651641255 -0.77825056471612897 -0.44178443041509902 0.20245769866145921 0.59952836553921041 0.018334810709189908 -0.16756953546937028 1.0867625864533623
decision_type=8 2 9 2 2 10 2 2 2 2 2 2 2 2
left_child=2 -2 3 11 8 -4 7 -7 -3 -10 -8 12 -1 -5
right_child=1 4 5 13 -6 6 10 -9 9 -11 -12 -13 -14 -15
leaf_value=0.0017633514993646172 -0.00043721092694629267 -0.0015912377129081133 0.0015124329874876918 0.00015710796633590818 -0.00075398333693811733 -0.00032286165260787434 0.0015368056259221319 0.00087560831982883361 -0.0009454166348037106 -0.001503687395453007 0.00091517933475904895 0.0022054342147035215 -1.131062785726647e-06 0.0010375112363818924
leaf_weight=84 739 1255 1602 555 746 85 563 425 814 603 523 98 81 133
leaf_count=84 739 1255 1602 555 746 85 563 425 814 603 523 98 81 133
internal_value=1.97555e-05 -0.00110164 0.00114329 0.000636809 -0.00124445 0.00128666 0.00106407 0.000674668 -0.00137972 -0.00118744 0.00124301 0.00143284 0.000922594 0.00033356
internal_weight=8306 4157 4149 951 3418 3198 1596 510 2672 1417 1086 263 165 688
internal_count=8306 4157 4149 951 3418 3198 1596 510 2672 1417 1086 263 165 688
cat_boundaries=0 1
cat_threshold=832
is_linear=0
shrinkage=0.02


Tree=26
num_leaves=15
num_cat=0
split_feature=10 0 11 9 2 11 10 4 4 5 6 10 7 5
split_gain=24.6968 0.975225 0.626381 0.406747 0.331067 0.264876 0.262955 0.24726 0.244359 0.239903 0.200658 0.189289 0.208422 0.205786
threshold=1.0000000180025095e-35 -0.70189520247001125 0.48990876069527806 -0.86956711138341725 0.78264322701746658 0.4893345768395137 23.500000000000004 0.28329318218243305 -0.42261324538537282 -0.40484710998778178 0.27024252383771891 22.500000000000004 0.098196511909609541 0.30749787279739477
decision_type=10 2 2 2 2 2 10 2 2 2 2 10 2 2
left_child=1 5 4 -3 9 -1 -4 8 -6 -2 -5 13 -13 -11
right_child=2 3 6 10 7 -7 -8 -9 -10 11 -12 12 -14 -15
leaf_value=-0.0010101670924620317 0.0013868070055078716 -0.0016499329512723133 0.0012985210324508922 -0.00097654840974481473 -0.00026949189709940633 -0.0002180395435470849 0.00068514475164024521 -0.00082412585743110289 0.0011726625122522054 0.0017409635509364307 -0.0013659471189953819 0.0007992267671732172 -0.00024041005668433145 0.00050508038589247952
leaf_weight=237 245 747 2852 1703 90 572 330 83 90 95 850 150 150 130
leaf_count=237 245 747 2852 1703 90 572 330 83 90 95 850 150 150 130
internal_value=2.17827e-05 -0.00108091 0.00109675 -0.00123346 0.00066366 -0.000454876 0.00123608 4.95453e-05 0.00046379 0.000871743 -0.00110861 0.000620564 0.000283989 0.0010534
internal_weight=8324 4109 4215 3300 1033 809 3182 263 180 770 2553 525 300 225
internal_count=8324 4109 4215 3300 1033 809 3182 263 180 770 2553 525 300 225
is_linear=0
shrinkage=0.02


Tree=27
num_leaves=15
num_cat=2
split_feature=10 12 0 7 3 10 8 12 2 9 9 9 3 8
split_gain=24.2273 0.831677 0.749477 0.551735 0.510718 0.472348 0.377201 0.401166 0.30416 0.30949 0.266426 0.224278 0.220168 0.24193
threshold=25.500000000000004 0 -0.38163012375583155 -0.20174891802797851 0.56670882651888632 22.500000000000004 -1.1186254984488506 1 0.27745097724180084 -0.061484053703366522 -0.85956318007396748 0.77136590542897754 0.33026164466518027 1.4068865118580292
decision_type=8 9 2 2 2 10 2 9 2 2 2 2 2 2
left_child=1 3 12 -1 10 11 -7 -8 9 -5 -4 -3 13 -2
right_child=2 5 4 8 -6 6 7 -9 -10 -11 -12 -13 -14 -15
leaf_value=0.0013117615722408953 -0.000933567605244687 0.0016207880793806357 -0.00181385382595181 0.00030589834650163536 -0.00077076269016620525 1.9192568236030639e-05 0.00067263938731598879 0.0013878398238885681 0.00068603942636611358 -0.00086735525896074249 -0.001272211979664209 0.0010230267856077958 -0.00019659862437463823 0.00018383296434250143
leaf_weight=272 728 1223 507 235 704 145 651 821 340 139 1752 361 324 85
leaf_count=272 728 1223 507 235 704 145 651 821 340 139 1752 361 324 85
internal_value=9.83152e-06 0.00107929 -0.00108231 0.00054801 -0.00125015 0.00123627 0.000993274 0.00108884 0.00025758 -0.000135841 -0.00139751 0.0014882 -0.000641367 -0.000816333
internal_weight=8287 4187 4100 986 2963 3201 1617 1472 714 374 2259 1584 1137 813
internal_count=8287 4187 4100 986 2963 3201 1617 1472 714 374 2259 1584 1137 813
cat_boundaries=0 1 2
cat_threshold=832 133
is_linear=0
shrinkage=0.02


Tree=28
num_leaves=15
num_cat=2
split_feature=10 0 10 3 12 7 5 3 4 0 4 5 2 12
split_gain=22.1298 0.810958 0.579413 0.519174 0.501304 0.642004 0.312195 0.288673 0.27926 0.253261 0.223501 0.212158 0.230251 0.205515
threshold=1.0000000180025095e-35 -0.38163012375583155 23.500000000000004 0.56670882651888632 0 1.0000000180025095e-35 0.27446844676090848 -0.69827894585215067 0.82442811448930309 -0.018221479681914048 -0.11866048148756585 0.50077301972980881 -0.39715553116277774 1
decision_type=10 2 10 2 9 2 2 2 2 2 2 2 2 9
left_child=1 -1 4 7 6 9 8 -3 -2 -6 -11 -8 -13 -7
right_child=2 3 -4 -5 5 13 11 -9 -10 10 -12 12 -14 -15
leaf_value=-0.00059685715305445909 0.0017871357551876616 -0.00079680974575831404 0.00032165995365305991 -0.00073076354144210984 0.001043159178398698 0.00091397464043305567 0.0003260956282569509 -0.0014625006028694306 0.00057926276506683268 0.00096983047565287459 0.0021349901148655058 0.0019845899769405681 0.00094339188914690272 0.00040358290587140489
leaf_weight=1163 749 324 443 680 601 585 135 1954 92 113 217 122 329 839
leaf_count=1163 749 324 443 680 601 585 135 1954 92 113 217 122 329 839
internal_value=-6.07145e-06 -0.0010482 0.00101045 -0.00122435 0.0010906 0.000891817 0.00139839 -0.00136977 0.00165921 0.00130402 0.00175644 0.00103687 0.00124372 0.000624944
internal_weight=8346 4121 4225 2958 3782 2355 1427 2278 841 931 330 586 451 1424
internal_count=8346 4121 4225 2958 3782 2355 1427 2278 841 931 330 586 451 1424
cat_boundaries=0 1 2
cat_threshold=26 5
is_linear=0
shrinkage=0.02


Tree=29
num_leaves=15
num_cat=2
split_feature=10 11 9 3 12 10 10 10 4 12 9 4 1 8
split_gain=21.9226 0.701188 0.668367 0.454611 0.382504 0.384596 0.340506 0.290159 0.292331 0.447661 0.28682 0.253414 0.314811 0.277689
threshold=1.0000000180025095e-35 0.4753877515010147 0.36771518008877452 0.56670882651888632 0 22.500000000000004 23.500000000000004 23.500000000000004 0.28329318218243305 1 -0.8480676865058342 -0.11866048148756585 0.30647184257747884 0.42710732890658704
decision_type=10 2 2 2 9 10 10 10 2 9 2 2 2 2
left_child=2 7 3 10 6 -6 -3 8 -2 -10 -1 12 -7 -14
right_child=1 4 -4 -5 5 11 -8 -9 9 -11 -12 -13 13 -15
leaf_value=-0.0017361945839266613 0.00092322502555797193 0.0018160152750339507 -0.00064894588481484146 -0.00073436324632952007 0.0012292150149336874 3.1723815979300222e-05 0.00041033842997752472 -0.00058522753902159788 -0.00086983663245481402 0.00076788080371791283 -0.0012016370398419218 0.00099291482455497954 0.00022650318008361449 0.0016049060357720343
leaf_weight=581 390 532 1246 653 1545 331 83 93 106 134 1654 785 109 126
leaf_count=581 390 532 1246 653 1545 331 83 93 106 134 1654 785 109 126
internal_value=-4.98786e-06 0.00100595 -0.00104034 -0.00120779 0.00112279 0.00100873 0.00160525 0.000434733 0.000588721 3.74041e-05 -0.00134416 0.000760417 0.00043209 0.0009836
internal_weight=8368 4234 4134 2888 3511 2896 615 723 630 240 2235 1351 566 235
internal_count=8368 4234 4134 2888 3511 2896 615 723 630 240 2235 1351 566 235
cat_boundaries=0 1 2
cat_threshold=16 708
is_linear=0
shrinkage=0.02


Tree=30
num_leaves=15
num_cat=0
split_feature=10 9 11 6 4 6 10 11 1 11 11 11 5 1
split_gain=21.1964 0.66434 0.55144 0.366492 0.309668 0.306361 0.290904 0.252635 0.241409 0.211688 0.267179 0.215852 0.199078 0.196031
threshold=1.0000000180025095e-35 -0.26694532145084404 0.48305576652563359 -1.1366894059636456 0.28329318218243305 0.02059353559554095 22.500000000000004 0.48335687424376989 0.49530008580600954 0.51043938114189369 0.50042659879478357 0.52001130604994661 0.2814671666053527 -0.63382234071510279
decision_type=10 2 2 2 2 2 10 2 2 2 2 2 2 2
left_child=1 -1 3 -2 -5 7 -4 -3 12 10 -9 -11 -6 -13
right_child=2 5 6 4 8 -7 -8 9 -10 11 -12 13 -14 -15
leaf_value=-0.0013130238832475872 -0.00061798200118165383 -0.0010145566161148824 0.0012927044180109975 0.0010107126237388062 -8.7081313243396189e-06 -0.0010852171127531309 0.00090930429844224769 -0.00060377760428493123 -0.00042169039072534006 -0.001315619018925645 0.00037365110254461832 -0.001180153665636931 0.0013110729992193613 -0.00019617620556618108
leaf_weight=1768 93 437 1760 466 88 912 1575 213 138 155 225 104 90 326
leaf_count=1768 93 437 1760 466 88 912 1575 213 138 155 225 104 90 326
internal_value=-2.88157e-06 -0.00101841 0.000995788 0.000544232 0.000685497 -0.000796522 0.00111327 -0.000613098 0.000197633 -0.000437504 -0.000103124 -0.000684865 0.000676186 -0.000444991
internal_weight=8350 4140 4210 875 782 2372 3335 1460 316 1023 438 585 178 430
internal_count=8350 4140 4210 875 782 2372 3335 1460 316 1023 438 585 178 430
is_linear=0
shrinkage=0.02


Tree=31
num_leaves=15
num_cat=2
split_feature=10 11 0 3 12 10 11 11 6 4 4 2 6 12
split_gain=20.6423 0.688436 0.614781 0.603499 0.536587 0.54754 0.312089 0.383344 0.280437 0.274953 0.272533 0.264269 0.238329 0.210071
threshold=24.500000000000004 0.46573153270386708 -0.38163012375583155 0.56670882651888632 0 22.500000000000004 0.49273685403208262 0.50222158941796169 -0.77871327399797563 -0.14329908044101622 0.87309874073222593 0.19020640616104148 -0.077953932053170666 1
decision_type=8 2 2 2 9 10 2 2 2 2 2 2 2 9
left_child=1 8 6 12 9 -6 -2 -8 -1 -3 -10 -5 -4 -9
right_child=2 4 3 11 5 -7 7 13 10 -11 -12 -13 -14 -15
leaf_value=-0.00051796342488847865 -0.001041486429323749 0.001889240346538193 -0.001062340248734428 -0.00081104849558113232 0.0011985351838769605 0.00060421091195048636 0.00055206349308243381 -0.0010225583949541471 0.00083038196379530142 0.0012116311628159395 -0.00035979162885341795 0.00014159396795505945 -0.0014883426458196245 -0.00025197705399835393
leaf_weight=114 396 464 1069 576 1417 1134 148 234 352 601 95 144 1215 392
leaf_count=114 396 464 1069 576 1417 1134 148 234 352 601 95 144 1215 392
internal_value=1.36967e-05 0.00100709 -0.000980425 -0.00113222 0.00110821 0.00093239 -0.000587525 -0.000350072 0.000351289 0.00150028 0.000576255 -0.000620857 -0.00129171 -0.000566041
internal_weight=8351 4177 4174 3004 3616 2551 1170 774 561 1065 447 720 2284 626
internal_count=8351 4177 4174 3004 3616 2551 1170 774 561 1065 447 720 2284 626
cat_boundaries=0 1 2
cat_threshold=24 152
is_linear=0
shrinkage=0.02


Tree=32
num_leaves=15
num_cat=3
split_feature=1 11 11 0 1 12 4 12 2 1 9 6 4 12
split_gain=2.25662 1.21631 0.9252 0.589845 0.351581 0.341008 0.298399 0.290817 0.25069 0.22014 0.216435 0.215614 0.204794 0.196853
threshold=-0.40053030299085229 0.48643623183641943 0.47693969778257816 1.4513168135794792 0.60439295795654713 0 1.127349939383258 1 -1.0263956841644375 -1.0578735158065122 -0.13395516693984957 -1.0669487975252674 -0.58988192915660942 2
decision_type=2 2 2 2 2 9 2 9 2 2 2 2 2 9
left_child=2 8 -1 7 5 6 11 -4 -2 -9 13 -3 -12 -6
right_child=1 4 3 -5 10 -7 -8 9 -10 -11 12 -13 -14 -15
leaf_value=-0.0010358908751667772 -0.0011223504074043085 0.00098775618947746064 -0.00046784805324476232 -0.00092716032948160054 -0.00041922709437172489 0.00044849499040229161 -0.0011803607981459333 -0.00034273246811786099 -0.00016111848153211146 0.00023502512132908744 0.00029464484303526241 -7.757392794241808e-05 0.00091721984338020285 0.00052816920905336576
leaf_weight=736 114 83 519 386 116 1502 82 353 1271 999 274 553 1020 265
leaf_count=736 114 83 519 386 116 1502 82 353 1271 999 274 553 1020 265
internal_value=1.58023e-05 0.000264426 -0.000422508 -0.000220638 0.000445291 0.000279241 -8.05663e-05 -7.27952e-05 -0.000243991 8.28581e-05 0.000663884 6.80753e-05 0.000787033 0.000240851
internal_weight=8273 5280 2993 2257 3895 2220 718 1871 1385 1352 1675 636 1294 381
internal_count=8273 5280 2993 2257 3895 2220 718 1871 1385 1352 1675 636 1294 381
cat_boundaries=0 1 2 3
cat_threshold=960 896 200
is_linear=0
shrinkage=0.02


Tree=33
num_leaves=15
num_cat=3
split_feature=10 11 9 12 12 7 8 7 12 11 11 11 9 1
split_gain=18.9061 0.738039 0.629487 0.371237 0.362813 0.383934 0.35336 0.349918 0.354911 0.302596 0.595427 0.662547 0.252962 0.250573
threshold=1.0000000180025095e-35 0.49594737664077715 -0.24124154945680162 0 1 -0.20174891802797851 -1.3171958592208481 0.67480515224805793 2 0.4942785438284068 0.50229174523345177 0.50063732476806189 0.59872115701943762 0.010385360092947675
decision_type=10 2 2 9 9 2 2 2 9 2 2 2 2 2
left_child=2 4 -1 12 5 13 -5 8 -8 -4 11 -11 -3 -2
right_child=1 3 9 6 -6 -7 7 -9 -10 10 -12 -13 -14 -15
leaf_value=-0.0012341549298443503 0.0016732632684173486 0.0018030697260720051 -0.001017473745794968 -6.673850155211696e-05 0.00082577640184753503 -0.00022971103430415192 9.5580679133409329e-05 0.00064112888382025139 0.0013082566892455708 -0.00062750525079661198 -0.0007475143494818018 0.0013412821114919401 0.00096404310124806867 0.00021178160023867219
leaf_weight=1874 81 508 927 124 741 370 119 651 1245 141 1121 124 229 107
leaf_count=1874 81 508 927 124 741 370 119 651 1245 141 1121 124 229 107
internal_value=-1.17181e-05 0.000940074 -0.000960772 0.00111897 0.000541231 0.000142196 0.00096248 0.00103059 0.00121345 -0.000737091 -0.000546579 0.000301517 0.00153 0.000868498
internal_weight=8362 4175 4187 2876 1299 558 2139 2015 1364 2313 1386 265 737 188
internal_count=8362 4175 4187 2876 1299 558 2139 2015 1364 2313 1386 265 737 188
cat_boundaries=0 1 2 3
cat_threshold=20 964 64
is_linear=0
shrinkage=0.02


Tree=34
num_leaves=15
num_cat=2
split_feature=10 9 10 12 6 6 5 3 5 11 0 2 12 3
split_gain=18.1799 0.694176 0.649396 0.471989 0.451452 0.388335 0.309699 0.309465 0.295274 0.271086 0.254148 0.323892 0.244169 0.23916
threshold=25.500000000000004 -0.11436557736646194 22.500000000000004 0 1.0664357623874914 0.02059353559554095 -0.76268136198840153 0.28614187848527556 0.049937821442549775 0.46733903717080033 -0.76919392655057006 -1.184981291309317 1 0.11823773859875696
decision_type=8 2 10 9 2 2 2 2 2 2 2 2 9 2
left_child=2 7 8 4 6 -3 -4 -2 12 13 -11 -12 -1 -5
right_child=1 5 3 9 -6 -7 -8 -9 -10 10 11 -13 -14 -15
leaf_value=0.0010328192343955162 -0.001427747653941421 -0.00046832688479402264 0.0013961957066009442 0.00069698868279826221 -0.0010622657658820301 -0.0010507601375818504 0.00018798932533565106 -0.00093133538486923212 0.00090743317180231643 0.00043993154205809688 1.0500170732128252e-05 0.0012598343094319916 0.001755220577491712 -0.00062293618397657262
leaf_weight=596 1166 1268 100 148 92 727 454 969 1023 278 92 852 495 81
leaf_count=596 1166 1268 100 148 92 727 454 969 1023 278 92 852 495 81
internal_value=-1.16441e-05 -0.000953894 0.000912516 0.000660377 0.000196442 -0.000682668 0.000416615 -0.00120515 0.00116048 0.000858297 0.000982231 0.00113877 0.00139253 0.000226781
internal_weight=8341 4130 4211 2097 646 1995 554 2135 2114 1451 1222 944 1091 229
internal_count=8341 4130 4211 2097 646 1995 554 2135 2114 1451 1222 944 1091 229
cat_boundaries=0 1 2
cat_threshold=960 837
is_linear=0
shrinkage=0.02


Tree=35
num_leaves=15
num_cat=1
split_feature=10 11 6 5 7 12 4 3 7 11 10 11 7 6
split_gain=17.209 0.815291 0.430003 0.367196 0.378719 0.330334 0.4202 0.314565 0.287701 0.272659 0.252334 0.258495 0.247246 0.239891
threshold=20.500000000000004 0.46622026847105996 0.02059353559554095 -0.36640673959215286 -0.20174891802797851 0 1.412362168853269 0.51279693141352711 -0.41116274651641255 0.48335687424376989 21.500000000000004 0.49532242214956251 -0.99982727718520292 -0.84309834671126949
decision_type=10 2 2 2 2 9 2 2 2 2 10 2 2 2
left_child=2 3 9 -2 -5 6 10 -4 -7 -1 -3 -12 -11 -10
right_child=1 5 7 4 -6 8 -8 -9 13 12 11 -13 -14 -15
leaf_value=-0.0010780567310866901 0.00085708585944163282 0.0014596255068929915 -0.0013015089401106823 0.00066490027274045615 -0.00063384772256709816 0.00079020310734539468 -0.00054516371502314951 -0.00067160796691732015 0.00066142925760735575 -0.0011800370598726169 -3.9143664594355627e-06 0.00082646189784904111 -0.00048697104614710144 0.001367846665457336
leaf_weight=700 203 190 1469 133 253 754 98 427 238 244 189 720 1320 1460
leaf_count=700 203 190 1469 133 253 754 98 427 238 244 189 720 1320 1460
internal_value=-2.49756e-05 0.000871502 -0.000938212 0.000179289 -0.000183572 0.000982837 0.000682261 -0.00116179 0.00112055 -0.00074883 0.000799866 0.000654732 -0.000598512 0.00127106
internal_weight=8398 4238 4160 589 386 3649 1197 1896 2452 2264 1099 909 1564 1698
internal_count=8398 4238 4160 589 386 3649 1197 1896 2452 2264 1099 909 1564 1698
cat_boundaries=0 1
cat_threshold=960
is_linear=0
shrinkage=0.02


Tree=36
num_leaves=15
num_cat=0
split_feature=10 0 11 2 6 1 11 6 7 7 4 1 10 6
split_gain=16.7876 0.765644 0.661378 0.54117 0.399628 0.273358 0.254709 0.257292 0.250779 0.290154 0.332372 0.208621 0.191898 0.238748
threshold=24.500000000000004 -0.70189520247001125 0.48224619628278936 0.78264322701746658 -0.76427851888807063 0.59213374169992694 0.4893345768395137 0.12119679202157489 0.67480515224805793 0.94000461785237854 -0.17137935213073444 -0.65567097070292957 22.500000000000004 0.13564163714347352
decision_type=8 2 2 2 2 2 2 2 2 2 2 2 10 2
left_child=2 6 3 4 -1 12 -2 -8 -4 -10 -11 -3 -6 -14
right_child=1 11 8 -5 5 -7 7 -9 9 10 -12 -13 13 -15
leaf_value=-0.00033516767231049014 -0.00092736562140073565 -0.0012313872378437163 0.0011385309624015909 -0.0004743804553660998 0.0017210764944630527 0.000207747446911074 0.00012405137589532563 -0.00077784423586293311 0.00039142418385590199 0.001884678437768313 0.00073669685449056891 -0.00090233966549788742 0.0015188529041938875 0.00015884670884971897
leaf_weight=123 223 1397 2266 212 164 156 428 174 483 144 354 1974 90 116
leaf_count=123 223 1397 2266 212 164 156 428 174 483 144 354 1974 90 116
internal_value=-1.74757e-05 -0.000906711 0.000890807 0.000394895 0.000680305 0.000918683 -0.000357782 -0.000140889 0.0010215 0.000746761 0.00108408 -0.00104032 0.00121166 0.000774936
internal_weight=8304 4196 4108 861 649 526 825 602 3247 981 498 3371 370 206
internal_count=8304 4196 4108 861 649 526 825 602 3247 981 498 3371 370 206
is_linear=0
shrinkage=0.02


Tree=37
num_leaves=15
num_cat=3
split_feature=1 11 1 11 8 11 12 12 12 4 4 1 7 11
split_gain=1.70988 0.93639 0.53996 0.400336 0.315545 0.376481 0.25696 0.255759 0.247291 0.331428 0.244484 0.220661 0.217571 0.200892
threshold=-0.47030757706924042 0.48335687424376989 -1.5411837479504817 0.47632599563762729 0.11696970036646819 0.54476887973199184 0 1 2 0.3629022510686582 1.1860947368504948 0.89904884987099198 -0.77950487491926534 0.44908468668041612
decision_type=2 2 2 2 2 2 9 9 9 2 2 2 2 2
left_child=2 8 -1 -4 5 6 10 -5 12 -10 -3 -6 -2 -14
right_child=1 4 3 7 11 -7 -8 -9 9 -11 -12 -13 13 -15
leaf_value=-0.0010245089416937182 -0.00079221666594094138 -0.00010576962148442632 -0.00077707759112478534 -0.00040033606482131905 0.00037252383102494735 0.00073252562612991304 0.00021753416514428276 0.00011330845928726425 -0.00015364861703048925 -0.00097226670853553607 -0.0011893497935496272 0.00080402120617093886 -0.00043789991501918326 0.00049383396047823877
leaf_weight=479 91 506 486 695 1483 394 1249 846 514 319 95 706 121 349
leaf_count=479 91 506 486 695 1483 394 1249 846 514 319 95 706 121 349
internal_value=1.259e-05 0.000200457 -0.00042377 -0.000279638 0.000342549 0.000175304 5.49757e-05 -0.00012075 -0.000251014 -0.000465517 -0.000280817 0.000513206 7.56754e-05 0.000251878
internal_weight=8333 5827 2506 2027 4433 2244 1850 1541 1394 833 601 2189 561 470
internal_count=8333 5827 2506 2027 4433 2244 1850 1541 1394 833 601 2189 561 470
cat_boundaries=0 1 2 3
cat_threshold=960 968 19
is_linear=0
shrinkage=0.02


Tree=38
num_leaves=15
num_cat=2
split_feature=10 0 11 10 12 10 1 8 12 11 1 4 0 5
split_gain=16.294 0.575317 0.537741 0.409785 0.387581 0.2981 0.274047 0.309589 0.230263 0.204508 0.187442 0.210311 0.179466 0.245139
threshold=24.500000000000004 -0.70189520247001125 0.49594737664077715 21.500000000000004 0 23.500000000000004 0.60439295795654713 0.11696970036646819 1 0.4893345768395137 -1.0758928480760617 -0.72323301464175904 0.027688052649153555 -0.22747618285600982
decision_type=8 2 2 10 9 10 2 2 9 2 2 2 2 2
left_child=2 9 3 -1 6 8 7 -5 -4 -2 -3 -12 13 -6
right_child=1 10 5 4 12 -7 -8 -9 -10 -11 11 -13 -14 -15
leaf_value=0.0016205371874093543 -0.00092010543703733389 -0.0012794804079543846 0.0015522201611721245 -0.00033458089099068494 0.0009043533324268186 0.00037318143196618899 -0.00091576448586822403 0.001193076965730937 0.00098849932147762349 -0.00021077202789811575 -0.00054374105411500266 -0.0010097621774355632 0.000997377909885329 2.0912074333972346e-05
leaf_weight=123 222 803 452 132 217 255 118 82 2145 589 504 2019 351 290
leaf_count=123 222 803 452 132 217 255 118 82 2145 589 504 2019 351 290
internal_value=-1.99604e-06 -0.000890489 0.000880533 0.0005423 0.000424538 0.00103503 -0.000157576 0.000264658 0.00109917 -0.00040939 -0.00100701 -0.000917928 0.000643759 0.000404171
internal_weight=8302 4137 4165 1313 1190 2852 332 214 2597 811 3326 2523 858 507
internal_count=8302 4137 4165 1313 1190 2852 332 214 2597 811 3326 2523 858 507
cat_boundaries=0 1 2
cat_threshold=896 16
is_linear=0
shrinkage=0.02


Tree=39
num_leaves=15
num_cat=4
split_feature=10 9 11 3 12 10 10 12 12 4 4 12 6 1
split_gain=15.3317 0.569407 0.567222 0.315377 0.313153 0.317375 0.283157 0.283106 0.268771 0.234837 0.258424 0.213648 0.20482 0.22143
threshold=1.0000000180025095e-35 0.38358760474928272 0.46972703222844286 0.59676735076322129 0 21.500000000000004 22.500000000000004 1 2 -1.0098633679113591 -0.67164098453038867 3 0.20245769866145921 -0.63382234071510279
decision_type=10 2 2 2 9 10 10 9 9 2 2 9 2 2
left_child=1 3 6 8 5 -4 11 -8 -1 -7 -11 -2 13 -10
right_child=2 -3 4 -5 -6 9 7 -9 12 10 -12 -13 -14 -15
leaf_value=-0.0013906567757521172 0.0012332796781228329 -0.00050926614105601396 0.001428163516731269 -0.00061657716019817459 0.0010648429326121571 0.0013669038814577189 -0.00079835761086917575 0.00033057090481032885 -0.0010833669808454106 -0.00054145073147352646 0.00050735785489536506 2.6932118863660138e-05 -0.0012278067777996542 -0.00039062745159026231
leaf_weight=1047 141 1219 169 614 2464 105 128 221 328 103 759 106 491 435
leaf_count=1047 141 1219 169 614 2464 105 128 221 328 103 759 106 491 435
internal_value=-1.15489e-05 -0.000875455 0.000839622 -0.00102745 0.000934189 0.000632497 0.000265391 -0.00010212 -0.00113552 0.000493317 0.000379636 0.000776391 -0.000899629 -0.000693538
internal_weight=8330 4134 4196 2915 3600 1136 596 349 2301 967 862 247 1254 763
internal_count=8330 4134 4196 2915 3600 1136 596 349 2301 967 862 247 1254 763
cat_boundaries=0 1 2 3 4
cat_threshold=834 208 218 217
is_linear=0
shrinkage=0.02


Tree=40
num_leaves=15
num_cat=0
split_feature=10 11 0 3 10 5 7 8 3 8 9 5 9 3
split_gain=15.6768 0.602008 0.507315 0.384974 0.374004 0.221642 0.201249 0.222504 0.190386 0.190116 0.174281 0.168872 0.16645 0.166329
threshold=1.0000000180025095e-35 0.4753877515010147 -0.29939837005027403 0.56670882651888632 22.500000000000004 -0.36640673959215286 0.023527780229006399 1.0000000180025095e-35 0.8803120263323222 -0.82747649115885358 0.55610186197899347 -0.98834271600948831 1.4282662413179732 -0.69827894585215067
decision_type=10 2 2 2 10 2 2 2 2 2 2 2 2 2
left_child=2 5 8 13 9 -2 -7 -8 10 -3 -1 -11 -13 -4
right_child=1 4 3 -5 -6 6 7 -9 -10 11 -12 12 -14 -15
leaf_value=-0.00085295146469154882 0.00080839843433614268 0.0017353606606025397 -0.00070324112008280813 -0.00060270029678949105 0.0007543777444687903 0.0005347295972864479 -0.00093251352737203617 0.00022136178502924002 0.00021106824900637131 0.001597252383893002 -0.0003553459449664545 0.0010694152773989786 0.00031844053522381982 -0.0012233003715602002
leaf_weight=594 242 222 311 694 1725 201 116 146 121 232 554 1176 137 1870
leaf_count=594 242 222 311 694 1725 201 116 146 121 232 554 1176 137 1870
internal_value=-4.7858e-07 0.000860582 -0.000872538 -0.00101986 0.000968186 0.000324535 6.56961e-05 -0.00029741 -0.000536077 0.0011742 -0.0006154 0.00108822 0.000992563 -0.00115092
internal_weight=8341 4197 4144 2875 3492 705 463 262 1269 1767 1148 1545 1313 2181
internal_count=8341 4197 4144 2875 3492 705 463 262 1269 1767 1148 1545 1313 2181
is_linear=0
shrinkage=0.02


Tree=41
num_leaves=15
num_cat=0
split_feature=1 11 1 11 1 4 9 9 4 5 7 0 2 1
split_gain=1.65672 0.922756 0.583216 0.455184 0.319343 0.262393 0.251403 0.244609 0.254498 0.216237 0.168708 0.164874 0.179993 0.147267
threshold=-0.40053030299085229 0.4893345768395137 -1.7330326429808067 0.47632599563762729 0.60439295795654713 0.37830481465980398 -1.2153979964673149 -0.17699547880782807 1.1347497232335508 -0.65667059094590519 0.74688505923333304 -0.4515623139701101 1.4743047287516149 1.2940631309271458
decision_type=2 2 2 2 2 2 2 2 2 2 2 2 2 2
left_child=2 5 -1 -4 -3 13 9 -6 11 -5 -7 12 -9 -2
right_child=1 4 3 6 7 10 -8 8 -10 -11 -12 -13 -14 -15
leaf_value=-0.0011929131810400435 -8.7199410017167004e-05 0.00022676512079664491 -0.00072166248988963805 0.00014117200873752542 0.00012897451462919366 -0.00076542574339030171 -3.3703694190233853e-05 0.00063093733040294918 9.0297150930737034e-06 -0.0010375774959359675 3.712374032616164e-06 0.0016847111212766983 0.0013342535451216543 0.00068858146756627342
leaf_weight=301 823 2172 670 89 353 392 1775 848 172 194 160 83 179 106
leaf_count=301 823 2172 670 89 353 392 1775 848 172 194 160 83 179 106
internal_value=8.29147e-06 0.00022187 -0.000364322 -0.000270883 0.000386512 -0.000201232 -0.000122734 0.000597389 0.000725365 -0.00067086 -0.000544455 0.000835827 0.000759392 4.53044e-06
internal_weight=8317 5288 3029 2728 3807 1481 2058 1635 1282 283 552 1110 1027 929
internal_count=8317 5288 3029 2728 3807 1481 2058 1635 1282 283 552 1110 1027 929
is_linear=0
shrinkage=0.02


Tree=42
num_leaves=15
num_cat=0
split_feature=1 11 11 0 2 5 11 8 1 1 8 1 1 7
split_gain=1.61145 0.933277 0.390468 0.314747 0.288741 0.219838 0.213672 0.213113 0.175677 0.157137 0.155333 0.140506 0.135187 0.120666
threshold=-0.47030757706924042 0.48335687424376989 0.4942785438284068 0.94251662553081705 -1.0263956841644375 0.39455220288158427 0.52001130604994661 1.5138976516813127 -1.6527139358636829 -0.53716415923533323 -0.78879240953481589 -0.30773096481059747 0.62965268696796795 -0.7887533219207854
decision_type=2 2 2 2 2 2 2 2 2 2 2 2 2 2
left_child=2 4 8 9 -2 11 7 -3 -1 10 -4 -6 -8 -14
right_child=1 6 3 -5 5 -7 12 -9 -10 -11 -12 -13 13 -15
leaf_value=-0.0013263723868480954 -0.0012111597939330186 0.0001504100278043511 -0.00029020581376996236 -0.00053017819927769153 -0.00057462152673018192 -0.00050929975996117749 0.00035371730713143701 0.0008268699413041331 -0.00059567702734455346 -0.00066199106297322691 0.00032274939163418656 0.00014420084381272738 -2.3818579295443163e-05 0.00077107648536588788
leaf_weight=159 111 2205 232 688 124 471 1256 199 808 107 545 689 85 724
leaf_count=159 111 2205 232 688 124 471 1256 199 808 107 545 689 85 724
internal_value=1.37358e-05 0.000195966 -0.000406696 -0.000211048 -0.00025498 -0.000167942 0.000336857 0.000208006 -0.000722027 3.89093e-05 0.000139045 3.17227e-05 0.000485994 0.000687925
internal_weight=8403 5864 2539 1572 1395 1284 4469 2404 967 884 777 813 2065 809
internal_count=8403 5864 2539 1572 1395 1284 4469 2404 967 884 777 813 2065 809
is_linear=0
shrinkage=0.02


Tree=43
num_leaves=15
num_cat=1
split_feature=10 12 7 9 7 3 11 3 9 6 6 10 6 7
split_gain=15.1299 0.575776 0.85093 0.50632 0.455107 0.417805 0.364181 0.326601 0.318517 0.329158 0.314854 0.266401 0.242016 0.216845
threshold=1.0000000180025095e-35 0 -0.20174891802797851 -0.86956711138341725 -0.41116274651641255 0.8483091786164042 0.46972703222844286 0.56670882651888632 0.95272824266992917 -0.87082283957553097 0.02059353559554095 22.500000000000004 -1.0944092842733393 -0.99982727718520292
decision_type=10 9 2 2 2 2 2 2 2 2 2 10 2 2
left_child=3 2 11 -1 5 12 -4 10 -6 -10 13 -2 -3 -5
right_child=1 4 6 7 8 -7 -8 -9 9 -11 -12 -13 -14 -15
leaf_value=-0.0013158181429320972 0.0016780439972699029 -7.7683186836783656e-05 -0.00069169020923511254 -0.001173923659668718 0.0013387025738831858 -0.00068134310243781219 0.00036105879355855777 -0.00031668688087038911 -0.00042588062273959319 0.0009827237602681436 -0.0010976628638825995 0.00061995125561952597 0.00092627156060027095 -0.00054576650191135421
leaf_weight=754 252 110 151 265 1525 81 837 610 82 296 1084 165 714 1352
leaf_count=754 252 110 151 265 1525 81 837 610 82 296 1084 165 714 1352
internal_value=2.31549e-05 0.000862537 0.000516026 -0.000846778 0.0010292 0.000657649 0.00019749 -0.000738143 0.0012091 0.000675583 -0.000832564 0.00127168 0.000792588 -0.000652013
internal_weight=8278 4213 1405 4065 2808 905 988 3311 1903 378 2701 417 824 1617
internal_count=8278 4213 1405 4065 2808 905 988 3311 1903 378 2701 417 824 1617
cat_boundaries=0 1
cat_threshold=960
is_linear=0
shrinkage=0.02


Tree=44
num_leaves=15
num_cat=0
split_feature=10 0 10 3 11 3 7 3 3 11 0 7 3 7
split_gain=13.1226 0.595571 0.563312 0.501762 0.321446 0.286389 0.355987 0.256874 0.231082 0.227451 0.214663 0.363799 0.284444 0.201536
threshold=25.500000000000004 -0.38163012375583155 22.500000000000004 0.56670882651888632 0.48472358753112582 0.15634288604787203 0.023527780229006399 -0.67568654184810051 0.28614187848527556 0.5358256053173408 -0.58293700687114958 0.67480515224805793 -0.67568654184810051 -0.41116274651641255
decision_type=8 2 10 2 2 2 2 2 2 2 2 2 2 2
left_child=2 8 -1 7 5 -4 -7 -3 9 -2 11 -6 -12 -14
right_child=1 3 4 -5 10 6 -8 -9 -10 -11 12 -13 13 -15
leaf_value=0.00099722710222091993 -0.00076160477087453145 -0.00057712979176627289 0.00047560267145785036 -0.00049662372904656885 0.00067810803908990814 0.00050225895064833913 -0.0011112103497126062 -0.0011910891380207936 4.1256833262814555e-05 6.2582805687778217e-05 -0.00017680372478655324 -0.00050455370574334834 0.00047324765630458532 0.0011196363177136571
leaf_weight=2110 657 333 348 728 344 90 126 1975 314 167 99 144 280 706
leaf_count=2110 657 333 348 728 344 90 126 1975 314 167 99 144 280 706
internal_value=-1.71504e-05 -0.000813043 0.000765099 -0.000959372 0.00053411 0.000123082 -0.000442778 -0.00110395 -0.000420173 -0.000595197 0.000680628 0.000327548 0.000837201 0.000939392
internal_weight=8421 4174 4247 3036 2137 564 216 2308 1138 824 1573 488 1085 986
internal_count=8421 4174 4247 3036 2137 564 216 2308 1138 824 1573 488 1085 986
is_linear=0
shrinkage=0.02


Tree=45
num_leaves=15
num_cat=0
split_feature=10 0 10 3 3 6 9 3 3 4 2 9 9 9
split_gain=13.27 0.487595 0.464975 0.393896 0.342772 0.293819 0.266387 0.252129 0.235626 0.217451 0.303969 0.386007 0.187899 0.185391
threshold=1.0000000180025095e-35 -0.36632162642587035 22.500000000000004 0.56670882651888632 0.98216931712833921 1.141084380268766 0.77684119522680462 -0.15319762845838827 0.47196952736616404 -0.99866813568563251 -1.0263956841644375 -0.99835391489042169 -0.80490749288403785 -0.8480676865058342
decision_type=10 2 10 2 2 2 2 2 2 2 2 2 2 2
left_child=1 8 6 13 5 9 -2 -7 -1 -4 -11 -12 -13 -3
right_child=2 3 4 -5 -6 7 -8 -9 -10 10 11 12 -14 -15
leaf_value=-0.00061479570176800732 0.00112516386026578 -0.0013889257022021183 8.3571109798197678e-05 -0.00050329946411146759 -0.00037829375262735478 0.00067694674497339698 0.00058575840302363207 -0.00064572649993002414 2.7439410851235526e-05 -3.2412487070468614e-05 0.0021682020350177163 -6.7501816163329699e-05 0.0008750930390492871 -0.00095132969561357043
leaf_weight=884 1651 543 185 677 136 102 494 120 307 154 87 90 1244 1730
leaf_count=884 1651 543 185 677 136 102 494 120 307 154 87 90 1244 1730
internal_value=1.16292e-05 -0.000794243 0.000794452 -0.000932297 0.000581798 0.000648463 0.00100259 -3.64868e-05 -0.000449826 0.000734718 0.000810696 0.000901861 0.000811485 -0.00105869
internal_weight=8404 4141 4263 2950 2118 1982 2145 222 1191 1760 1575 1421 1334 2273
internal_count=8404 4141 4263 2950 2118 1982 2145 222 1191 1760 1575 1421 1334 2273
is_linear=0
shrinkage=0.02


Tree=46
num_leaves=15
num_cat=0
split_feature=10 10 9 5 3 3 6 6 7 7 3 9 9 2
split_gain=13.3391 0.537523 0.402607 0.358043 0.253775 0.248381 0.191076 0.24221 0.272355 0.291728 0.177131 0.165052 0.240245 0.161165
threshold=25.500000000000004 22.500000000000004 0.2027671083960936 0.2241181202673683 0.59676735076322129 0.98216931712833921 1.141084380268766 0.63364328416585014 1.0000000180025095e-35 1.432821969582259 -0.15319762845838827 -0.82401219585869245 -0.66273692589703115 0.3865495522873163
decision_type=8 10 2 2 2 2 2 2 2 2 2 2 2 2
left_child=1 3 4 -1 11 6 7 8 -3 -10 -8 -2 -13 -5
right_child=2 5 -4 13 -6 -7 10 -9 9 -11 -12 12 -14 -15
leaf_value=0.0012379467285453135 -0.0013538396262452281 0.00087496068394899568 -0.0005394128167093633 0.00092744400858236987 -0.00059069308548884234 -0.0002869051417589865 0.00066659403999349621 0.0012601494853129137 0.0001868136492442545 0.0013135837858437365 -0.0004556966084806669 -0.00044406373566992707 -0.0010748363133118043 0.0003667180391670087
leaf_weight=1224 585 698 1470 507 617 127 98 250 712 101 119 317 1168 359
leaf_count=1224 585 698 1470 507 617 127 98 250 712 101 119 317 1168 359
internal_value=-6.21115e-06 0.00078897 -0.000808645 0.0010166 -0.000954661 0.000561091 0.000616124 0.000684949 0.000585938 0.000333967 5.47424e-05 -0.00106146 -0.000942129 0.000698435
internal_weight=8352 4195 4157 2090 2687 2105 1978 1761 1511 813 217 2070 1485 866
internal_count=8352 4195 4157 2090 2687 2105 1978 1761 1511 813 217 2070 1485 866
is_linear=0
shrinkage=0.02


Tree=47
num_leaves=15
num_cat=2
split_feature=10 11 9 12 7 0 10 0 0 12 0 9 9 9
split_gain=12.0393 0.534176 0.425637 0.295875 0.303801 0.37422 0.272476 0.262901 0.255893 0.255703 0.257903 0.36262 0.300992 0.354573
threshold=20.500000000000004 0.48224619628278936 -0.86956711138341725 0 -0.094277221207207593 -0.091628117603218553 22.500000000000004 1.4791535495183143 -0.70189520247001125 1 -0.72331097523341215 -0.41387979572307482 0.92571509845484523 -0.24124154945680162
decision_type=10 2 2 9 2 2 10 2 2 9 2 2 2 2
left_child=2 3 -1 -2 5 -5 -6 9 -4 -3 11 -11 13 -12
right_child=1 7 8 4 6 -7 -8 -9 -10 10 12 -13 -14 -15
leaf_value=-0.0012024697605597366 0.00078283672210557431 0.00032181184453425202 -0.00036562315971580713 -0.00012186465546488763 0.0002887480850848887 0.0015586722576297184 -0.00080456595518626269 -0.00017549735930803611 -0.00078026891053470826 -0.00053177661260001756 0.00087787727198260581 0.00078577492382844228 0.00044686669563841924 0.0014586986865078172
leaf_weight=790 297 343 792 120 157 89 206 96 2575 90 900 781 280 853
leaf_count=790 297 343 792 120 157 89 206 96 2575 90 900 781 280 853
internal_value=-2.02931e-05 0.000732873 -0.000783388 0.000288948 1.41327e-05 0.000613468 -0.000334202 0.000847665 -0.000683421 0.000878139 0.000938849 0.000647375 0.00106644 0.00116385
internal_weight=8369 4212 4157 869 572 209 363 3343 3367 3247 2904 871 2033 1753
internal_count=8369 4212 4157 869 572 209 363 3343 3367 3247 2904 871 2033 1753
cat_boundaries=0 1 2
cat_threshold=26 320
is_linear=0
shrinkage=0.02


Tree=48
num_leaves=15
num_cat=3
split_feature=10 12 0 3 5 11 12 3 11 12 11 10 5 5
split_gain=12.2264 0.459525 0.407714 0.316661 0.492505 0.475573 0.339887 0.310723 0.290752 0.28163 0.267688 0.267565 0.236086 0.279991
threshold=24.500000000000004 0 0.39845332845950587 0.21310193143960784 0.20839095721859505 0.48335687424376989 1 0.59676735076322129 0.49151028812424385 2 0.49532242214956251 22.500000000000004 -0.48026110916846865 0.24418220172883617
decision_type=8 9 2 2 2 2 9 2 2 9 2 10 2 2
left_child=1 12 7 4 -3 11 -6 9 -7 -2 -10 -5 -1 -14
right_child=2 3 -4 5 6 8 -8 -9 10 -11 -12 -13 13 -15
leaf_value=0.00092585001529525387 -0.00021173458466921776 0.0012979006468317694 -0.00098518844963423036 0.00057248884636276168 5.483527790117386e-05 0.0019447892396336145 0.00091082729241737212 -6.4329782495584794e-05 -0.000286806859064144 -0.00080199115765722728 0.00081550860117406252 -0.00054630121899567339 -0.00081018778125700698 0.00034956346934682931
leaf_weight=116 442 1146 1736 154 272 82 650 392 93 1598 1147 180 131 210
leaf_count=116 442 1146 1736 154 272 82 650 392 93 1598 1147 180 131 210
internal_value=1.5766e-05 0.000779464 -0.00075033 0.000852056 0.00102042 0.000644501 0.000670375 -0.000581007 0.000814284 -0.00067989 0.000732015 -2.96165e-05 0.000163132 -0.000101241
internal_weight=8349 4181 4168 3724 2068 1656 922 2432 1322 2040 1240 334 457 341
internal_count=8349 4181 4168 3724 2068 1656 922 2432 1322 2040 1240 334 457 341
cat_boundaries=0 1 2 3
cat_threshold=320 515 262
is_linear=0
shrinkage=0.02


Tree=49
num_leaves=15
num_cat=3
split_feature=10 0 12 3 10 3 7 7 3 12 3 7 6 12
split_gain=11.8706 0.43942 0.436294 0.382837 0.247342 0.257085 0.250157 0.236247 0.398706 0.288359 0.23512 0.225066 0.214762 0.207696
threshold=24.500000000000004 -0.30549890731510626 0 0.56670882651888632 21.500000000000004 -0.61026711261060074 -0.57327212487833756 -0.43875318289239179 0.71162849630375991 1 -0.69827894585215067 0.7233634303939106 -0.79415209136512643 2
decision_type=8 2 9 2 10 2 2 2 2 9 2 2 2 9
left_child=2 -2 4 10 -1 -6 -7 8 13 11 -3 -9 -13 -4
right_child=1 3 7 -5 5 6 -8 9 -10 -11 -12 12 -14 -15
leaf_value=0.0011328456252850893 -0.00042478862650343593 -0.00048115668488834569 0.0010711743387555373 -0.00045319931180180263 -0.0004485499094529399 0.0011683525679858798 0.00031149272684248129 0.0010443524226654334 -0.00067723892943197207 0.0013678804624816276 -0.0010860262889549606 -0.00043665293441154065 0.00066939772213841012 0.00037184233502640082
leaf_weight=181 1239 310 409 670 140 160 827 760 81 725 1924 80 434 360
leaf_count=181 1239 310 409 670 140 160 827 760 81 725 1924 80 434 360
internal_value=1.44541e-05 -0.000742733 0.000769077 -0.000877421 0.000451708 0.000341785 0.000455585 0.000908969 0.000626171 0.00103189 -0.00100335 0.000818991 0.000494702 0.000766949
internal_weight=8300 4143 4157 2904 1308 1127 987 2849 850 1999 2234 1274 514 769
internal_count=8300 4143 4157 2904 1308 1127 987 2849 850 1999 2234 1274 514 769
cat_boundaries=0 1 2 3
cat_threshold=836 137 152
is_linear=0
shrinkage=0.02


Tree=50
num_leaves=15
num_cat=3
split_feature=11 1 1 9 1 12 2 12 12 1 11 9 0 4
split_gain=1.31442 0.853818 0.368704 0.330206 0.292748 0.258307 0.314515 0.253184 0.246707 0.204852 0.198211 0.176901 0.15888 0.155679
threshold=0.48877564230285947 -0.20720934609592026 -1.6087710065899106 -0.31689564419315647 -0.41194390255421326 0 1.3006416419326643 1 2 -1.0758928480760617 0.53841158126770261 0.59872115701943762 0.11336465166139399 1.127349939383258
decision_type=2 2 2 2 2 9 2 9 9 2 2 2 2 2
left_child=4 2 -2 8 -1 6 -5 13 -3 -9 -10 -11 -7 -4
right_child=1 3 7 5 -6 12 -8 9 10 11 -12 -13 -14 -15
leaf_value=-0.00067636821435307023 -0.00085016193840553177 0.00025869811504722475 -0.00018818522705160818 -0.00022620140738861385 -0.00023025883281481974 0.00049378284801250311 0.0011017137023207563 -0.0003413454236656006 -0.00074884301702664031 0.0004198969756470175 0.00036051225408420458 -0.00031124102744168924 0.0010438460095205391 -0.00092573628942162255
leaf_weight=982 257 571 949 372 1478 1819 83 260 225 743 86 157 239 126
leaf_count=982 257 571 949 372 1478 1819 83 260 225 743 86 157 239 126
internal_value=-2.15739e-05 0.000140676 -0.000140303 0.000346824 -0.000409351 0.000463475 2.48359e-05 -5.6962e-05 1.37202e-05 0.000147409 -0.000427691 0.000291339 0.000557336 -0.000275963
internal_weight=8347 5887 2492 3395 2460 2513 455 2235 882 1160 311 900 2058 1075
internal_count=8347 5887 2492 3395 2460 2513 455 2235 882 1160 311 900 2058 1075
cat_boundaries=0 1 2 3
cat_threshold=576 968 583
is_linear=0
shrinkage=0.02


Tree=51
num_leaves=15
num_cat=0
split_feature=10 11 0 3 9 0 5 0 2 0 10 5 9 5
split_gain=11.2188 0.525647 0.444625 0.380109 0.260563 0.253396 0.383915 0.236568 0.235729 0.22347 0.208549 0.240718 0.181076 0.180875
threshold=1.0000000180025095e-35 0.48305576652563359 -1.6542985152864056 0.56670882651888632 -0.31689564419315647 -0.091628117603218553 0.20839095721859505 -0.84298665532584427 -0.95848179703635938 -1.0680576493880454 23.500000000000004 -0.58464765895567716 -0.20844394021798554 -0.48026110916846865
decision_type=10 2 2 2 2 2 2 2 2 2 10 2 2 2
left_child=2 5 -1 4 -4 6 9 -8 -7 -2 -3 -12 -5 -10
right_child=1 10 3 12 -6 8 7 -9 13 -11 11 -13 -14 -15
leaf_value=0.00014742995454331063 -0.00039630863860019307 0.00090174279367785952 -0.0011043360434363229 -0.00064183573491322641 -0.00072318652634307742 -0.00027664090067529203 0.00012569758510433659 -0.0012757074791568748 0.0017068545325275731 0.00081326154893722924 -0.00056466347568065803 0.00066674823205838661 -4.0991335691325568e-05 0.00060914135042458302
leaf_weight=219 84 3043 1236 473 1852 83 81 111 80 197 80 253 347 244
leaf_count=219 84 3043 1236 473 1852 83 81 111 80 197 80 253 347 244
internal_value=1.61118e-05 0.000736162 -0.000726438 -0.000775534 -0.000877284 0.000298587 -1.7081e-05 -0.000696305 0.0006612 0.000451075 0.000849612 0.000366937 -0.000389365 0.000902003
internal_weight=8383 4256 4127 3908 3088 880 473 192 407 281 3376 333 820 324
internal_count=8383 4256 4127 3908 3088 880 473 192 407 281 3376 333 820 324
is_linear=0
shrinkage=0.02


Tree=52
num_leaves=15
num_cat=0
split_feature=10 11 0 3 0 0 11 11 11 11 5 1 6 5
split_gain=10.0915 0.554163 0.356662 0.341631 0.265924 0.264183 0.254024 0.462775 0.23947 0.22682 0.220924 0.225208 0.212101 0.186632
threshold=24.500000000000004 0.49594737664077715 -0.30549890731510626 0.56670882651888632 -0.93920168192352682 -0.018221479681914048 0.4942785438284068 0.50222158941796169 0.5358256053173408 0.45520445712789898 -1.4799286914083438 -0.27878516818278382 1.141084380268766 1.2086617301859353
decision_type=8 2 2 2 2 2 2 2 2 2 2 2 2 2
left_child=1 4 6 -4 -1 10 -2 -8 -9 -6 -3 -12 -7 -11
right_child=2 5 3 -5 9 12 7 8 -10 13 11 -13 -14 -15
leaf_value=-0.00026801456946339659 -0.00079105847892507676 0.001575186058080622 -0.00094690204707605758 -0.00043177417047732903 -1.6956991886579864e-05 0.0011903629283222352 0.00082531381514051871 -0.00072452416298170804 6.151295327307547e-05 0.00053226784686158976 -0.00020954832972958686 0.00068462149886587261 0.00046010468906138599 0.0014952692775888014
leaf_weight=230 457 100 2209 688 274 1009 140 400 250 688 120 1437 199 89
leaf_count=230 457 100 2209 688 274 1009 140 400 250 688 120 1437 199 89
internal_value=-6.05046e-06 0.000691163 -0.000703593 -0.000825521 0.00034347 0.000845754 -0.000418167 -0.000198838 -0.00042404 0.000477922 0.000677753 0.000615257 0.00107246 0.000651428
internal_weight=8290 4146 4144 2897 1281 2865 1247 790 650 1051 1657 1557 1208 777
internal_count=8290 4146 4144 2897 1281 2865 1247 790 650 1051 1657 1557 1208 777
is_linear=0
shrinkage=0.02


Tree=53
num_leaves=15
num_cat=2
split_feature=10 10 12 7 9 11 7 5 11 1 11 1 12 7
split_gain=10.1772 0.458736 0.41029 0.673756 0.407346 0.374682 0.291221 0.28295 0.253969 0.523651 0.356624 0.241321 0.223218 0.207264
threshold=1.0000000180025095e-35 23.500000000000004 0 1.0000000180025095e-35 0.23089891080215819 0.46972703222844286 -0.085912479269055361 1.3591549922453403 0.53251732523344397 1.0000000180025095e-35 0.506131891546309 1.0000000180025095e-35 1 0.94000461785237854
decision_type=10 10 9 2 2 2 2 2 2 2 2 2 9 2
left_child=4 2 6 8 -1 -5 12 -7 9 -4 -11 -10 -2 -3
right_child=1 13 3 5 -6 7 -8 -9 11 10 -12 -13 -14 -15
leaf_value=-0.00084252361181095343 0.001152640346396691 -0.00011911289849450897 0.0019123408912490464 -0.00055673389524422783 -0.00041587759106610599 0.00051206908073031781 0.0012487308751857142 -0.00064483922155153365 -0.00039427094867763423 9.2422044629441409e-05 0.0014367550047913711 0.00097192425527253129 0.00044177573765172501 0.00096019859769677922
leaf_weight=2758 303 368 254 180 1349 1012 906 88 85 181 136 119 537 83
leaf_count=2758 303 368 254 180 1349 1012 906 88 85 181 136 119 537 83
internal_value=6.57376e-06 0.000692031 0.000763506 0.000559378 -0.000703062 0.00027845 0.000992614 0.000417017 0.00102577 0.00124144 0.000682525 0.000406862 0.000722367 8.78692e-05
internal_weight=8359 4252 3801 2055 4107 1280 1746 1100 775 571 317 204 840 451
internal_count=8359 4252 3801 2055 4107 1280 1746 1100 775 571 317 204 840 451
cat_boundaries=0 1 2
cat_threshold=30 16
is_linear=0
shrinkage=0.02


Tree=54
num_leaves=15
num_cat=3
split_feature=10 12 0 6 6 12 6 2 0 0 4 2 6 12
split_gain=9.59181 0.530056 0.454348 0.355662 0.228269 0.192985 0.398969 0.214601 0.203455 0.198258 0.197042 0.226193 0.171485 0.167168
threshold=24.500000000000004 0 -0.76919392655057006 0.72620177416941012 -0.064864126799398389 1 -0.057747301952623384 -0.69315611989445314 -0.018221479681914048 1.3893708794375839 1.5019898309896664 -0.34491048854099376 0.75003339069297159 2
decision_type=8 9 2 2 2 9 2 2 2 2 2 2 2 9
left_child=1 3 13 -1 -4 6 8 12 -3 -7 11 -9 -8 -2
right_child=2 5 4 -5 -6 9 7 10 -10 -11 -12 -13 -14 -15
leaf_value=0.0002955525376720206 0.00012502656559809113 3.3440369335338265e-05 -0.00061051909173781701 -0.0011010578836557336 -0.00094465911020200619 0.00094449805996783668 0.00083023975827856687 0.0021480680640194229 0.00069643474910441165 -6.2408551876974664e-05 0.00015211783022015961 0.0010085472403015422 -0.00020320741357863882 -0.00048138184270181622
leaf_weight=347 305 537 1616 87 1762 1869 136 83 278 81 86 505 115 426
leaf_count=347 305 537 1616 87 1762 1869 136 83 278 81 86 505 115 426
internal_value=-4.69278e-06 0.00067631 -0.000688173 6.09614e-06 -0.000785949 0.000752969 0.000584118 0.000870872 0.000262458 0.000898027 0.00105631 0.00118615 0.000362027 -0.000234077
internal_weight=8233 4124 4109 434 3378 3690 1740 925 815 1950 674 588 251 731
internal_count=8233 4124 4109 434 3378 3690 1740 925 815 1950 674 588 251 731
cat_boundaries=0 1 2 3
cat_threshold=320 515 774
is_linear=0
shrinkage=0.02


Tree=55
num_leaves=15
num_cat=3
split_feature=0 12 0 0 9 7 9 12 12 6 2 2 0 6
split_gain=1.00772 0.294078 0.291557 0.287112 0.267767 0.319291 0.353014 0.266544 0.201991 0.195107 0.158246 0.139476 0.13427 0.130587
threshold=0.60477981283380966 0 1.4791535495183143 -1.6085410434527936 -0.28748532865107129 -1.0201336031641179 0.95272824266992917 1 2 -0.95507146314813152 -0.42075018291325361 0.29719079448201685 0.39785318410835152 -0.98007356072107843
decision_type=2 9 2 2 2 2 2 9 9 2 2 2 2 2
left_child=1 3 8 -1 -3 11 7 10 -2 -8 -7 -6 -9 -12
right_child=2 4 -4 -5 5 6 9 12 -10 -11 13 -13 -14 -15
leaf_value=0.00084536895916605267 -0.00066274220991358577 -3.0509093945559562e-05 -0.00078758586053939261 -0.00012143849283802411 0.00011149859529027977 0.00094100872828294677 -0.0005060989020980503 0.00097441800764797753 -0.00012637677760622638 0.00022217315146207502 0.00079278646412825077 -0.00081680411044212557 0.00014327701173897368 0.00014336091883982303
leaf_weight=126 346 1125 506 1979 131 150 185 618 1358 648 143 121 91 782
leaf_count=126 346 1125 506 1979 131 150 185 618 1358 648 143 121 91 782
internal_value=-2.6329e-06 0.000129969 -0.000368046 -6.14107e-05 0.000230362 0.000333332 0.000398837 0.0005572 -0.000241524 5.83774e-05 0.000344967 -0.000341453 0.000857482 0.000247481
internal_weight=8309 6099 2210 2105 3994 2869 2617 1784 1704 833 1075 252 709 925
internal_count=8309 6099 2210 2105 3994 2869 2617 1784 1704 833 1075 252 709 925
cat_boundaries=0 1 2 3
cat_threshold=960 13 448
is_linear=0
shrinkage=0.02


Tree=56
num_leaves=15
num_cat=2
split_feature=10 9 12 10 11 3 8 12 11 6 2 8 7 7
split_gain=8.71239 0.472394 0.408459 0.389809 0.314427 0.283974 0.254908 0.328048 0.249798 0.24046 0.257168 0.266498 0.264494 0.229234
threshold=1.0000000180025095e-35 0.55610186197899347 0 21.500000000000004 0.48224619628278936 0.5312495714800255 0.26186065135795944 1 0.53561531544520602 -0.76427851888807063 0.78264322701746658 0.2366622451794938 0.023527780229006399 -0.41116274651641255
decision_type=10 2 9 10 2 2 2 9 2 2 2 2 2 2
left_child=1 5 13 -4 9 -1 7 -6 -8 -5 11 12 -11 -2
right_child=2 -3 3 4 6 -7 8 -9 -10 10 -12 -13 -14 -15
leaf_value=-0.00089766597932955936 0.00049888658818218864 -0.000296448633017693 0.0010291367063448294 -0.00090674189624150058 0.00052591100235983347 -0.00044370654664126202 0.0009919766031506556 -0.00024246935977467469 0.00023126839411462534 0.00086282773821893123 -0.00070588708650668928 0.0013709049109883352 -0.00050220304885947138 0.0010374144451740712
leaf_weight=2443 466 1016 400 106 615 732 532 335 260 92 102 82 132 1091
leaf_count=2443 466 1016 400 106 615 732 532 335 260 92 102 82 132 1091
internal_value=-2.85373e-05 -0.000673778 0.000613372 0.000454968 0.000353127 -0.000793867 0.000481075 0.000258073 0.000745267 -8.09577e-05 0.000141964 0.000431386 6.50326e-05 0.000872762
internal_weight=8404 4191 4213 2656 2256 3175 1742 950 792 514 408 306 224 1557
internal_count=8404 4191 4213 2656 2256 3175 1742 950 792 514 408 306 224 1557
cat_boundaries=0 1 2
cat_threshold=28 131
is_linear=0
shrinkage=0.02


Tree=57
num_leaves=15
num_cat=0
split_feature=10 0 3 11 3 0 7 1 5 6 1 5 5 3
split_gain=8.55515 0.484086 0.287633 0.27077 0.274262 0.392457 0.378511 0.222311 0.251133 0.280538 0.372953 0.34299 0.207425 0.164122
threshold=24.500000000000004 -0.41300963742791608 0.56670882651888632 0.49594737664077715 0.44469967695023505 -0.038708902898324876 0.073634808293370643 0.67751902074289727 -0.89483732215173184 0.13024956352894415 -0.11046171918771173 0.27446844676090848 -0.49156771517867065 -0.36549033769534783
decision_type=8 2 2 2 2 2 2 2 2 2 2 2 2 2
left_child=3 -2 -3 4 7 12 -7 8 -1 11 -11 -10 -6 -13
right_child=1 2 -4 -5 5 6 -8 -9 9 10 -12 13 -14 -15
leaf_value=0.0017442686429981571 -0.00026685390585856671 -0.00086261616022139959 -0.0003969242198158689 0.0007698158083826981 0.00018838889592964398 0.0015838060559084019 -0.00016516188552620216 0.00016492873362833102 0.001710561023055747 -0.00086185752753711615 0.00090571999876441333 -0.00027681474732782913 -0.0010264830766633774 0.00096833706719714194
leaf_weight=99 1123 2315 705 2857 90 88 104 292 142 91 90 80 139 81
leaf_count=99 1123 2315 705 2857 90 88 104 292 142 91 90 80 139 81
internal_value=1.96824e-05 -0.000622974 -0.000754739 0.00066077 0.000418346 -1.46784e-06 0.000656301 0.000619197 0.000843383 0.00064316 1.77692e-05 0.00101039 -0.000555199 0.000359926
internal_weight=8296 4143 3020 4153 1296 421 192 875 583 484 181 303 229 161
internal_count=8296 4143 3020 4153 1296 421 192 875 583 484 181 303 229 161
is_linear=0
shrinkage=0.02


Tree=58
num_leaves=15
num_cat=2
split_feature=10 11 6 12 7 9 12 10 11 11 11 11 11 0
split_gain=8.03154 0.468967 0.356082 0.293055 0.354892 0.253185 0.226885 0.221297 0.225163 0.19285 0.205956 0.269255 0.206487 0.226366
threshold=20.500000000000004 0.49594737664077715 -0.0050927350471388624 0 -0.20174891802797851 -0.86956711138341725 1 22.500000000000004 0.57172826293137835 0.48335687424376989 0.51043938114189369 0.50042659879478357 0.52001130604994661 -0.70189520247001125
decision_type=10 2 2 9 2 2 9 10 2 2 2 2 2 2
left_child=2 3 5 4 -2 -1 -3 8 -8 -7 11 -11 -12 -14
right_child=1 6 -4 -5 -6 9 7 -9 -10 10 12 -13 13 -15
leaf_value=-0.0010207408143292664 0.00056798690041019164 -7.3462229453306015e-05 -0.0008321145579041117 0.00048405775850151337 -0.00067218638786711448 -0.00067836061283443297 0.0010469127800628705 0.00060124105598789853 0.00018182019796222451 -0.00037174968255761388 -0.00095855618726388924 0.00048827983058870577 0.00038248544906726087 -0.00049745178225421116
leaf_weight=275 149 132 1905 927 226 579 1315 1287 135 295 224 278 161 395
leaf_count=275 149 132 1905 927 226 579 1315 1287 135 295 224 278 161 395
internal_value=-4.59538e-06 0.000613401 -0.000631442 0.000296999 -0.000173859 -0.00045674 0.000756223 0.000793671 0.000967271 -0.000374033 -0.000241781 4.61216e-05 -0.000452226 -0.000241512
internal_weight=8283 4171 4112 1302 375 2207 2869 2737 1450 1932 1353 573 780 556
internal_count=8283 4171 4112 1302 375 2207 2869 2737 1450 1932 1353 573 780 556
cat_boundaries=0 1 2
cat_threshold=772 64
is_linear=0
shrinkage=0.02


Tree=59
num_leaves=15
num_cat=2
split_feature=10 12 7 9 11 3 5 3 9 6 6 12 3 11
split_gain=8.12416 0.415274 0.693631 0.388132 0.368189 0.27985 0.233979 0.218321 0.281922 0.288165 0.205044 0.20303 0.195875 0.203629
threshold=24.500000000000004 0 -0.24571191749601526 0.47558626181683644 0.46972703222844286 0.56670882651888632 0.2288078910693532 1.4648976655647015 0.95272824266992917 -1.0178914001184036 -0.37815300208815383 1 -0.055511368477320529 0.52074599400503774
decision_type=8 9 2 2 2 2 2 2 2 2 2 9 2 2
left_child=1 2 -1 5 6 11 -4 8 -3 -10 -6 -2 -12 -14
right_child=3 7 4 -5 10 -7 -8 -9 9 -11 12 -13 13 -15
leaf_value=0.0010733847676212308 -0.00105895648591315 0.00088167549020574704 -5.4329528337281735e-05 -0.00031696701721931975 0.00068705186423351054 -0.00039693042820985335 -0.001546062578830649 -0.00016637013480067252 -0.00062307578910674366 0.00057554248188577972 -0.00055508279509242932 -0.00065737302393579112 -0.00013656249565769074 0.00071227025769185276
leaf_weight=350 1171 2133 84 1083 253 685 80 100 93 452 169 1270 257 195
leaf_count=350 1171 2133 84 1083 253 685 80 100 93 452 169 1270 257 195
internal_value=-2.59813e-05 0.000599776 0.000308019 -0.000645322 4.89923e-05 -0.000758393 -0.000806217 0.000740965 0.000777855 0.000367203 0.00021314 -0.000858809 1.61186e-05 0.000233424
internal_weight=8375 4166 1388 4209 1038 3126 164 2778 2678 545 874 2441 621 452
internal_count=8375 4166 1388 4209 1038 3126 164 2778 2678 545 874 2441 621 452
cat_boundaries=0 1 2
cat_threshold=960 218
is_linear=0
shrinkage=0.02


Tree=60
num_leaves=15
num_cat=2
split_feature=11 0 0 9 12 7 11 11 9 11 6 12 6 11
split_gain=1.06964 0.731155 0.311278 0.216604 0.205032 0.20469 0.188472 0.219866 0.209362 0.185966 0.181532 0.142988 0.262235 0.155559
threshold=0.48305576652563359 0.19904125067363265 1.5389187279085321 -0.13395516693984957 0 1.8456020002086417 0.53641931818488442 0.51371359044107956 -0.98051149200079901 0.43930740330672396 0.61848466714349748 1 -0.047244616368925275 0.49834366647726597
decision_type=2 2 2 2 9 2 2 2 2 2 2 9 2 2
left_child=9 3 4 6 -3 11 7 8 -2 -1 -10 12 -5 -14
right_child=1 2 -4 5 -6 -7 -8 -9 10 -11 -12 -13 13 -15
leaf_value=-0.00093325564041216343 -0.0006858222137088888 -0.00062029447517748587 -0.00071190621065734725 -5.291168437514559e-06 1.8381092164815753e-05 0.0013015429334094128 0.00047773152819046609 -0.00046364689436793498 0.00069399913267877242 -0.00032207032806595899 -0.00029368128711006273 0.00053713215609101431 -9.5340992217722147e-05 0.0006979088987299544
leaf_weight=220 81 209 319 811 1961 94 320 351 255 1892 101 1141 122 493
leaf_count=220 81 209 319 811 1961 94 320 351 255 1892 101 1141 122 493
internal_value=8.61025e-07 0.000132231 -0.000133634 0.000307749 -4.71839e-05 0.000405443 7.2357e-05 -9.42364e-05 0.000204364 -0.000387789 0.0004136 0.000370162 0.000229794 0.000541049
internal_weight=8370 6258 2489 3769 2170 2661 1108 788 437 2112 356 2567 1426 615
internal_count=8370 6258 2489 3769 2170 2661 1108 788 437 2112 356 2567 1426 615
cat_boundaries=0 1 2
cat_threshold=128 583
is_linear=0
shrinkage=0.02


Tree=61
num_leaves=15
num_cat=0
split_feature=10 11 5 6 1 10 11 9 9 11 9 1 11 11
split_gain=8.46731 0.329792 0.361198 0.313719 0.234875 0.187285 0.176926 0.439879 0.243083 0.262156 0.331425 0.193711 0.193394 0.18033
threshold=24.500000000000004 0.48224619628278936 0.16742525918986598 0.02059353559554095 -0.56813101146219935 22.500000000000004 0.53561531544520602 -0.93398635887294212 0.59872115701943762 0.54011790490022382 -0.3127105036192187 0.59213374169992694 0.56798035518599288 0.51500712264718274
decision_type=8 2 2 2 2 10 2 2 2 2 2 2 2 2
left_child=1 2 5 4 -2 -1 13 -8 9 10 -9 -10 -11 -3
right_child=3 6 -4 -5 -6 -7 7 8 11 12 -12 -13 -14 -15
leaf_value=0.0011181984603748482 -0.00073314973826086596 0.00069782913620152918 -0.00017464708745055808 -0.00081658163863639554 -0.00030840899811331447 0.00030610033648007884 0.0016911605483669245 -0.00091645781204311382 -0.00056109852793424417 0.0011417266184805487 0.00065750273964085585 0.00038737594024302989 0.00027268231327616375 0.0010814368342574659
leaf_weight=197 829 1411 373 1910 1425 272 112 85 154 321 127 183 155 802
leaf_count=197 829 1411 373 1910 1425 272 112 85 154 321 127 183 155 802
internal_value=1.08705e-05 0.000645012 0.000288842 -0.000627543 -0.000465902 0.000655413 0.000733969 0.000526812 0.000391993 0.000606264 1.98579e-05 -4.79181e-05 0.000864516 0.000838975
internal_weight=8356 4192 842 4164 2254 469 3350 1137 1025 688 212 337 476 2213
internal_count=8356 4192 842 4164 2254 469 3350 1137 1025 688 212 337 476 2213
is_linear=0
shrinkage=0.02


Tree=62
num_leaves=15
num_cat=3
split_feature=10 12 0 3 3 10 12 6 12 2 1 1 3 0
split_gain=7.67755 0.47773 0.333909 0.369864 0.311205 0.252005 0.234294 0.222592 0.238092 0.352217 0.416779 0.295526 0.212128 0.20998
threshold=1.0000000180025095e-35 0 -0.7107072547540394 0.51279693141352711 0.21310193143960784 23.500000000000004 1 -0.2068183718972981 2 -0.57316407351228305 -0.40053030299085229 0.25202036921926235 -0.67568654184810051 -0.038708902898324876
decision_type=10 9 2 2 2 10 9 2 9 2 2 2 2 2
left_child=2 -2 6 12 7 13 -1 8 11 -10 -11 -3 -4 -6
right_child=1 4 3 -5 5 -7 -8 -9 9 10 -12 -13 -14 -15
leaf_value=-0.00085578308497764627 -2.3087397753607063e-05 -0.00051191199646265706 -0.00037665782104195293 -0.00031667554855048649 0.0003311077505584506 -0.0003699763054373088 -6.0290089867239925e-05 0.0010042905980429705 0.0019755722113057143 -0.00049922047168101096 0.00090369507620865694 0.0007637952902244732 -0.00089838205378512314 0.00080258081572494593
leaf_weight=181 456 151 376 761 889 130 634 1243 85 105 381 131 2166 669
leaf_count=181 456 151 376 761 889 130 634 1243 85 105 381 131 2166 669
internal_value=-2.16601e-06 0.000594868 -0.000616864 -0.000706308 0.000667568 0.000464857 -0.00025227 0.000832502 0.000577776 0.000804972 0.000598599 8.08683e-05 -0.000822102 0.000535477
internal_weight=8358 4240 4118 3303 3784 1688 815 2096 853 571 486 282 2542 1558
internal_count=8358 4240 4118 3303 3784 1688 815 2096 853 571 486 282 2542 1558
cat_boundaries=0 1 2 3
cat_threshold=320 136 518
is_linear=0
shrinkage=0.02


Tree=63
num_leaves=15
num_cat=1
split_feature=1 1 12 4 9 0 9 4 9 9 3 3 3 9
split_gain=0.810056 0.298381 0.263966 0.380066 0.280854 0.229618 0.270224 0.231982 0.192923 0.212678 0.19014 0.176975 0.160079 0.150344
