tree
version=v4
num_class=1
num_tree_per_iteration=1
label_index=0
max_feature_idx=12
objective=regression
feature_names=dash_z speed_score_z explosion_z agility_z weight_z height_z bmi_z bench_z vert_leap_z broad_z age col_enc pos_g
feature_infos=[-2.8798332299972169:4] [-3.6105280545548784:4] [-3.9409788034698221:4] [-4:4] [-4:4] [-4:3.7576165323964572] [-4:4] [-4:4] [-3.9140358242914588:4] [-4:4] [20:28] [0.28667675831160333:0.59238760394802759] -1:0:4:9:3:7:2:1:8:6
tree_sizes=1493 1514 1529 1523 1523 1515 1523 1537 1529 1533 1528 1531 1531 1541 1529 1528 1532 1532 1530 1529 1536 1537 1536 1528 1518 1531 1521 1529 1526 1542 1538 1527 1539 1535 1526 1532 1538 1501 1538 1537 1541 1528 1534 1545 1541 1529 1534 1530 1532 1531 1553 1535 1535 1530 1526 1533 1551 1520 1530 1529 1547 1522 1523 1546 1528 1533 1530 1530 1546 1542 1529 1538 1542 1535 1532 1520 1528 1531 1502 1523 1545 1527 1533 1531 1539 1533 1545 1520 1517 1529 1537 1547 1529 1531 1525 1551 1539 1536 1538 1550 1537 1531 1554 1544 1544 1532 1552 1531 1546 1542 1534 1541 1541 1547 1539 1534 1530 1526 1540 1537 1552 1539 1513 1531 1534 1536 1527 1523 1556 1551 1530 1531 1553 1527 1547 1536 1554 1550 1516 1521 1526 1532 1510 1524 1521 1534 1552 1530 1550 1520 1533 1523 1541 1506 1524 1525 1535 1526 1543 1549 1558 1507 1551 1531 1517 1541 1521 1554 1537 1528 1527 1532 1535 1540 1531 1545 1545 1548 1550 1552 1540 1518 1552 1525 1540 1534 1542 1538 1523 1554 1545 1542 1540 1550 1534 1538 1533 1502 1537 1552 1528 1518 1537 1535 1525 1519 1518 1525 1563 1530 1544 1532 1558 1543 1535 1540 1533 1530 1544 1542 1557 1522 1520 1541 1548 1537 1535 1546 1533 1522 1529 1513 1535 1537 1552 1531 1552 1547 1546 1523 1543 1541 1548 1524 1527 1531 1563 1549 1530 1558 1535 1552 1536 1511 1564 1535 1534 1525 1541 1525 1535 1534 1529 1562 1532 1535 1534 1551 1556 1553 1546 1537 1542 1547 1531 1535 1546 1536 1535 1541 1552 1538 1529 1542 1559 1535 1542 1543 1527 1548 1517 1543 1535 1547 1549 1553 1532 1530 1560 1536 1525 1522 1535 1530 1538 1545 1551 1550 1540 1530 1551 1549 1532 1547 1528 1544 1556 1553 1545 1536 1525 1543 1550 1537 1538 1547 1527 1514 1530 1538 1543 1553 1519 1530 1552 1531 1551 1561 1532 1534 1546 1555 1527 1529 1540 1545 1544 1553 1539 1526 1535 1509 1543 1527 1532 1526 1536 1534 1562 1522 1562 1550 1542 1546 1525 1522 1538 1554 1544 1548 1544 1539 1554 1526 1528 1549 1552 1555 1536 1530 1561 1537 1549 1515 1544 1535 1529 1544 1530 1540 1515 1524 1529 1551 1526 1548 1547 1541 1519 1552 1533 1526 1528 1533 1561 1544 1535 1549 1513 1533 1541 1556 1554 1542 1550 1544 1525 1515 1539 1542 1538 1534 1544 1530 1537 1538 1529 1541 1532 1554 1543 1542 1522 1543 1546 1526 1543 1540 1541 1529 1544 1542 1550 1534 1523 1547 1558 1540 1558 1533 1526 1546 1542 1522 1527 1537 1519 1529 1533 1564 1531 1537 1559 1526 1537 1528 1531 1530 1536 1537 1543 1539 1539 1523 1537 1512 1536 1535 1541 1541 1526 1538 1540 1531 1528 1550 1544 1537 1565 1552 1544 1536 1560 1545 1546 1534 1539 1534 1521 1534 1530 1539 1553 1536 1510 1527 1555 1559 1549 1557 1551 1530 1543 1544 1533 1530 1536 1541 1551 1540 1538 1545 1528 1549 1561 1521 1522 1534 1553 1548 1553 1560 1558 1550 1527 1537 1537 1530 1536 1530 1545 1543 1536 1531 1562 1548 1520 1554 1535 1543 1540 1520 1539 1533 1541 1524 1550 1537 1549 1533 1552 1541 1556 1545 1521 1550 1556 1552 1535 1539 1522 1537 1550 1528 1567 1550 1555 1557 1533 1549 1550 1556 1515 1543 1545 1531 1547 1545 1540 1529 1535 1541 1539 1544 1547 1555 1543 1547 1520 1527

Tree=0
num_leaves=15
num_cat=0
split_feature=11 10 3 11 5 9 10 11 3 11 11 10 3 10
split_gain=4.25682 1.25588 0.863565 0.491589 0.928793 0.442826 0.439753 0.537482 0.245686 0.443121 0.329583 0.263616 0.226532 0.384535
threshold=0.41354488432413405 22.500000000000004 0.52607044063830599 0.46947961060270677 0.28014350669720306 -0.35108166680720077 22.500000000000004 0.51710393590433512 -0.12553453770171805 0.48624954756042799 0.56375080298491398 22.500000000000004 -0.015490329547857789 23.500000000000004
decision_type=2 8 2 2 2 2 10 2 2 2 2 10 2 8
left_child=-1 3 5 4 -2 -3 -4 -8 10 11 -7 -10 -11 -14
right_child=1 2 6 -5 -6 8 7 -9 9 12 -12 -13 13 -15
leaf_value=0.0019571235194507739 0.0068968489497963333 0.0057893261333439089 0.0069317094172337192 0.0068355331434465727 0.0044722231284341401 0.0064662588582261394 0.0049312875141564972 0.0070255163909652141 0.0058930642981396596 0.0056999048498495722 0.0052910620410210902 0.0049021350705077318 0.0069453251775195325 0.00605320599359087
leaf_weight=86 150 1751 729 1858 102 1309 105 84 275 233 98 177 312 491
leaf_count=86 150 1751 729 1858 102 1309 105 84 275 233 98 177 312 491
internal_value=0.00625738 0.00630833 0.00615073 0.00672321 0.00589985 0.00603991 0.00670968 0.00585791 0.00619202 0.00601324 0.00638128 0.00549446 0.00624215 0.00640196
internal_weight=7760 7674 5564 2110 252 4646 918 189 2895 1488 1407 452 1036 803
internal_count=7760 7674 5564 2110 252 4646 918 189 2895 1488 1407 452 1036 803
is_linear=0
shrinkage=1


Tree=1
num_leaves=15
num_cat=3
split_feature=10 6 0 12 12 10 6 12 6 5 7 9 7 10
split_gain=1.20171 0.678144 0.831314 0.390199 0.384596 0.471745 0.300024 0.297284 0.329546 0.269681 0.401835 0.289403 0.266321 0.2353
threshold=22.500000000000004 2.0862162274065335 1.2742003689057437 0 1 25.500000000000004 0.15104164080627983 2 1.0619626758189316 -0.25246564690649814 0.59316895770389766 0.74841685822461113 0.10154772564115903 23.500000000000004
decision_type=8 2 2 9 9 8 2 9 2 2 2 2 2 8
left_child=3 4 -3 6 5 7 12 -2 -9 10 11 -5 -1 -6
right_child=1 2 -4 9 13 -7 -8 8 -10 -11 -12 -13 -14 -15
leaf_value=0.000257675392262706 -0.0015186048527218918 6.9366816174367384e-06 -0.0028152739679550426 0.00079877135832378242 0.00025514774120390593 -0.00012645977216050989 0.00043426532491515715 -0.00033795167431332161 -0.0016784551045446491 0.00032635827328018457 0.0015970984507379504 -0.00038971562388575301 -0.0010045863636743339 -0.00011188810397968967
leaf_weight=104 144 82 80 331 1045 1577 227 572 80 942 199 105 174 2083
leaf_count=104 144 82 80 331 1045 1577 227 572 80 942 199 105 174 2083
internal_value=-2.24766e-05 -0.000173535 -0.00142931 0.000387831 -0.000135289 -0.000326292 -9.80477e-05 -0.000723002 -0.000506247 0.000540445 0.000861448 0.00051138 -0.000536164 1.09077e-05
internal_weight=7745 5663 162 2082 5501 2373 505 796 652 1577 635 436 278 3128
internal_count=7745 5663 162 2082 5501 2373 505 796 652 1577 635 436 278 3128
cat_boundaries=0 1 2 3
cat_threshold=832 964 64
is_linear=0
shrinkage=0.02


Tree=2
num_leaves=15
num_cat=2
split_feature=11 10 12 7 12 10 7 7 5 4 11 11 11 5
split_gain=3.23951 1.30655 0.596834 0.689528 0.474677 0.674932 0.54239 0.488943 0.265867 0.243243 0.238659 0.226837 0.225725 0.316048
threshold=0.41354488432413405 22.500000000000004 0 -0.20132422223663018 1 25.500000000000004 0.68560679729519247 0.81325794192884315 0.069656866535775769 0.8441805707612654 0.49263336469007263 0.56668593698828806 0.48301261403585394 0.5867802096051733
decision_type=2 8 9 2 9 8 2 2 2 2 2 2 2 2
left_child=-1 2 3 -2 5 10 -6 -8 11 -5 -3 -4 -10 -14
right_child=1 4 8 9 6 -7 7 -9 12 -11 -12 -13 13 -15
leaf_value=-0.0038774670401916784 0.0009884129071631915 -0.0022963934475829935 0.0010132170739137287 -0.00088759919235991813 8.9253260403346422e-05 -0.00010289511033017369 -0.00094621140006575697 -0.00012917256246392544 -0.00047876523206897854 0.00029982325048780347 -0.00095177666947205103 -6.5484992944850378e-05 -2.3144075753975813e-05 0.00089632892481437553
leaf_weight=80 152 80 774 273 3532 407 416 970 101 89 179 86 251 364
leaf_count=80 152 80 774 273 3532 407 416 970 101 89 179 86 251 364
internal_value=5.55647e-06 4.85346e-05 0.000474473 -0.000119827 -0.000111169 -0.00060604 -4.22886e-05 -0.000376922 0.000664619 -0.000595556 -0.00140273 0.000905592 0.000380127 0.000523904
internal_weight=7754 7674 2090 514 5584 666 4918 1386 1576 362 259 860 716 615
internal_count=7754 7674 2090 514 5584 666 4918 1386 1576 362 259 860 716 615
cat_boundaries=0 1 2
cat_threshold=832 320
is_linear=0
shrinkage=0.02


Tree=3
num_leaves=15
num_cat=0
split_feature=11 10 7 11 5 10 5 7 11 10 8 7 0 0
split_gain=3.88897 1.22905 0.538605 0.420853 0.406371 0.354293 0.210269 0.178522 0.173464 0.521282 0.289792 0.296056 0.201778 0.245759
threshold=0.41354488432413405 22.500000000000004 1.0000000180025095e-35 0.47534966641554682 0.39319164957788383 23.500000000000004 -0.67883320104222378 -0.58350880360232427 0.48624954756042799 22.500000000000004 -0.44226691846738991 0.75812402860208372 -0.2453245046166537 -1.5292065564613064
decision_type=2 8 2 2 2 10 2 2 2 10 2 2 2 2
left_child=-1 3 5 4 6 -3 -2 -7 9 -4 -11 -12 13 -10
right_child=1 2 8 -5 -6 7 -8 -9 12 10 11 -13 -14 -15
leaf_value=-0.00406506957946926 -0.00047577693684519655 0.0001573478508392702 -0.00017223428462794107 0.00057659847697442111 -0.0012234338102008163 -0.0012411026725858713 0.0008190092870274619 -3.7492444483187459e-05 0.0005259644485389193 -0.0021253980044275522 -0.0013521546698377833 0.00011163532607800639 -3.5396570551393577e-05 -0.000597592941481632
leaf_weight=88 80 2533 581 1799 102 108 119 88 85 89 133 91 1212 622
leaf_count=88 80 2533 581 1799 102 108 119 88 85 89 133 91 1212 622
internal_value=1.20189e-07 4.95595e-05 -0.000106618 0.000460994 -0.000228076 9.34958e-05 0.000299589 -0.000715082 -0.000300578 -0.000530141 -0.00118135 -0.000768036 -0.000192532 -0.000459767
internal_weight=7730 7642 5542 2100 301 2729 199 196 2813 894 313 224 1919 707
internal_count=7730 7642 5542 2100 301 2729 199 196 2813 894 313 224 1919 707
is_linear=0
shrinkage=0.02


Tree=4
num_leaves=15
num_cat=3
split_feature=11 10 3 11 10 3 7 12 10 12 12 11 7 11
split_gain=3.32953 1.01218 0.825838 0.609089 0.547853 0.448791 0.563477 0.422024 0.422187 0.523745 0.400495 0.342534 0.337515 0.301734
threshold=0.41354488432413405 22.500000000000004 0.52607044063830599 0.47209120649260261 22.500000000000004 -0.12553453770171805 -0.20132422223663018 0 24.500000000000004 1 2 0.50840790863385299 0.31429187955355542 0.48275997953718164
decision_type=2 8 2 2 10 2 2 9 8 9 9 2 2 2
left_child=-1 3 5 -2 -4 7 -7 8 10 -10 -3 -6 -12 -8
right_child=1 2 4 -5 11 6 13 -9 9 -11 12 -13 -14 -15
leaf_value=-0.0038559242359108548 -0.00049991121546722514 0.00049267698357684773 0.00071880695464475507 0.00055573263332134467 -0.0013721230977882994 2.8760921797980478e-05 -0.001014343617929875 0.00043325720097995137 0.00045448918164656241 -0.0007307425273424535 -0.001257318271042294 0.00033911007950946536 0.00035024652331087149 -0.0004140743703431045
leaf_weight=83 244 500 714 1845 87 890 484 664 184 646 114 92 90 1110
leaf_count=83 244 500 714 1845 87 890 484 664 184 646 114 92 90 1110
internal_value=1.22299e-05 5.66081e-05 -8.41398e-05 0.000431532 0.000471582 -0.000190523 -0.000374434 1.76965e-05 -0.000164749 -0.000470153 0.000193768 -0.000507292 -0.000531267 -0.000598941
internal_weight=7747 7664 5575 2089 893 4682 2484 2198 1534 830 704 179 204 1594
internal_count=7747 7664 5575 2089 893 4682 2484 2198 1534 830 704 179 204 1594
cat_boundaries=0 1 2 3
cat_threshold=598 576 18
is_linear=0
shrinkage=0.02


Tree=5
num_leaves=15
num_cat=4
split_feature=10 3 6 12 7 10 3 7 12 10 12 12 10 0
split_gain=1.5085 0.961587 0.647146 0.515911 0.633353 0.462028 0.383221 0.563701 0.533044 0.457841 0.41161 0.353109 0.328819 0.299675
threshold=22.500000000000004 0.52607044063830599 2.0862162274065335 0 -0.460676768243584 22.500000000000004 -0.12553453770171805 -0.0067257130660671989 1 23.500000000000004 2 3 23.500000000000004 0.14045824496421785
decision_type=8 2 2 9 2 10 2 2 9 8 9 9 8 2
left_child=3 2 6 4 -1 -3 8 12 9 10 -2 -11 -8 -7
right_child=1 5 -4 -5 -6 13 7 -9 -10 11 -12 -13 -14 -15
leaf_value=0.0011235024102005319 0.00072177620447108604 0.00067894935560952716 -0.0016807117985768449 0.00064907489777977752 -0.0004895974346346548 -0.0013175127598155729 0.00049611372046966728 -0.00065123924525687467 0.0004355300215871947 -0.0006823762776489127 -0.00035278703190127028 0.00025892484762395421 -0.00027625681819389014 0.00026646528627958382
leaf_weight=125 288 709 121 1589 383 80 314 1445 659 783 258 195 709 106
leaf_count=125 288 709 121 1589 383 80 314 1445 659 783 258 195 709 106
internal_value=1.67699e-05 -0.000152842 -0.000265707 0.000474409 -8.39551e-05 0.000447065 -0.000227129 -0.000397608 -3.39248e-05 -0.00023897 0.000222119 -0.000498639 -3.79252e-05 -0.000431471
internal_weight=7764 5667 4772 2097 508 895 4651 2468 2183 1524 546 978 1023 186
internal_count=7764 5667 4772 2097 508 895 4651 2468 2183 1524 546 978 1023 186
cat_boundaries=0 1 2 3 4
cat_threshold=832 598 16 22
is_linear=0
shrinkage=0.02


Tree=6
num_leaves=15
num_cat=3
split_feature=10 4 10 12 10 12 7 5 12 7 7 7 0 1
split_gain=1.25119 0.769206 0.534321 0.385675 0.426982 0.372939 0.359907 0.337361 0.317364 0.2988 0.292055 0.249475 0.240052 0.23616
threshold=22.500000000000004 2.2530092833427289 23.500000000000004 0 22.500000000000004 1 -0.20132422223663018 -0.25246564690649814 2 0.10154772564115903 0.81325794192884315 0.55791358046077277 -0.48168583335795429 -0.05369788738372825
decision_type=8 2 10 9 10 9 2 2 9 2 2 2 2 2
left_child=5 2 3 4 -2 6 -1 11 -4 13 -9 12 -7 -6
right_child=1 -3 8 -5 9 7 -8 10 -10 -11 -12 -13 -14 -15
leaf_value=0.00071516064241189847 -9.9103525054649786e-05 -0.0018488105637461216 -0.001698412111091639 8.0291201604314359e-05 0.00059272026467346113 7.812948874440432e-05 -0.00041000838455415838 0.00051004339141704955 -0.00042970110884644986 -0.0010916438448037901 -0.00031434600041683173 0.0014700045638443035 0.0010206991074917817 -0.00065364361181710585
leaf_weight=160 1600 101 104 2906 93 187 361 726 327 354 221 212 254 156
leaf_count=160 1600 101 104 2906 93 187 361 726 327 354 221 212 254 156
internal_value=-5.21856e-06 -0.000160932 -0.000128521 -7.10952e-05 -0.000269662 0.000408321 -5.98163e-05 0.00055737 -0.000800617 -0.000722122 0.000317016 0.000909351 0.000626372 -0.00018563
internal_weight=7762 5641 5540 5109 2203 2121 521 1600 431 603 947 653 441 249
internal_count=7762 5641 5540 5109 2203 2121 521 1600 431 603 947 653 441 249
cat_boundaries=0 1 2 3
cat_threshold=964 832 832
is_linear=0
shrinkage=0.02


Tree=7
num_leaves=15
num_cat=2
split_feature=11 10 3 12 12 10 11 9 10 6 10 4 11 3
split_gain=3.47341 0.858976 0.812076 0.502407 0.485199 0.376666 0.416938 0.365186 0.345955 0.262814 0.252185 0.238382 0.242668 0.183904
threshold=0.41354488432413405 22.500000000000004 0.52607044063830599 0 1 22.500000000000004 0.50840790863385299 -0.3309562921423253 22.500000000000004 -0.65580594940651504 21.500000000000004 -0.70454699472937887 0.57296206513022985 -0.6655196167830093
decision_type=2 8 2 9 9 10 2 2 10 2 10 2 2 2
left_child=-1 3 4 10 8 -4 -7 13 -3 -5 -2 -11 -13 -6
right_child=1 2 5 9 7 6 -8 -9 -10 11 -12 12 -14 -15
leaf_value=-0.0039072605582575002 0.000518864634325194 -0.00036900832888817319 0.00067426054091601932 5.1649935379747765e-05 0.00021043716084060012 -0.0012194121317329384 0.0005916007459887023 8.9387632094088252e-06 -0.0016947456875579879 0.0014422606390810783 -0.00043948608884532053 0.00067737569508950161 -0.00044481792306417926 -0.00044517217551539315
leaf_weight=85 152 185 712 312 191 96 98 2725 137 150 362 1017 80 1449
leaf_count=85 152 185 712 312 191 96 98 2725 137 150 362 1017 80 1449
internal_value=-1.0662e-06 4.47639e-05 -8.4169e-05 0.000391993 -0.000190196 0.00046237 -0.000312692 -0.000132793 -0.000922153 0.000568229 -0.000150907 0.000701293 0.000593892 -0.00036841
internal_weight=7751 7666 5593 2073 4687 906 194 4365 322 1559 514 1247 1097 1640
internal_count=7751 7666 5593 2073 4687 906 194 4365 322 1559 514 1247 1097 1640
cat_boundaries=0 1 2
cat_threshold=832 64
is_linear=0
shrinkage=0.02


Tree=8
num_leaves=15
num_cat=0
split_feature=11 10 3 10 11 11 3 11 10 3 1 10 9 9
split_gain=3.6056 1.39108 0.569121 0.803274 0.563324 0.362655 0.342984 0.311903 0.415777 0.327725 0.234796 0.215472 0.245126 0.211422
threshold=0.41354488432413405 22.500000000000004 0.52607044063830599 22.500000000000004 0.47429084009200106 0.50840790863385299 -0.12553453770171805 0.48275997953718164 22.500000000000004 0.16006045989846709 0.63867159973941356 23.500000000000004 0.21944335735126516 0.60275002894786411
decision_type=2 8 2 10 2 2 2 2 10 2 2 8 2 2
left_child=-1 4 6 -4 10 -5 -3 8 -8 -10 -2 12 -9 -6
right_child=1 2 3 5 13 -7 7 11 9 -11 -12 -13 -14 -15
leaf_value=-0.0039605037247823485 8.3568653463399762e-05 -2.5894831389318473e-05 0.0006403725861209332 -0.0016826319560101352 0.00075609038562880987 8.5838587018310711e-05 -0.00036650017878737273 -0.00025317457520809009 -0.00058038132790003041 -0.0020447371027651519 -0.0010844994703462969 -0.00038763369711116775 0.00055149080794308252 0.00028040404168257259
leaf_weight=86 198 2141 712 92 1262 88 487 366 121 131 100 1133 251 542
leaf_count=86 198 2141 712 92 1262 88 487 366 121 131 100 1133 251 542
internal_value=-2.9845e-06 4.42234e-05 -0.0001225 0.000338813 0.000481462 -0.000839094 -0.000211645 -0.000371052 -0.000714423 -0.00136658 -0.000319828 -0.000224429 7.59709e-05 0.000614344
internal_weight=7710 7624 5522 892 2102 180 4630 2489 739 252 298 1750 617 1804
internal_count=7710 7624 5522 892 2102 180 4630 2489 739 252 298 1750 617 1804
is_linear=0
shrinkage=0.02


Tree=9
num_leaves=15
num_cat=0
split_feature=11 10 3 7 3 10 7 5 11 10 4 5 3 10
split_gain=2.87884 0.98655 0.550351 0.534434 0.633502 0.34533 0.34277 0.342306 0.331572 0.298648 0.249376 0.249044 0.236078 0.21337
threshold=0.41751414897945166 22.500000000000004 0.52607044063830599 -0.0067257130660671989 -0.12553453770171805 22.500000000000004 0.11268929258403297 -0.011789777480931039 0.46947961060270677 23.500000000000004 -0.67767271200453794 1.1104494447044546 -0.6655196167830093 23.500000000000004
decision_type=2 8 2 2 2 10 2 2 2 8 2 2 2 10
left_child=-1 7 3 9 -5 -4 -7 -2 -9 10 -3 -12 -11 -6
right_child=1 2 5 4 13 6 -8 8 -10 12 11 -13 -14 -15
leaf_value=-0.0033949286665301772 0.0006765377475258026 -0.00032862118755744898 0.00056537546388898431 2.2693081194647313e-05 -0.00055916652863685472 -0.0011198122368764702 0.00055065476304192221 -0.00075634424353826458 0.00029986177735265925 0.00042953924634135687 0.00040879797946868668 0.0015998434650656931 -0.00022020758001735374 -0.0014057607335948954
leaf_weight=93 1049 143 712 956 1346 106 84 131 948 268 445 80 1237 129
leaf_count=93 1049 143 712 956 1346 106 84 131 948 268 445 80 1237 129
internal_value=1.11789e-05 5.48682e-05 -8.65248e-05 -0.000175075 -0.000378488 0.000363929 -0.000386107 0.000420054 0.000168732 5.28357e-05 0.000403135 0.000603671 -0.000103466 -0.000637707
internal_weight=7727 7634 5506 4604 2431 902 190 2128 1079 2173 668 525 1505 1475
internal_count=7727 7634 5506 4604 2431 902 190 2128 1079 2173 668 525 1505 1475
is_linear=0
shrinkage=0.02


Tree=10
num_leaves=15
num_cat=0
split_feature=11 10 3 10 11 3 11 4 6 3 3 9 11 8
split_gain=3.35116 0.778463 0.40201 0.646836 0.372237 0.351536 0.261277 0.250627 0.256194 0.23269 0.19572 0.190613 0.248682 0.293119
threshold=0.41751414897945166 22.500000000000004 0.52607044063830599 22.500000000000004 0.48275997953718164 -0.12553453770171805 0.50840790863385299 0.65425445763510282 -0.58982427496715284 -0.052037502498892392 -0.33232978875306585 -0.3309562921423253 0.53692304460236595 -0.061323499748875424
decision_type=2 8 2 10 2 2 2 2 2 2 2 2 2 2
left_child=-1 4 5 -4 7 10 -5 8 -2 -7 11 12 13 -3
right_child=1 2 3 6 -6 9 -8 -9 -10 -11 -12 -13 -14 -15
leaf_value=-0.0036987740432187837 -0.00083562974132940005 -0.00022241955517482756 0.00058439359737264007 -0.0014616154893111362 0.00047035085221752655 -0.00071483259343638195 5.0746351687444579e-05 -0.0011937540370203993 0.00048510874777862509 -0.00023625634912164529 0.00085926489385131468 0.00010872914284960315 0.00032877384838574998 -0.0012784765650078092
leaf_weight=93 82 386 668 93 1742 509 85 80 176 1993 99 1364 186 141
leaf_count=93 82 386 668 93 1742 509 85 80 176 1993 99 1364 186 141
internal_value=-2.3967e-05 2.33784e-05 -0.000100823 0.000299208 0.00035268 -0.00017341 -0.000757766 -0.000251791 5.74331e-05 -0.000334848 1.25566e-05 -2.97683e-05 -0.000293632 -0.00051433
internal_weight=7697 7604 5524 846 2080 4678 178 338 258 2502 2176 2077 713 527
internal_count=7697 7604 5524 846 2080 4678 178 338 258 2502 2176 2077 713 527
is_linear=0
shrinkage=0.02


Tree=11
num_leaves=15
num_cat=3
split_feature=11 12 11 7 12 5 5 3 1 3 12 7 1 11
split_gain=3.16019 0.758056 0.654148 0.40803 0.334429 0.265335 0.253593 0.210337 0.42695 0.237293 0.20145 0.287445 0.260013 0.199274
threshold=0.41354488432413405 0 0.48275997953718164 0.68560679729519247 1 -0.39204196866330954 1.4762553641518614 0.21204918350733087 0.6131682547114683 0.52607044063830599 2 -0.40835209554519797 -0.33929490640979204 0.46004800631247228
decision_type=2 9 2 2 9 2 2 2 2 2 9 2 2 2
left_child=-1 -2 6 10 -5 -6 7 -3 9 13 -4 12 -12 -9
right_child=1 2 3 4 5 -7 -8 8 -10 -11 11 -13 -14 -15
leaf_value=-0.0037120851086948972 -0.00076396749157646893 3.4301266032333663e-05 6.9421264562608811e-05 -0.00031300853158275436 0.00077345180687888595 -6.1831896066684528e-05 -0.0011122544728592039 -5.398677946221381e-05 -0.0014164328115127448 0.00028530016909060105 0.00049747719313277038 0.00060145982497926268 -5.4599785098343403e-05 -0.00093295328940707939
leaf_weight=86 430 888 1050 931 255 365 120 208 135 249 613 1390 760 201
leaf_count=86 430 888 1050 931 255 365 120 208 135 249 613 1390 760 201
internal_value=-7.14705e-06 3.72194e-05 8.67456e-05 0.00019757 -7.57625e-05 0.000280661 -0.000242482 -0.000177278 -0.000412935 -0.000197921 0.000308707 0.000397663 0.000192795 -0.000491999
internal_weight=7681 7595 7165 5364 1551 620 1801 1681 793 658 3813 2763 1373 409
internal_count=7681 7595 7165 5364 1551 620 1801 1681 793 658 3813 2763 1373 409
cat_boundaries=0 1 2 3
cat_threshold=64 777 388
is_linear=0
shrinkage=0.02


Tree=12
num_leaves=15
num_cat=3
split_feature=10 3 6 12 10 0 7 12 10 10 12 3 3 2
split_gain=0.950129 0.733313 0.549745 0.438767 0.351211 0.304422 0.289466 0.28772 0.346685 0.291336 0.576814 0.454206 0.329255 0.270347
threshold=22.500000000000004 0.52607044063830599 1.9920136554949102 0 22.500000000000004 0.39613556950249679 -0.20132422223663018 1 22.500000000000004 23.500000000000004 2 -0.7299257179058094 -0.59527907175531192 0.53305722589104609
decision_type=8 2 2 9 10 2 2 9 10 8 9 2 2 2
left_child=3 2 7 13 -3 -6 -5 8 -2 10 -9 -11 -13 -1
right_child=1 4 -4 6 5 -7 -8 9 -10 11 -12 12 -14 -15
leaf_value=0.00074621941765469599 -0.00022140084319592765 0.00058653055213954289 -0.0014097488258897094 0.00051707430690494847 -0.0010387031331496393 0.00054416978348265684 -0.00034487889919443035 0.0006300693489040951 -0.0015836108721008428 0.00029061647166350952 -0.00021546314602313067 -0.00080121408615222974 -0.00025493019333550039 0.00014895126551030426
leaf_weight=952 175 697 152 227 110 80 470 475 128 470 932 578 1854 448
leaf_count=952 175 697 152 227 110 80 470 475 128 470 932 578 1854 448
internal_value=-1.20978e-05 -0.00014702 -0.000245354 0.000350976 0.000379538 -0.000375366 -6.15958e-05 -0.000205493 -0.000787649 -0.000161492 7.41433e-05 -0.000276223 -0.00038614 0.000552372
internal_weight=7748 5651 4764 2097 887 190 697 4612 303 4309 1407 2902 2432 1400
internal_count=7748 5651 4764 2097 887 190 697 4612 303 4309 1407 2902 2432 1400
cat_boundaries=0 1 2 3
cat_threshold=155 64 24
is_linear=0
shrinkage=0.02


Tree=13
num_leaves=15
num_cat=2
split_feature=11 10 10 3 12 12 7 3 4 9 7 11 1 11
split_gain=2.65746 0.913562 0.584952 0.813516 0.473079 0.364907 0.61678 0.318128 0.244104 0.239189 0.252548 0.235896 0.268475 0.179753
threshold=0.41354488432413405 23.500000000000004 22.500000000000004 0.50582778994716138 0 1 -0.23826378619374758 0.24382629700719557 0.021617808911380102 -0.47940910044903107 -1.3880950250157469 0.46318285767497636 -0.25230821596824354 0.49706191630811208
decision_type=2 10 8 2 9 9 2 2 2 2 2 2 2 2
left_child=-1 2 5 9 -3 11 -7 -6 -8 10 -4 -2 -13 -10
right_child=1 4 3 -5 7 6 8 -9 13 -11 -12 12 -14 -15
leaf_value=-0.003460334771406952 -0.00027803290507382903 -0.0019322376496090396 0.00052122492915398241 0.00051258827133106343 -7.4176253962150439e-05 0.00089531890203811183 6.4655198262438974e-05 -0.0014852929161861539 -0.0015265368461206724 -5.2132304241045302e-05 -0.00044777572129817015 0.0010815521348869837 0.00043342431048758656 -0.00041550434630764166
leaf_weight=84 121 108 113 864 251 215 275 81 83 2828 1314 374 828 190
leaf_count=84 121 108 113 864 251 215 275 81 83 2828 1314 374 828 190
internal_value=-2.43198e-05 1.56707e-05 6.99404e-05 -4.51529e-05 -0.000863797 0.000351809 -3.66293e-07 -0.000422837 -0.0003567 -0.000158874 -0.000369491 0.000550014 0.000638733 -0.000774671
internal_weight=7729 7645 7205 5119 440 2086 763 332 548 4255 1427 1323 1202 273
internal_count=7729 7645 7205 5119 440 2086 763 332 548 4255 1427 1323 1202 273
cat_boundaries=0 1 2
cat_threshold=832 31
is_linear=0
shrinkage=0.02


Tree=14
num_leaves=15
num_cat=3
split_feature=11 11 10 10 12 3 7 3 0 12 10 12 7 3
split_gain=3.15123 0.748407 0.685104 0.548216 0.562737 0.501776 0.474882 0.32252 0.317946 0.289643 0.453892 0.338742 0.311317 0.279539
threshold=0.41751414897945166 0.48193433151502113 22.500000000000004 21.500000000000004 0 0.50582778994716138 -0.20132422223663018 0.4182553201313684 -0.047479463991739142 1 22.500000000000004 2 -0.23826378619374758 0.52607044063830599
decision_type=2 2 8 10 9 2 2 2 2 9 10 9 2 2
left_child=-1 3 -3 13 7 9 -6 -5 -9 12 11 -11 -4 -2
right_child=1 2 5 4 6 -7 -8 8 -10 10 -12 -13 -14 -15
leaf_value=-0.0035002800140882572 -0.00016115695441091567 0.00050144294046823665 0.00025152920629946634 0.00010353492639396634 -0.00021901106222649104 0.00054824376070395742 -0.0019449274099702612 -0.0016781500038946524 5.7088301571853023e-06 -0.00088329506572335957 0.00033760566457302328 -5.8474673798769326e-05 -0.00062362452948835033 0.00058837887775815519
leaf_weight=96 928 1749 217 341 95 613 198 97 80 229 1103 1117 617 248
leaf_count=96 928 1749 217 341 95 613 198 97 80 229 1103 1117 617 248
internal_value=9.31438e-06 5.5723e-05 0.000173211 -0.000277653 -0.000675961 2.54062e-05 -0.00135299 -0.000253026 -0.000937835 -7.2903e-05 3.74796e-05 -0.000208525 -0.000391113 -1.26976e-06
internal_weight=7728 7632 5645 1987 811 3896 293 518 177 3283 2449 1346 834 1176
internal_count=7728 7632 5645 1987 811 3896 293 518 177 3283 2449 1346 834 1176
cat_boundaries=0 1 2 3
cat_threshold=31 832 16
is_linear=0
shrinkage=0.02


Tree=15
num_leaves=15
num_cat=3
split_feature=10 4 9 5 12 10 7 7 12 10 12 2 2 9
split_gain=0.896615 0.606899 0.561776 0.415071 0.405634 0.515844 0.350897 0.298786 0.244544 0.330733 0.226449 0.198004 0.187667 0.173399
threshold=22.500000000000004 1.7659385496215152 -0.58734725343240823 -0.94411976466907233 0 22.500000000000004 0.68560679729519247 0.84134354034337744 1 21.500000000000004 2 1.0125760074929253 0.37488616329834362 -0.23826268218440824
decision_type=8 2 2 2 9 10 2 2 9 10 9 2 2 2
left_child=3 4 -3 -1 5 -2 10 -8 9 -5 -6 12 -11 -10
right_child=1 2 -4 8 6 -7 7 -9 13 11 -12 -13 -14 -15
leaf_value=0.0009772617852896715 -0.00010796907057345951 -0.0019385906067180129 5.7337917175821284e-05 0.00060467634446405131 -0.0001598190901646435 -0.0012455324693846535 -0.00064835111801352422 -2.7529156551247945e-05 5.8572826213397395e-05 -0.00048121758236590288 0.00018743743526539427 -0.0012328038724566189 0.0006198227184222025 0.00056124824604410076
leaf_weight=343 403 135 94 169 1093 260 573 670 427 225 2329 91 80 770
leaf_count=343 403 135 94 169 1093 260 573 670 427 225 2329 91 80 770
internal_value=-5.4352e-06 -0.000138601 -0.00113558 0.000345605 -9.47258e-05 -0.000551796 -2.80033e-05 -0.000315168 0.000220227 -0.000122639 7.65316e-05 -0.000439761 -0.000187081 0.000379761
internal_weight=7662 5557 229 2105 5328 663 4665 1243 1762 565 3422 396 305 1197
internal_count=7662 5557 229 2105 5328 663 4665 1243 1762 565 3422 396 305 1197
cat_boundaries=0 1 2 3
cat_threshold=320 834 134
is_linear=0
shrinkage=0.02


Tree=16
num_leaves=15
num_cat=0
split_feature=11 11 10 10 3 3 7 11 7 2 2 3 7 11
split_gain=2.34489 0.771889 0.652312 0.608016 0.445205 0.389838 0.3118 0.287954 0.261345 0.21845 0.261515 0.204554 0.196101 0.181233
threshold=0.41751414897945166 0.48275997953718164 21.500000000000004 22.500000000000004 0.50582778994716138 -0.12553453770171805 -0.20132422223663018 0.45949809592670915 0.68560679729519247 -0.38163661224110773 0.80811351595389536 0.52607044063830599 0.78544196155256962 0.57930868854632067
decision_type=2 2 10 8 2 2 2 2 2 2 2 2 2 2
left_child=-1 2 11 13 8 7 -7 -4 -5 -8 -11 -2 -10 -3
right_child=1 3 5 4 -6 6 9 -9 12 10 -12 -13 -14 -15
leaf_value=-0.0030674736374247898 -0.00012852198803029526 0.00053388546758584906 -0.00080204931941969414 4.3588338775884756e-05 0.00051799530112499022 -0.00035604681609993616 -0.0022039145606411797 0.00042332942803091384 -0.00079975631344555466 -0.00051403162706839414 -0.0019290607211959743 0.0005191762745762092 -0.00015954753062770712 -0.00020065342448808053
leaf_weight=93 967 1612 141 2436 617 166 101 157 270 147 81 239 641 144
leaf_count=93 967 1612 141 2436 617 166 101 157 270 147 81 239 641 144
internal_value=6.79025e-06 4.57913e-05 -0.000292063 0.000164015 2.66041e-05 -0.000735653 -0.00107706 -0.000160131 -6.46186e-05 -0.00143008 -0.00104735 1.44974e-06 -0.000352621 0.000473251
internal_weight=7812 7719 1999 5720 3964 793 495 298 3347 329 228 1206 911 1756
internal_count=7812 7719 1999 5720 3964 793 495 298 3347 329 228 1206 911 1756
is_linear=0
shrinkage=0.02


Tree=17
num_leaves=15
num_cat=0
split_feature=11 10 3 10 11 0 11 7 3 10 11 10 6 6
split_gain=2.96987 0.734533 0.45317 0.468621 0.49947 0.320969 0.316728 0.299179 0.448044 0.299171 0.223209 0.476232 0.206709 0.217935
threshold=0.41354488432413405 22.500000000000004 0.52607044063830599 22.500000000000004 0.50840790863385299 0.0094243128955701673 0.48301261403585394 0.10154772564115903 -0.12553453770171805 23.500000000000004 0.48624954756042799 22.500000000000004 1.3387869192902506 0.53039002994971363
decision_type=2 8 2 10 2 2 2 2 2 8 2 10 2 2
left_child=-1 5 7 -4 -5 6 -2 -3 9 -9 11 -10 13 -12
right_child=1 2 3 4 -6 -7 -8 8 10 -11 12 -13 -14 -15
leaf_value=-0.0036406880416227187 -0.00051026323163161336 -1.3846375388765394e-05 0.00055203030996557525 -0.0015422044994775205 0.00047452672776690096 0.00067497511931920856 0.00030359165081996506 0.00046032499830438465 -0.00040596685133193833 -0.00027894991129971003 -0.00046437589400970508 -0.0017984813079805818 -0.0012476181996054947 0.00031348847047668387
leaf_weight=84 227 2452 722 95 93 774 1091 349 255 569 592 159 95 186
leaf_count=84 227 2452 722 95 93 774 1091 349 255 569 592 159 95 186
internal_value=-8.26717e-06 3.39206e-05 -8.61798e-05 0.000320884 -0.000558118 0.000352962 0.000162022 -0.000165981 -0.000334743 3.07454e-06 -0.000574783 -0.000955853 -0.000389656 -0.000277594
internal_weight=7743 7659 5567 910 188 2092 1318 4657 2205 918 1287 414 873 778
internal_count=7743 7659 5567 910 188 2092 1318 4657 2205 918 1287 414 873 778
is_linear=0
shrinkage=0.02


Tree=18
num_leaves=15
num_cat=3
split_feature=10 12 7 5 12 10 7 0 5 7 8 12 10 0
split_gain=0.677704 0.560971 0.454288 0.380711 0.371893 0.385853 0.368177 0.304755 0.267474 0.314545 0.333691 0.249862 0.286315 0.219626
threshold=22.500000000000004 0 0.68560679729519247 1.3387948579778259 1 22.500000000000004 -0.20132422223663018 -0.43140321920156871 -0.25246564690649814 0.59316895770389766 0.95360838287497196 2 24.500000000000004 -0.41093669962137358
decision_type=8 9 2 2 9 10 2 2 2 2 2 9 8 2
left_child=1 6 4 7 5 -2 -1 -4 9 10 13 -9 -13 -3
right_child=2 8 3 -5 -6 -7 -8 11 -10 -11 -12 12 -14 -15
leaf_value=0.00051897932792780918 -0.00013047634345127992 0.00012210364852238269 -0.00080755973727809048 -0.0014028967907521389 6.0015172503967396e-05 -0.0010856634882812153 -0.00062810002964242624 -0.00049449058356716734 0.00025188387142467894 0.001438599040857568 -0.00050883598510332608 0.00070739132730391436 -0.00023719797748162228 0.0011591001295905286
leaf_weight=155 557 132 378 144 3356 239 371 411 951 197 102 216 302 215
leaf_count=155 557 132 378 144 3356 239 371 411 951 197 102 216 302 215
internal_value=-2.40371e-05 0.000279866 -0.000139334 -0.000443315 -3.26963e-05 -0.000417053 -0.000283048 -0.000332648 0.000464443 0.000780156 0.000478601 -0.000136123 0.000156686 0.000771961
internal_weight=7726 2123 5603 1451 4152 796 526 1307 1597 646 449 929 518 347
internal_count=7726 2123 5603 1451 4152 796 526 1307 1597 646 449 929 518 347
cat_boundaries=0 1 2 3
cat_threshold=832 192 904
is_linear=0
shrinkage=0.02


Tree=19
num_leaves=15
num_cat=0
split_feature=11 11 10 10 5 10 5 5 1 0 7 7 1 6
split_gain=2.29587 0.642631 0.497696 0.407765 0.465635 0.259333 0.291027 0.23142 0.248597 0.225697 0.208984 0.182066 0.180481 0.213758
threshold=0.41354488432413405 0.48193433151502113 23.500000000000004 21.500000000000004 1.0409698429356766 23.500000000000004 -0.41234956802180234 -0.72829032056566845 0.20774603390164234 -1.1701873017638891 0.10154772564115903 -0.23826378619374758 -0.54704434806704272 0.42889777153678638
decision_type=2 2 8 10 2 10 2 2 2 2 2 2 2 2
left_child=-1 3 7 -2 5 6 -5 8 -3 -10 -4 -8 13 -9
right_child=1 2 10 4 -6 -7 11 12 9 -11 -12 -13 -14 -15
leaf_value=-0.0031157083779652702 -4.2822134558640195e-05 0.00099598626230148102 9.0076719770924892e-05 0.00024178905691087495 -0.0018346536738340752 -0.0013941001838802831 -1.0058676004409789e-05 0.00092111678914769406 0.00098431436249398082 -0.00021292923133513157 -0.00026758595354256515 -0.00096797041363389977 0.00014743372081093081 -0.00016637764300457111
leaf_weight=89 1161 357 1527 251 106 92 120 264 90 183 1135 230 2032 97
leaf_count=89 1161 357 1527 251 106 92 120 264 90 183 1135 230 2032 97
internal_value=-9.09752e-06 2.90812e-05 0.00013675 -0.000282767 -0.000628988 -0.000432751 -0.000275301 0.00031214 0.00065201 0.000192371 -6.26361e-05 -0.000644311 0.00022149 0.000630628
internal_weight=7734 7645 5685 1960 799 693 601 3023 630 273 2662 350 2393 361
internal_count=7734 7645 5685 1960 799 693 601 3023 630 273 2662 350 2393 361
is_linear=0
shrinkage=0.02


Tree=20
num_leaves=15
num_cat=0
split_feature=11 10 3 7 3 10 10 10 3 3 9 5 1 1
split_gain=2.22145 0.576288 0.552253 0.429204 0.463992 0.304727 0.219014 0.211246 0.34408 0.348736 0.198218 0.2436 0.179798 0.448831
threshold=0.41751414897945166 22.500000000000004 0.52607044063830599 0.044543626077323546 -0.12553453770171805 22.500000000000004 23.500000000000004 24.500000000000004 -0.6655196167830093 -0.6591164892034661 -0.80083734370922632 1.4218674834449485 -0.44206204986157194 -0.30731600270237314
decision_type=2 8 2 2 2 10 10 8 2 2 2 2 2 2
left_child=-1 10 3 -3 7 -4 -6 -5 -9 -10 -2 12 -12 -14
right_child=1 2 5 4 6 -7 -8 8 9 -11 11 -13 13 -15
leaf_value=-0.003035667320364155 0.00081455596493293966 2.198403085132426e-05 0.00055909679137118216 0.0002923604909101897 -0.00051380417489639378 -0.0003601520350727427 -0.0013914760154875693 0.00038371314695897574 -0.0015223577280020981 -0.00017200153541425695 0.00075066465590008344 -0.00056899518996529966 -0.00087775945918895843 0.0003187641261648832
leaf_weight=91 264 2348 710 447 1237 177 123 183 120 201 286 136 134 1292
leaf_count=91 264 2348 710 447 1237 177 123 183 120 201 286 136 134 1292
internal_value=-1.21777e-05 2.57077e-05 -8.13837e-05 -0.000168518 -0.000361699 0.000374671 -0.000597988 -2.24289e-05 -0.000301746 -0.000692414 0.000306452 0.000231864 0.000296955 0.000203654
internal_weight=7749 7658 5546 4659 2311 887 1360 951 504 321 2112 1848 1712 1426
internal_count=7749 7658 5546 4659 2311 887 1360 951 504 321 2112 1848 1712 1426
is_linear=0
shrinkage=0.02


Tree=21
num_leaves=15
num_cat=0
split_feature=11 11 10 10 5 9 0 10 5 2 4 9 11 11
split_gain=2.30876 0.552283 0.573088 0.374249 0.29136 0.265242 0.396601 0.264729 0.289053 0.254316 0.237553 0.199947 0.193365 0.282021
threshold=0.41354488432413405 0.47126345801959307 23.500000000000004 23.500000000000004 -0.89733223477318391 -0.2487092328143283 -0.74841446718072613 21.500000000000004 -0.37900824706682429 -0.24856830619437112 -0.78690889670617048 0.37656724400397562 0.49706191630811208 0.55184117258017829
decision_type=2 2 10 8 2 2 2 10 2 2 2 2 2 2
left_child=-1 2 7 4 -3 6 -6 -2 -9 -7 -11 -10 -12 -14
right_child=1 3 -4 -5 5 9 -8 8 11 10 12 -13 13 -15
leaf_value=-0.0031759314877646311 -1.0364888593655774e-05 0.00068647089597174851 -0.0018848777176621793 -5.0710596593418758e-05 -0.0012601459623524883 0.00086349916874002466 4.8481506946229595e-05 7.3098656682608028e-05 -0.00052048515130501561 -0.00048269514655480269 -0.00023124687091136972 -0.0015465771211311222 0.00058046492355166759 -0.00021116352986301417
leaf_weight=86 887 531 83 2967 99 284 845 175 203 169 220 125 853 225
leaf_count=86 887 531 83 2967 99 284 845 175 203 169 220 125 853 225
internal_value=-9.0098e-06 2.85648e-05 -0.000318859 0.00011139 0.000260324 0.000175243 -9.46743e-05 -0.000218927 -0.000582989 0.000320617 0.000212943 -0.000928877 0.00030502 0.000415024
internal_weight=7752 7666 1473 6193 3226 2695 944 1390 503 1751 1467 328 1298 1078
internal_count=7752 7666 1473 6193 3226 2695 944 1390 503 1751 1467 328 1298 1078
is_linear=0
shrinkage=0.02


Tree=22
num_leaves=15
num_cat=0
split_feature=11 11 10 3 10 3 7 1 1 3 3 10 7 9
split_gain=1.96662 0.622757 0.523393 0.579716 0.512882 0.287212 0.278984 0.269236 0.262441 0.239281 0.234386 0.19215 0.221404 0.187433
threshold=0.41354488432413405 0.48275997953718164 22.500000000000004 0.16006045989846709 22.500000000000004 0.52607044063830599 0.10154772564115903 0.0094256394507546189 -0.4010638579436096 0.52607044063830599 -0.12553453770171805 23.500000000000004 -0.40835209554519797 0.90614138454335913
decision_type=2 2 10 2 8 2 2 2 2 2 2 8 2 2
left_child=-1 2 9 8 13 6 11 -5 -4 -2 -8 12 -6 -3
right_child=1 4 3 7 5 -7 10 -9 -10 -11 -12 -13 -14 -15
leaf_value=-0.0029271730741278995 -0.00018590154472010665 0.00054213728747359792 -0.0011711506642725158 -0.00078448842527378522 0.00010909206079158832 0.00042097078618958208 5.0800425230624606e-05 -0.0023251559522680259 9.2575654143651424e-05 0.00048181444001277443 -0.00044566541801965165 -1.5788606209770301e-05 0.00093366949940833297 3.9392834854210115e-05
leaf_weight=85 1185 1387 87 90 332 613 643 105 228 257 923 1218 211 378
leaf_count=85 1185 1387 87 90 332 613 643 105 228 257 923 1218 211 378
internal_value=1.20651e-05 4.65824e-05 -0.000261347 -0.000808678 0.000152079 2.50008e-05 -4.84789e-05 -0.00165147 -0.000269299 -6.56444e-05 -0.000242304 0.000124081 0.000435103 0.000434883
internal_weight=7742 7657 1952 510 5705 3940 3327 195 315 1442 1566 1761 543 1765
internal_count=7742 7657 1952 510 5705 3940 3327 195 315 1442 1566 1761 543 1765
is_linear=0
shrinkage=0.02


Tree=23
num_leaves=15
num_cat=3
split_feature=11 10 7 12 9 12 10 7 5 0 12 7 9 2
split_gain=2.19008 0.608269 0.333227 0.299258 0.315572 0.298916 0.352103 0.257924 0.252899 0.247745 0.202826 0.202521 0.258672 0.182013
threshold=0.41751414897945166 22.500000000000004 0.68560679729519247 0 0.90614138454335913 1 22.500000000000004 0.78544196155256962 -0.27898783381232722 -0.8267441992918797 2 -0.0067257130660671989 -0.12691761980910288 1.0371212582961693
decision_type=2 8 2 9 2 9 10 2 2 2 9 2 2 2
left_child=-1 3 5 -2 8 6 -3 -4 -5 -6 -10 12 -12 -11
right_child=1 2 7 4 9 -7 -8 -9 10 13 11 -13 -14 -15
leaf_value=-0.0029413060787133872 -0.00044720771219467582 -5.780372113663052e-06 -0.00075670153310056774 0.00083703785801524805 0.00042389564601570201 7.1596331175388745e-05 -0.001296416306975871 -0.00016417670132851114 0.00082776056231680887 -0.0012106847873476056 -0.00015708550401541288 -0.00014921445202631495 0.0010384285679834267 -3.7348726420800711e-05
leaf_weight=95 173 201 405 626 184 3815 141 1052 216 92 123 408 167 117
leaf_count=95 173 201 405 626 184 3815 141 1052 216 92 123 408 167 117
internal_value=-4.93294e-07 3.75758e-05 -7.11934e-05 0.000327006 0.000397528 2.01217e-05 -0.000533523 -0.000330905 0.000528324 -0.000105218 0.000313482 0.000135873 0.000537298 -0.000570061
internal_weight=7815 7720 5614 2106 1933 4157 342 1457 1540 393 914 698 290 209
internal_count=7815 7720 5614 2106 1933 4157 342 1457 1540 393 914 698 290 209
cat_boundaries=0 1 2 3
cat_threshold=320 64 18
is_linear=0
shrinkage=0.02


Tree=24
num_leaves=15
num_cat=3
split_feature=11 10 5 11 3 12 10 1 12 10 8 1 10 12
split_gain=2.03826 0.651917 0.459239 0.592069 0.452341 0.353214 0.294344 0.27945 0.278427 0.258029 0.244843 0.185934 0.182907 0.5999
threshold=0.41751414897945166 22.500000000000004 0.28014350669720306 0.46674113548636681 0.50582778994716138 0 22.500000000000004 0.023907256033107931 1 22.500000000000004 -0.53699800385822904 0.58802883452250165 23.500000000000004 2
decision_type=2 8 2 2 2 9 10 2 9 10 2 2 8 9
left_child=-1 2 8 -4 5 9 -6 -8 -2 -3 -5 -12 13 -7
right_child=1 4 3 10 6 12 7 -9 -10 -11 11 -13 -14 -15
leaf_value=-0.0028056208961598069 0.001097028236352681 -0.00028087612450488248 -0.0014982551809552373 0.00078369717779306464 0.00051001608842628058 -0.00034285866030485417 0.00030869812804537236 -0.0011970392280791918 0.0003854478339026059 -0.0014155502545379493 -0.00043163448855840019 0.00030866577815142097 -0.0002099655714943513 0.0004712384994327319
leaf_weight=98 298 175 93 181 707 705 107 84 941 148 264 269 2836 714
leaf_count=98 298 175 93 181 707 705 107 84 941 148 264 269 2836 714
internal_value=-1.12161e-05 2.70302e-05 0.000331185 -4.01436e-05 -8.68099e-05 -0.000167352 0.000322446 -0.000367155 0.000572233 -0.000790346 0.000158877 -5.86157e-05 -0.000117058 6.78895e-05
internal_weight=7620 7522 2046 807 5476 4578 898 191 1239 323 714 533 4255 1419
internal_count=7620 7522 2046 807 5476 4578 898 191 1239 323 714 533 4255 1419
cat_boundaries=0 1 2 3
cat_threshold=64 24 897
is_linear=0
shrinkage=0.02


Tree=25
num_leaves=15
num_cat=3
split_feature=10 3 4 12 10 3 12 0 4 12 3 3 7 4
split_gain=0.706325 0.671453 0.494749 0.349022 0.26498 0.451746 0.3621 0.351699 0.270026 0.221269 0.619509 0.21933 0.187842 0.264555
threshold=22.500000000000004 0.52607044063830599 1.5003445189169597 0 23.500000000000004 -0.88117460430056793 1 0.23954980028886244 0.015812178214629203 2 0.09959515295503997 0.4698967706406913 0.65019232307603525 -0.036263734314621966
decision_type=8 2 2 9 8 2 9 2 2 9 2 2 2 2
left_child=3 2 4 -1 6 -6 7 8 -2 -7 -11 -4 -8 -14
right_child=1 -3 11 -5 5 9 12 -9 -10 10 -12 -13 13 -15
leaf_value=-0.0005054744392921413 -0.00090981573608786841 0.00039868727222404159 -0.00058921070464168219 0.00040086040282605393 0.00033947640117548873 -0.00055918206320797789 0.00061534459015048749 0.00048350001513883841 -1.3070813724844475e-05 0.00064103646735145462 -0.00039740477228658507 -0.0017471704678144306 0.00063939441633410754 -0.00078233752980701285
leaf_weight=175 287 885 216 1933 435 1148 493 196 249 286 1091 95 95 105
leaf_count=175 287 885 216 1933 435 1148 493 196 249 286 1091 95 95 105
internal_value=1.2644e-05 -0.000105183 -0.000200465 0.000324106 -0.000145205 -0.000252942 7.86862e-05 -0.00022999 -0.000497202 -0.000355471 -0.000178889 -0.000964977 0.000401587 -0.000107891
internal_weight=7689 5581 4696 2108 4385 2960 1425 732 536 2525 1377 311 693 200
internal_count=7689 5581 4696 2108 4385 2960 1425 732 536 2525 1377 311 693 200
cat_boundaries=0 1 2 3
cat_threshold=320 837 342
is_linear=0
shrinkage=0.02


Tree=26
num_leaves=15
num_cat=0
split_feature=11 10 7 5 11 5 10 7 11 10 7 7 0 4
split_gain=1.73908 0.517765 0.353803 0.277947 0.306441 0.210342 0.178631 0.179079 0.177516 0.520985 0.173278 0.170015 0.149724 0.135205
threshold=0.41751414897945166 22.500000000000004 -0.0067257130660671989 0.037062631625847373 0.48100739313315116 0.60016986246381909 23.500000000000004 -0.57523577177776264 0.48886263707614819 22.500000000000004 0.5250343888875223 1.060359422311518 -0.71973427024522152 -1.3451488911940381
decision_type=2 8 2 2 2 2 10 2 2 10 2 2 2 2
left_child=-1 3 6 13 5 -5 -3 -8 9 -4 -6 -11 -12 -2
right_child=1 2 8 4 10 -7 7 -9 -10 11 12 -13 -14 -15
leaf_value=-0.002670893282229372 -0.00023803699884892386 0.0001453924294065185 -8.6997181815757674e-05 2.3304596177061622e-05 0.00042211894877447703 -0.0013706771960335501 -0.0010024892980339977 0.00018450818931389798 -0.0001091838386339473 -0.0013445059645023467 -0.00082687269054115462 -0.00031670337953345522 0.00012515676675060864 0.00060552228926215464
leaf_weight=91 80 2498 589 84 599 84 108 90 1878 243 89 92 219 947
leaf_count=91 80 2498 589 84 599 84 108 90 1878 243 89 92 219 947
internal_value=4.14607e-06 3.79111e-05 -6.41946e-05 0.000304498 7.90303e-05 -0.000693157 9.92833e-05 -0.00047169 -0.000221385 -0.000447615 0.000225076 -0.00107105 -0.000158757 0.000538977
internal_weight=7691 7600 5498 2102 1075 168 2696 198 2802 924 907 335 308 1027
internal_count=7691 7600 5498 2102 1075 168 2696 198 2802 924 907 335 308 1027
is_linear=0
shrinkage=0.02


Tree=27
num_leaves=15
num_cat=4
split_feature=10 3 12 7 3 7 10 12 12 3 2 10 2 12
split_gain=0.705094 0.530143 0.447225 0.348022 0.540996 0.328751 0.313304 0.452305 0.293879 0.378369 0.287594 0.273022 0.266544 0.255986
threshold=22.500000000000004 0.52607044063830599 0 1.0000000180025095e-35 -0.12553453770171805 -0.20132422223663018 23.500000000000004 1 2 -0.12553453770171805 -0.31504867307067647 22.500000000000004 0.53305722589104609 3
decision_type=8 2 9 2 2 2 8 9 9 2 2 10 2 9
left_child=2 3 5 6 13 -1 7 -2 -8 -10 -9 -3 -4 -5
right_child=1 11 12 4 -6 -7 8 10 9 -11 -12 -13 -14 -15
leaf_value=0.00053782074049296279 0.00079491165348046801 0.00050049152815222415 0.00065675179379196566 -0.00029280141574139143 -0.00060097711066942592 -0.00055229236173477995 -0.00055256046750809962 0.00066391689109278243 0.00051024195093464985 -0.00026963840969676907 -0.00069985942915081975 -0.0003517296317908718 0.00010270793876327366 0.00035099564055847014
leaf_weight=157 365 718 1071 520 1516 346 523 86 393 659 190 186 516 444
leaf_count=157 365 718 1071 520 1516 346 523 86 393 659 190 186 516 444
internal_value=-1.13524e-06 -0.000118142 0.000311908 -0.000203544 -0.000366047 -0.000206038 -2.12656e-05 0.000349861 -0.000172937 2.25271e-05 -0.000261361 0.000324175 0.000474517 4.60087e-06
internal_weight=7690 5600 2090 4696 2480 503 2216 641 1575 1052 276 904 1587 964
internal_count=7690 5600 2090 4696 2480 503 2216 641 1575 1052 276 904 1587 964
cat_boundaries=0 1 2 3 4
cat_threshold=832 664 22 594
is_linear=0
shrinkage=0.02


Tree=28
num_leaves=15
num_cat=3
split_feature=10 4 3 10 3 12 7 12 10 12 4 4 7 5
split_gain=0.60358 0.430054 0.358637 0.384729 0.333034 0.261533 0.337142 0.241627 0.414588 0.329826 0.260914 0.246503 0.23786 0.21487
threshold=22.500000000000004 2.2530092833427289 0.52607044063830599 22.500000000000004 -0.98096453157041275 0 -0.565230121165467 1 23.500000000000004 2 0.095486254469315066 0.88360805912504314 0.12628393529937754 0.15144878678940163
decision_type=8 2 2 10 2 9 2 9 8 9 2 2 2 2
left_child=5 2 4 -4 -2 13 -7 11 9 10 -9 -6 -5 -1
right_child=1 -3 3 12 7 6 -8 8 -10 -11 -12 -13 -14 -15
leaf_value=0.0006444188058850062 0.00029311103682032872 -0.0013925029999698468 0.0004888197138315911 -0.0011390124068332735 -0.00036098264619091694 0.00084134506885927632 -0.00026519050975052602 -0.00074481961766610725 -0.00031437925875335408 0.0004235309703966899 0.00026610291164547682 -0.0011999509521713615 0.00023916053912896468 0.00014351988555245943
leaf_weight=801 543 100 690 104 786 132 557 222 2044 701 182 168 90 602
leaf_count=801 543 100 690 104 786 132 557 222 2044 701 182 168 90 602
internal_value=-1.65525e-05 -0.000124338 -0.000100169 0.000268051 -0.000170443 0.000273126 -4.79727e-05 -0.000232073 -0.000145458 0.000165708 -0.000284756 -0.000508905 -0.000509709 0.000427728
internal_weight=7722 5630 5530 884 4646 2092 689 4103 3149 1105 404 954 194 1403
internal_count=7722 5630 5530 884 4646 2092 689 4103 3149 1105 404 954 194 1403
cat_boundaries=0 1 2 3
cat_threshold=155 448 513
is_linear=0
shrinkage=0.02


Tree=29
num_leaves=15
num_cat=2
split_feature=11 10 12 10 3 9 11 12 9 11 11 11 10 3
split_gain=1.77568 0.525457 0.44431 0.47142 0.467222 0.432692 0.312146 0.294625 0.289153 0.283391 0.371847 0.280883 0.224483 0.253139
threshold=0.41751414897945166 23.500000000000004 0 20.500000000000004 0.60584608204084633 0.72575671293544142 0.47429084009200106 1 -0.11077926224789776 0.48034922480343184 0.54047656077293882 0.47209120649260261 22.500000000000004 -0.33304247576793572
decision_type=2 10 9 10 2 2 2 9 2 2 2 2 10 2
left_child=-1 2 12 4 7 8 -3 -4 -5 -7 -11 -10 13 -2
right_child=1 6 3 5 -6 9 -8 -9 11 10 -12 -13 -14 -15
leaf_value=-0.0027556813933876574 0.00041963553983095198 -0.0016369264422231638 -0.00070018119105792883 0.00035374976683093159 0.00052341648735057512 -0.00098098669990172825 -0.0003544283272358923 -3.9002965774102763e-05 -0.00018283589104147152 0.00053437573830789412 -0.00059283586331466259 0.0010676328995483215 -0.0004525993576755401 -0.0001182429574200623
leaf_weight=88 415 93 349 960 456 103 357 1062 81 334 174 550 619 2095
leaf_count=88 415 93 349 960 456 103 357 1062 81 334 174 550 619 2095
internal_value=-8.7576e-06 2.4629e-05 6.62512e-05 0.000203647 -2.96886e-05 0.000402025 -0.000634554 -0.000209655 0.000575301 -5.01799e-05 0.000146269 0.000906938 -0.00011275 -2.86534e-05
internal_weight=7736 7648 7198 4069 1867 2202 450 1411 1591 611 508 631 3129 2510
internal_count=7736 7648 7198 4069 1867 2202 450 1411 1591 611 508 631 3129 2510
cat_boundaries=0 1 2
cat_threshold=964 16
is_linear=0
shrinkage=0.02


Tree=30
num_leaves=15
num_cat=0
split_feature=11 10 11 5 5 1 10 11 9 1 2 0 11 6
split_gain=1.79501 0.415328 0.273169 0.244833 0.243764 0.219417 0.205877 0.270835 0.216894 0.353722 0.231839 0.197631 0.188648 0.187576
threshold=0.41751414897945166 22.500000000000004 0.47534966641554682 -0.89733223477318391 0.28014350669720306 -0.44206204986157194 23.500000000000004 0.47429084009200106 -0.48913111169401069 0.10448211086948234 -0.35911599038654601 -0.22273358782621916 0.51554671493462145 0.81824305880134773
decision_type=2 8 2 2 2 2 10 2 2 2 2 2 2 2
left_child=-1 2 4 12 11 -5 8 -8 9 13 -10 -2 -4 -3
right_child=1 6 3 5 -6 -7 7 -9 10 -11 -12 -13 -14 -15
leaf_value=-0.0027190746403600013 -0.00046365502679278868 6.4350600471115057e-05 0.0014346497032709201 0.00078242573487461765 -0.00095794691127680607 0.00014346605022664625 -0.0014523610976692808 -0.0002188186044154387 0.00039618941930382948 -0.00076998195744651767 -1.316731387403448e-05 0.00081431086687611164 0.00043651098443965635 -0.00047355838060828849
leaf_weight=91 92 1110 131 256 121 1240 85 353 697 345 2613 92 186 333
leaf_count=91 92 1110 131 256 121 1240 85 353 697 345 2613 92 186 333
internal_value=-1.23957e-06 3.28273e-05 0.000270667 0.000363759 -0.000279638 0.000255049 -5.83292e-05 -0.000471895 -2.23697e-05 -0.000199557 7.35001e-05 0.000179966 0.000864863 -6.09888e-05
internal_weight=7745 7654 2118 1813 305 1496 5536 438 5098 1788 3310 184 317 1443
internal_count=7745 7654 2118 1813 305 1496 5536 438 5098 1788 3310 184 317 1443
is_linear=0
shrinkage=0.02


Tree=31
num_leaves=15
num_cat=3
split_feature=11 10 12 3 10 12 10 11 0 6 12 4 11 4
split_gain=1.7774 0.525906 0.360031 0.321889 0.467501 0.257071 0.227772 0.214177 0.207443 0.201863 0.248418 0.200824 0.179838 0.297979
threshold=0.41751414897945166 22.500000000000004 0 0.52607044063830599 22.500000000000004 1 22.500000000000004 0.48275997953718164 0.10100062355682674 -0.0045045275426300107 2 1.0926242761309037 0.53898973515515058 0.067514079795195373
decision_type=2 8 9 2 10 9 10 2 2 2 9 2 2 2
left_child=-1 2 -2 5 -5 6 -3 -4 -6 12 -11 -7 13 -9
right_child=1 3 7 4 8 11 -8 9 -10 10 -12 -13 -14 -15
leaf_value=-0.0026469551365483892 0.00069450202725989665 -0.00021136190698676328 -0.00039652937051072064 0.00052495249839396116 -0.0013246065380380435 -2.5996720681421681e-05 -0.0013004328803200385 0.00055038459039848217 -1.0427013330627233e-06 0.00076068004181612892 -0.00011168734201026954 -0.00043515167531017643 -0.00051590256222193507 -0.00071704655992798499
leaf_weight=94 675 182 246 715 80 3768 131 285 107 416 189 545 191 95
leaf_count=94 675 182 246 715 80 3768 131 285 107 416 189 545 191 95
internal_value=1.5658e-05 5.01954e-05 0.000319475 -5.21499e-05 0.000292456 -0.000119586 -0.000659706 0.000133841 -0.000587023 0.000247129 0.000500113 -7.79619e-05 -2.29341e-05 0.00022833
internal_weight=7719 7625 2097 5528 902 4626 313 1422 187 1176 605 4313 571 380
internal_count=7719 7625 2097 5528 902 4626 313 1422 187 1176 605 4313 571 380
cat_boundaries=0 1 2 3
cat_threshold=26 64 517
is_linear=0
shrinkage=0.02


Tree=32
num_leaves=15
num_cat=2
split_feature=11 11 12 11 4 6 12 4 3 0 0 6 9 1
split_gain=1.57356 0.524931 0.430775 0.338336 0.150392 0.160488 0.145655 0.18822 0.180365 0.149187 0.144428 0.138579 0.194562 0.157935
threshold=0.41751414897945166 0.47209120649260261 0 0.513903413762684 -0.43661993573269675 -0.61643872908090636 1 1.1443402187720648 0.26531751670581211 1.4001173906274405 0.49081072297974454 -1.0275689654001865 1.0243797715768084 -0.026916018033830966
decision_type=2 2 9 2 2 2 9 2 2 2 2 2 2 2
left_child=-1 4 3 -3 5 -2 7 -4 -9 10 11 12 13 -8
right_child=1 2 6 -5 -6 -7 9 8 -10 -11 -12 -13 -14 -15
leaf_value=-0.0025388350269349757 -0.00039217026291073735 3.6785857086735115e-05 8.8814555264596489e-05 -0.0012354648474404424 -0.00045688081750790334 0.00031162249509926275 -0.00033863184537243594 -0.00098130077515601473 0.00011783841331230683 -0.00023306157114334349 0.00046464234245075512 0.00023847578430395746 -0.00087870657217462315 0.00063103386298129995
leaf_weight=91 246 170 1540 159 926 263 138 134 103 261 993 2402 106 122
leaf_count=91 246 170 1540 159 926 263 138 134 103 261 993 2402 106 122
internal_value=5.6498e-06 3.79228e-05 0.000118584 -0.000570287 -0.000305747 -2.90271e-05 0.000158833 7.55816e-06 -0.000511051 0.000225393 0.000258073 0.000183264 -0.000177411 0.000119687
internal_weight=7654 7563 6128 329 1435 509 5799 1777 237 4022 3761 2768 366 260
internal_count=7654 7563 6128 329 1435 509 5799 1777 237 4022 3761 2768 366 260
cat_boundaries=0 1 2
cat_threshold=64 896
is_linear=0
shrinkage=0.02


Tree=33
num_leaves=15
num_cat=2
split_feature=11 12 10 10 11 1 7 7 9 11 12 1 6 11
split_gain=1.61109 0.415038 0.490802 0.42694 0.295494 0.283758 0.270604 0.279653 0.24886 0.193751 0.182333 0.175558 0.158746 0.154093
threshold=0.41751414897945166 0 20.500000000000004 22.500000000000004 0.48275997953718164 0.63867159973941356 0.68560679729519247 0.78544196155256962 -0.37830094232091699 0.57930868854632067 1 0.96175466146716804 0.054185481555672571 0.51554671493462145
decision_type=2 9 10 8 2 2 2 2 2 2 9 2 2 2
left_child=-1 2 -2 4 5 8 -5 -8 -3 10 13 -9 -4 -6
right_child=1 3 12 6 9 -7 7 11 -10 -11 -12 -13 -14 -15
leaf_value=-0.002604721240184613 6.4663577754150281e-05 0.0010377156534780035 -0.0018056210873656766 4.4608355590688856e-05 0.00031302335805062637 -0.0010284724597185225 -0.00072913976260999117 2.2221712207413348e-05 -0.00031620374301352867 -0.00031742039927875324 0.00025824602281895463 -0.00064415356685192538 -0.00064685942010382321 0.00093555152017711001
leaf_weight=90 219 80 108 3766 255 114 393 835 146 133 850 190 96 451
leaf_count=90 219 80 108 3766 255 114 393 835 146 133 850 190 96 451
internal_value=-1.62473e-05 1.59456e-05 -0.000581925 5.21201e-05 0.000297762 -0.000237476 -4.4117e-05 -0.000279087 0.000175147 0.000405889 0.000468533 -0.000103829 -0.00128884 0.000704574
internal_weight=7726 7636 423 7213 2029 340 5184 1418 226 1689 1556 1025 204 706
internal_count=7726 7636 423 7213 2029 340 5184 1418 226 1689 1556 1025 204 706
cat_boundaries=0 1 2
cat_threshold=64 534
is_linear=0
shrinkage=0.02


Tree=34
num_leaves=15
num_cat=2
split_feature=11 10 3 12 5 11 10 11 12 3 6 6 9 0
split_gain=1.5964 0.438608 0.447872 0.293234 0.326173 0.293216 0.249739 0.306644 0.243601 0.212849 0.210381 0.211278 0.20436 0.189827
threshold=0.41751414897945166 22.500000000000004 0.50582778994716138 0 -0.41234956802180234 0.47733439592358223 22.500000000000004 0.50840790863385299 1 -0.98096453157041275 0.10076715889032159 0.67296376655346235 -0.35108166680720077 -0.32274712654295534
decision_type=2 8 2 9 2 2 10 2 9 2 2 2 2 2
left_child=-1 3 9 4 8 -5 -4 -8 13 -3 -7 -12 -11 -2
right_child=1 2 6 5 -6 10 7 -9 -10 12 11 -13 -14 -15
leaf_value=-0.0025496923787120197 -0.00042907800494222756 0.00021266030542451078 0.00050651011270708005 -0.0010034005110634177 0.00020533791704864537 -0.00026757445534246005 -0.0010671100137280482 0.00048263148341364074 0.0011449865445259933 -0.0003813147393671111 0.0010539381225691245 -4.9091755605938192e-05 -9.0625275486432691e-05 0.00086292878540536
leaf_weight=93 92 553 706 110 942 291 97 98 324 1584 133 139 2484 81
leaf_count=93 92 553 706 110 942 291 97 98 324 1584 133 139 2484 81
internal_value=-1.32836e-05 1.92645e-05 -7.45099e-05 0.000264042 0.000423106 -8.17134e-05 0.000332224 -0.000295671 0.000838131 -0.000154088 0.000104176 0.000499546 -0.000204143 0.000173358
internal_weight=7727 7634 5522 2112 1439 673 901 195 497 4621 563 272 4068 173
internal_count=7727 7634 5522 2112 1439 673 901 195 497 4621 563 272 4068 173
cat_boundaries=0 1 2
cat_threshold=155 1
is_linear=0
shrinkage=0.02


Tree=35
num_leaves=15
num_cat=3
split_feature=11 11 10 12 7 3 12 10 3 12 11 2 5 6
split_gain=1.24911 0.443106 0.589713 0.640171 0.337748 0.376042 0.272581 0.317005 0.330748 0.324448 0.288943 0.263428 0.248175 0.233619
threshold=0.41354488432413405 0.48275997953718164 21.500000000000004 0 -0.078066399839418377 -0.055641452478643154 1 23.500000000000004 0.50582778994716138 2 0.51646647221427477 -1.2340712646391478 -1.1233313517927439 -0.24455519807194534
decision_type=2 2 10 9 2 2 9 8 2 9 2 2 2 2
left_child=-1 2 -2 -4 -5 -6 -3 9 -9 10 -8 -11 -13 -7
right_child=1 6 3 4 5 13 7 8 -10 11 -12 12 -14 -15
leaf_value=-0.0023259730657101958 3.0975800148380009e-05 -0.00049797871524973189 0.00024583184613182136 -0.00040714449147408394 -0.00054052367320379425 -0.0010051157707736517 0.00018613915418720116 -0.00015072093397838006 0.00042355022603645927 -0.00064153444842244222 0.0011418666821850206 0.00080347066775385224 0.00014600449224785712 -0.0024328410675708979
leaf_weight=88 1191 280 222 223 132 85 225 2025 495 146 291 255 2005 134
leaf_count=88 1191 280 222 223 132 85 225 2025 495 146 291 255 2005 134
internal_value=-2.19559e-05 5.83554e-06 -0.000251103 -0.000670716 -0.00101105 -0.00141201 9.52003e-05 0.000126831 -3.73023e-05 0.000268638 0.000717146 0.000167493 0.000221798 -0.00191351
internal_weight=7797 7709 1987 796 574 351 5722 5442 2520 2922 516 2406 2260 219
internal_count=7797 7709 1987 796 574 351 5722 5442 2520 2922 516 2406 2260 219
cat_boundaries=0 1 2 3
cat_threshold=24 64 16
is_linear=0
shrinkage=0.02


Tree=36
num_leaves=15
num_cat=0
split_feature=11 11 10 7 7 10 2 2 7 10 7 7 6 0
split_gain=1.41296 0.473 0.640341 0.29059 0.261221 0.216483 0.329054 0.339689 0.386463 0.202313 0.239644 0.484771 0.259473 0.200669
threshold=0.41751414897945166 0.48275997953718164 23.500000000000004 0.68560679729519247 0.84134354034337744 21.500000000000004 0.80811351595389536 0.29512459976675237 1.0000000180025095e-35 23.500000000000004 0.11268929258403297 1.0000000180025095e-35 -0.057840517776158319 0.0065287476323871293
decision_type=2 2 10 2 2 10 2 2 2 8 2 2 2 2
left_child=-1 2 5 9 -5 -2 7 8 13 10 11 -3 -12 -7
right_child=1 3 -4 4 -6 6 -8 -9 -10 -11 12 -13 -14 -15
leaf_value=-0.0024462867881904576 4.6423541867709646e-06 0.00036530878721847265 -0.0017634461779657395 -0.00040538676875112963 0.0001181072173645656 -0.00051889180179304358 -0.0011892191693985037 0.00067173879212308399 -0.0010534057578048238 6.1254018484217405e-05 0.00012929655113824145 -0.00063483743157057254 0.0010812920610901089 0.00077737406012047788
leaf_weight=89 1203 1334 100 692 838 83 170 133 211 2012 184 222 305 100
leaf_count=89 1203 1334 100 692 838 83 170 133 211 2012 184 222 305 100
internal_value=-9.27678e-06 2.09031e-05 -0.000242664 0.000115386 -0.000119212 -0.000158204 -0.000437304 -0.000185853 -0.000480135 0.000203896 0.000343745 0.000221038 0.000728011 0.000191286
internal_weight=7676 7587 2000 5587 1530 1900 697 527 394 4057 2045 1556 489 183
internal_count=7676 7587 2000 5587 1530 1900 697 527 394 4057 2045 1556 489 183
is_linear=0
shrinkage=0.02


Tree=37
num_leaves=15
num_cat=4
split_feature=11 4 12 12 7 12 0 6 4 11 0 0 4 12
split_gain=1.54351 0.359273 0.370148 0.295595 0.229931 0.38784 0.210573 0.193002 0.189932 0.188568 0.176457 0.320706 0.164218 0.136602
threshold=0.41354488432413405 1.1443402187720648 0 1 0.68560679729519247 2 0.9471854007582976 0.36096177550083625 -0.47966159177496714 0.45538288865517168 0.37572955554059634 -0.2453245046166537 1.2138860180588302 3
decision_type=2 2 9 9 2 9 2 2 2 2 2 2 2 9
left_child=-1 3 6 7 9 -6 -3 8 -2 -5 11 -7 -4 -11
right_child=1 2 12 4 5 10 -8 -9 -10 13 -12 -13 -14 -15
leaf_value=-0.0024617254421114921 -6.025240424572042e-05 -0.0018164919090365099 -0.00093586724082907224 -0.00017857413629963334 -0.00038108195756287293 2.0524190326831337e-05 -0.0004413258900118914 0.00021659852384829954 -0.0011516609077259678 -0.00012683820382736153 -0.00022485368482441146 0.00092527885037680909 -1.1031977782475392e-05 0.00027678594865240868
leaf_weight=95 103 91 82 474 829 382 91 119 165 364 256 261 656 3743
leaf_count=95 103 91 82 474 829 382 91 119 165 364 256 261 656 3743
internal_value=6.89903e-06 3.92869e-05 -0.00033023 9.02654e-05 0.000123387 -7.28522e-05 -0.00110026 -0.000436397 -0.000740988 0.000197678 0.000213764 0.000392079 -0.000117812 0.000241267
internal_weight=7711 7616 920 6696 6309 1728 182 387 268 4581 899 643 738 4107
internal_count=7711 7616 920 6696 6309 1728 182 387 268 4581 899 643 738 4107
cat_boundaries=0 1 2 3 4
cat_threshold=384 64 513 4
is_linear=0
shrinkage=0.02


Tree=38
num_leaves=15
num_cat=2
split_feature=11 10 12 10 11 2 10 11 12 1 4 4 0 2
split_gain=1.2375 0.48352 0.41288 0.50014 0.410763 0.446218 0.342648 0.454401 0.207721 0.182691 0.324921 0.174678 0.162556 0.1498
threshold=0.41354488432413405 21.500000000000004 0 22.500000000000004 0.49706191630811208 0.75650087950523182 23.500000000000004 0.46569815065254172 1 0.15264647325062716 -0.0078938106880099192 -0.94636800635389673 -0.99950373720399865 -1.2040238961586855
decision_type=2 8 9 10 2 2 8 2 9 2 2 2 2 2
left_child=-1 -2 3 -3 -5 -6 7 -4 9 10 -9 -10 -13 -14
right_child=1 2 6 4 5 -7 -8 8 11 -11 -12 12 13 -15
leaf_value=-0.0022865742153706068 0.00059238439017397044 -6.2408329229239048e-05 -0.00046315141247512559 -0.0013725748824879153 -0.00067556281481158539 0.00088927603120866579 -7.4671817398530755e-05 0.0017539903504686053 -0.00035930593170415234 0.00034588573619194241 0.00032288834092117125 -0.00019925712114882534 -0.00036340221391174566 0.00050078635271962112
leaf_weight=89 547 1811 289 233 312 90 2421 138 162 252 119 192 84 957
leaf_count=89 547 1811 289 233 312 90 2421 138 162 252 119 192 84 957
internal_value=-5.84773e-06 2.23206e-05 -2.22352e-05 -0.000231483 -0.000713039 -0.000318605 8.91309e-05 0.000270128 0.000382351 0.000724716 0.00111015 0.000248338 0.000331309 0.00042965
internal_weight=7696 7607 7060 2446 635 402 4614 2193 1904 509 257 1395 1233 1041
internal_count=7696 7607 7060 2446 635 402 4614 2193 1904 509 257 1395 1233 1041
cat_boundaries=0 1 2
cat_threshold=960 16
is_linear=0
shrinkage=0.02


Tree=39
num_leaves=15
num_cat=2
split_feature=11 10 12 9 12 10 2 4 11 11 10 6 2 4
split_gain=1.28197 0.414788 0.33188 0.235477 0.332327 0.265899 0.242846 0.270422 0.241576 0.41171 0.479091 0.301267 0.231676 0.212705
threshold=0.41751414897945166 23.500000000000004 0 -0.17864985782653095 1 20.500000000000004 -0.2580122200395934 0.8441805707612654 0.54097190466460132 0.50840790863385299 21.500000000000004 -0.33067220495610211 -0.18069802983715458 -0.93739106450560572
decision_type=2 10 9 2 9 10 2 2 2 2 10 2 2 2
left_child=-1 3 -3 13 5 -5 -7 -8 9 10 -6 -12 -10 -2
right_child=1 2 -4 4 8 6 7 -9 12 -11 11 -13 -14 -15
leaf_value=-0.0022198878062292212 0.00036413590872585956 -0.0014618577658052534 -0.00021579596016482774 9.9300959283883409e-05 0.00022955663764785345 0.0014197646089978799 0.0006161067212630269 -0.00053477909871713916 0.00046190326771743242 0.00047708293745715518 -0.00116060096499305 -0.00017214426914159161 -0.00059997397106989025 -0.00012895917793083334
leaf_weight=98 396 106 341 706 683 126 671 89 100 764 205 304 387 2748
leaf_count=98 396 106 341 706 683 126 671 89 100 764 205 304 387 2748
internal_value=-3.53845e-06 2.63792e-05 -0.000561301 6.33363e-05 0.00016436 0.000387561 0.000619762 0.000478718 1.67628e-05 0.000116213 -0.00011611 -0.000577663 -0.000379451 -6.63722e-05
internal_weight=7724 7626 447 7179 4035 1592 886 760 2443 1956 1192 509 487 3144
internal_count=7724 7626 447 7179 4035 1592 886 760 2443 1956 1192 509 487 3144
cat_boundaries=0 1 2
cat_threshold=832 152
is_linear=0
shrinkage=0.02


Tree=40
num_leaves=15
num_cat=0
split_feature=11 11 10 10 5 3 7 9 11 7 7 8 8 8
split_gain=1.0603 0.392739 0.531228 0.474176 0.347055 0.249241 0.224267 0.238253 0.283073 0.20212 0.186507 0.179689 0.171726 0.165789
threshold=0.41751414897945166 0.47429084009200106 21.500000000000004 22.500000000000004 -0.38361089315752467 0.50582778994716138 0.65019232307603525 -0.2548740260551034 0.55184117258017829 -0.078066399839418377 0.78544196155256962 -0.82907695797460101 0.19332013141999005 -0.69520164229752091
decision_type=2 2 10 8 2 2 2 2 2 2 2 2 2 2
left_child=-1 2 -2 11 -4 6 7 -5 -9 -6 13 -3 -11 -8
right_child=1 3 4 5 9 -7 10 8 -10 12 -12 -13 -14 -15
leaf_value=-0.0020580708463581242 4.8818938251537274e-05 0.00091035265336630118 -4.4330203437453343e-05 -0.00020429161517510405 -0.00047607237101931658 0.0003479548553177328 -7.7943919875889743e-05 0.00029182452352178662 -0.00051912247018084273 -0.0019189188604089103 -0.00014245775495860414 0.0003060579265990381 -0.00081160041998373344 -0.0010623029099959063
leaf_weight=93 1000 223 220 1038 170 670 104 1331 193 122 712 1550 123 200
leaf_count=93 1000 223 220 1038 170 670 104 1331 193 122 712 1550 123 200
internal_value=9.08596e-06 3.55232e-05 -0.000238909 0.000110182 -0.000688866 -4.591e-06 -7.10006e-05 2.88333e-05 0.000187764 -0.00102595 -0.000321655 0.00038441 -0.00139035 -0.000732259
internal_weight=7749 7656 1635 6021 635 4248 3578 2562 1524 415 1016 1773 245 304
internal_count=7749 7656 1635 6021 635 4248 3578 2562 1524 415 1016 1773 245 304
is_linear=0
shrinkage=0.02


Tree=41
num_leaves=15
num_cat=0
split_feature=11 11 5 0 7 7 7 11 4 7 7 0 1 9
split_gain=1.14886 0.385375 0.262197 0.283543 0.250051 0.249841 0.298509 0.221571 0.205548 0.182479 0.168499 0.16752 0.228394 0.166306
threshold=0.41354488432413405 0.47126345801959307 0.21365533044817367 0.88903844862504955 -0.23826378619374758 0.68560679729519247 0.89886380634594498 0.46219853228180741 1.4772547455018989 0.31429187955355542 0.72086922725708091 -0.31549019866898015 -0.11663764090766333 -0.99613868937002037
decision_type=2 2 2 2 2 2 2 2 2 2 2 2 2 2
left_child=-1 2 7 4 -4 8 -7 -2 9 -3 -6 -11 -13 -10
right_child=1 5 3 -5 10 6 -8 -9 13 11 -12 12 -14 -15
leaf_value=-0.0022060137495715569 0.00012833351514160153 0.00014791733919865719 -0.00024735241814050827 0.00015987370331183023 -0.0015806963708018885 -0.00039076620651021915 0.0001432510583109126 -0.00064352053332792519 -0.0010965097465018248 0.00096364887850778594 -0.00052003248838619111 0.00062081049481141402 -0.00045156530881315833 -4.0184199602062838e-05
leaf_weight=89 656 3672 180 150 175 825 841 187 80 217 100 225 117 201
leaf_count=89 656 3672 180 150 175 825 841 187 80 217 100 225 117 201
internal_value=-8.45992e-06 1.86155e-05 -0.000274491 -0.000590342 -0.000836715 8.74803e-05 -0.000121571 -4.56692e-05 0.000164719 0.000199603 -0.00121117 0.000534797 0.000252725 -0.00035483
internal_weight=7715 7626 1448 605 455 6178 1666 843 4512 4231 275 559 342 281
internal_count=7715 7626 1448 605 455 6178 1666 843 4512 4231 275 559 342 281
is_linear=0
shrinkage=0.02


Tree=42
num_leaves=15
num_cat=0
split_feature=11 11 5 3 1 1 8 7 7 7 4 7 11 1
split_gain=1.44098 0.332666 0.286865 0.196184 0.248552 0.173499 0.176671 0.162255 0.201357 0.157387 0.174247 0.217281 0.301421 0.176086
threshold=0.41751414897945166 0.48275997953718164 1.4218674834449485 0.50582778994716138 0.73231049711961815 0.5998124517645268 -0.23432962531177542 1.060359422311518 0.68560679729519247 1.0000000180025095e-35 0.061687722700734846 0.13782818852840142 0.51170206484317149 0.47487321072811478
decision_type=2 2 2 2 2 2 2 2 2 2 2 2 2 2
left_child=-1 2 5 9 -5 7 -7 8 -2 -3 -11 12 -12 -13
right_child=1 3 -4 4 -6 6 -8 -9 -10 10 11 13 -14 -15
leaf_value=-0.0023708437390551709 2.9842033619821465e-05 0.00018322713341155771 -0.0010574250864328219 0.00054508883167207907 -0.00051885535422365608 -0.0012001977001940742 -0.00024244189333899857 0.00069057997261881012 -0.00064161416162218838 0.00012160684275675375 0.00031863044431049598 -0.00030140864982133853 -0.001119365969099836 0.00021426293751300706
leaf_weight=96 1079 2352 137 667 97 98 321 114 209 1318 80 588 193 474
leaf_count=96 1079 2352 137 667 97 98 321 114 209 1318 80 588 193 474
internal_value=2.60996e-06 3.36117e-05 -0.000191334 0.000110058 0.000407512 -0.000123458 -0.000477963 -1.61888e-05 -8.1173e-05 6.4291e-05 -4.12974e-05 -0.000201981 -0.000699823 -7.13246e-05
internal_weight=7823 7727 1958 5769 764 1821 419 1402 1288 5005 2653 1335 273 1062
internal_count=7823 7727 1958 5769 764 1821 419 1402 1288 5005 2653 1335 273 1062
is_linear=0
shrinkage=0.02


Tree=43
num_leaves=15
num_cat=2
split_feature=11 12 10 10 6 6 7 7 12 3 3 3 3 7
split_gain=0.980438 0.472982 0.776049 0.52972 0.44104 0.388139 0.376978 0.263874 0.258662 0.220349 0.296789 0.29686 0.216807 0.270788
threshold=0.41354488432413405 0 22.500000000000004 23.500000000000004 1.1499659390586812 -0.64862217394758959 1.0000000180025095e-35 -0.40835209554519797 1 0.60584608204084633 -0.88117460430056793 -0.65282741819778578 -0.29091270972281097 1.0000000180025095e-35
decision_type=2 9 10 8 2 2 2 2 9 2 2 2 2 2
left_child=-1 2 6 5 12 8 -2 -7 -3 10 -5 -12 -4 -14
right_child=1 3 4 9 -6 7 -8 -9 -10 -11 11 -13 13 -15
leaf_value=-0.0020767984856861861 0.00033867272676184313 -0.00058972508636197392 -0.0014273909398476886 0.00051359097315367751 -0.0021329051341984753 0.00012812128827659132 -0.00020992821508799539 0.00063498348431610435 0.00027691320770393922 0.00028663235127014366 -0.00071048753484033401 -9.7248388389177456e-05 0.0003844047590558018 -0.00068321480376159777
leaf_weight=84 833 240 94 222 80 588 1241 1382 287 559 424 1204 128 336
leaf_count=84 833 240 94 222 80 588 1241 1382 287 559 424 1204 128 336
internal_value=1.02196e-05 3.45792e-05 -0.000176832 0.000151558 -0.00078454 0.000355694 1.06961e-05 0.000484404 -0.000125474 -5.97045e-05 -0.000164845 -0.000258648 -0.000574 -0.000387741
internal_weight=7702 7618 2712 4906 638 2497 2074 1970 527 2409 1850 1628 558 464
internal_count=7702 7618 2712 4906 638 2497 2074 1970 527 2409 1850 1628 558 464
cat_boundaries=0 1 2
cat_threshold=960 3
is_linear=0
shrinkage=0.02


Tree=44
num_leaves=15
num_cat=0
split_feature=11 11 10 10 3 7 3 11 7 4 0 4 10 7
split_gain=1.26997 0.369941 0.402866 0.318908 0.260331 0.297729 0.245775 0.195121 0.191891 0.177769 0.152316 0.149979 0.166298 0.249725
threshold=0.41354488432413405 0.48275997953718164 22.500000000000004 22.500000000000004 0.16006045989846709 1.0000000180025095e-35 0.50582778994716138 0.46057002825719612 0.65019232307603525 1.2789845914237929 -0.53159371504236186 0.8441805707612654 23.500000000000004 -0.74894431749734613
decision_type=2 2 10 8 2 2 2 2 2 2 2 2 8 2
left_child=-1 2 9 -3 7 -6 8 -4 11 -2 -10 12 13 -5
right_child=1 3 4 6 5 -7 -8 -9 10 -11 -12 -13 -14 -15
leaf_value=-0.0023039774162801527 1.5655798946766125e-05 0.00031669801612569688 -0.00080326009483542291 -0.0001929277127709287 -0.00032358019537795547 -0.0019159095188784334 0.00035348868947153992 0.00017711162205952675 -0.00075909151970428594 -0.00073586932811869313 -0.00016889501115197801 -0.00033999994767940252 -4.1805816588352693e-05 0.00060991967304265796
leaf_weight=91 1334 1750 167 231 82 113 631 151 231 134 693 387 1350 454
leaf_count=91 1334 1750 167 231 82 113 631 151 231 134 693 387 1350 454
internal_value=-1.78344e-05 1.06317e-05 -0.000224614 9.21292e-05 -0.00070417 -0.00127114 -6.96137e-06 -0.000342202 -7.53623e-05 -5.52089e-05 -0.000319736 1.83335e-05 8.71448e-05 0.000339742
internal_weight=7799 7708 1981 5727 513 195 3977 318 3346 1468 924 2422 2035 685
internal_count=7799 7708 1981 5727 513 195 3977 318 3346 1468 924 2422 2035 685
is_linear=0
shrinkage=0.02


Tree=45
num_leaves=15
num_cat=0
split_feature=10 4 3 10 3 9 2 9 0 9 9 8 10 6
split_gain=0.435138 0.382396 0.287373 0.340234 0.309816 0.277647 0.259194 0.252033 0.222723 0.208314 0.319761 0.270317 0.191082 0.249508
threshold=22.500000000000004 1.5785332765003095 0.52607044063830599 22.500000000000004 -0.98096453157041275 -0.41061407721981363 -0.77427626281443429 0.7739992982977576 0.1890737365109729 -0.17864985782653095 -0.80083734370922632 0.76433711921572456 23.500000000000004 1.1312482094811085
decision_type=8 2 2 10 2 2 2 2 2 2 2 2 8 2
left_child=7 2 4 -4 -2 6 -3 9 -5 10 -1 -11 13 -6
right_child=1 5 3 8 12 -7 -8 -9 -10 11 -12 -13 -14 -15
leaf_value=0.00069000438613498025 0.00033014539483036871 -0.00034255509074393876 0.00050475117637196912 -0.0011579067101802237 0.00011527711090199255 -7.8261358507198132e-05 -0.0018589646778335528 -0.00013868143729628451 0.00022724655508308818 0.00076060537074520865 -0.00015890916957594418 -0.00012197851901873946 -0.00026832884071274055 -0.00084512784550780384
leaf_weight=265 564 80 661 88 1188 147 107 506 90 688 514 172 2601 114
leaf_count=265 564 80 661 88 1188 147 107 506 90 688 514 172 2601 114
internal_value=8.32657e-06 -8.38984e-05 -4.22499e-05 0.000296288 -0.000106095 -0.000735153 -0.00123605 0.000250451 -0.000470475 0.000370643 0.000132433 0.000584404 -0.000169475 2.8275e-05
internal_weight=7785 5640 5306 839 4467 334 187 2145 178 1639 779 860 3903 1302
internal_count=7785 5640 5306 839 4467 334 187 2145 178 1639 779 860 3903 1302
is_linear=0
shrinkage=0.02


Tree=46
num_leaves=15
num_cat=0
split_feature=10 3 10 5 4 7 7 2 9 5 7 6 7 3
split_gain=0.486406 0.327196 0.337373 0.310126 0.28238 0.249308 0.228627 0.177279 0.153925 0.220675 0.172645 0.172092 0.146636 0.141116
threshold=22.500000000000004 0.52607044063830599 22.500000000000004 0.22630288581757427 1.5498307474430677 0.20575784628042951 -0.078066399839418377 0.39306376981575625 -0.12691761980910288 1.4346851873343989 0.68560679729519247 -0.52494746194226305 -1.3880950250157469 0.17170440166374182
decision_type=8 2 10 2 2 2 2 2 2 2 2 2 2 2
left_child=3 4 -3 13 8 -6 -4 -5 12 10 -10 -12 -2 -1
right_child=1 2 6 7 5 -7 -8 -9 9 -11 11 -13 -14 -15
leaf_value=0.00066692258221611345 0.00033065563907246499 0.00045331616591858236 -0.0012664494099752868 0.0002140633403159192 -8.2765481421929297e-05 -0.0012834423081446325 0.00012357235483994539 -0.00036967481537226635 0.00015017017648136881 -0.00070167869991479058 -0.00080321396558196995 -3.3175696360469776e-05 -0.00028995790557178604 0.0002356180770458951
leaf_weight=659 161 717 80 496 122 157 105 351 1635 165 158 405 1956 574
leaf_count=659 161 717 80 496 122 157 105 351 1635 165 158 405 1956 574
internal_value=4.96518e-06 -9.11473e-05 0.000257154 0.00026614 -0.000157363 -0.000769116 -0.000495028 -2.85898e-05 -0.000118451 -7.4038e-06 4.61885e-05 -0.000254447 -0.000242092 0.000467899
internal_weight=7741 5661 902 2080 4759 279 185 847 4480 2363 2198 563 2117 1233
internal_count=7741 5661 902 2080 4759 279 185 847 4480 2363 2198 563 2117 1233
is_linear=0
shrinkage=0.02


Tree=47
num_leaves=15
num_cat=3
split_feature=11 12 10 11 7 10 12 1 1 10 7 12 6 7
split_gain=0.871715 0.346468 0.548718 0.546258 0.318513 0.298252 0.245199 0.246581 0.239028 0.229068 0.275564 0.334581 0.251177 0.213265
threshold=0.41354488432413405 0 22.500000000000004 0.48275997953718164 -0.70351166676751398 20.500000000000004 1 0.10448211086948234 -0.11663764090766333 23.500000000000004 -0.40835209554519797 2 -0.87766788484971991 -0.099645099328963913
decision_type=2 9 10 2 2 10 9 2 2 8 2 9 2 2
left_child=-1 2 4 8 5 -2 7 -5 -4 10 -3 12 -12 -14
right_child=1 9 3 6 -6 -7 -8 -9 -10 -11 11 -13 13 -15
leaf_value=-0.0019477761346016729 0.00011198866481071912 -6.1770657455614215e-05 -0.00056887858027462347 -0.00048108117962588688 -0.00011499536387042478 0.0011271148618680479 -0.00060282238058725782 0.00078558686714497031 -0.0019964524197646164 -2.0290086900644965e-05 -0.0007078642649171145 0.00077185141334480212 0.00084754145483670578 0.00010126521142767566
leaf_weight=87 367 691 81 107 1968 165 356 132 127 2132 110 619 201 604
leaf_count=87 367 691 81 107 1968 165 356 132 127 2132 110 619 201 604
internal_value=-1.25527e-05 1.06832e-05 -0.000143452 -0.000596978 2.54829e-06 0.000434394 -0.000283171 0.000211592 -0.00146693 0.000127599 0.000269606 0.000418592 0.000166516 0.000291684
internal_weight=7747 7660 3303 803 2500 532 595 239 208 4357 2225 1534 915 805
internal_count=7747 7660 3303 803 2500 532 595 239 208 4357 2225 1534 915 805
cat_boundaries=0 1 2 3
cat_threshold=964 132 9
is_linear=0
shrinkage=0.02


Tree=48
num_leaves=15
num_cat=1
split_feature=11 12 10 5 5 10 5 8 1 1 3 5 11 5
split_gain=1.0143 0.337556 0.439047 0.317906 0.410867 0.313421 0.249963 0.331687 0.298611 0.274748 0.241139 0.201004 0.221218 0.170565
threshold=0.41354488432413405 0 21.500000000000004 -0.45181685721515047 0.26275091664063605 22.500000000000004 0.037062631625847373 -0.53699800385822904 0.58802883452250165 -0.44206204986157194 0.17170440166374182 -1.3456580024244544 0.51554671493462145 0.63237384191713464
decision_type=2 9 10 2 2 8 2 2 2 2 2 2 2 2
left_child=-1 2 -2 -4 -5 6 10 -8 9 -9 11 -3 -13 -11
right_child=1 5 3 4 -6 -7 7 8 -10 13 -12 12 -14 -15
leaf_value=-0.0020194978831568735 0.00010829664981437124 0.0017082565693770735 0.00012317281634284134 -0.0020229257333290872 -0.00051433429827664012 1.146012414463785e-05 0.00071398451428001926 0.00042995143726891897 0.00027510291767764237 -0.0013585677509362654 0.00020383004444210156 0.00015206743965323255 0.0010602118983614615 -0.00034174542070439928
leaf_weight=91 456 84 112 117 189 4841 238 84 342 132 470 201 230 136
leaf_count=91 456 84 112 117 189 4841 238 84 342 132 470 201 230 136
internal_value=2.35076e-05 4.91736e-05 -0.000317482 -0.000785264 -0.0011144 9.7118e-05 0.000313343 7.78172e-05 -0.000143896 -0.000549143 0.000534677 0.000831751 0.000643293 -0.000858278
internal_weight=7723 7632 874 418 306 6758 1917 932 694 352 985 515 431 268
internal_count=7723 7632 874 418 306 6758 1917 932 694 352 985 515 431 268
cat_boundaries=0 1
cat_threshold=320
is_linear=0
shrinkage=0.02


Tree=49
num_leaves=15
num_cat=3
split_feature=12 10 10 3 3 12 3 3 6 9 7 12 10 9
split_gain=0.428365 0.489905 0.338531 0.450177 0.470124 0.35642 0.225248 0.301731 0.224328 0.217854 0.222967 0.339773 0.270392 0.201687
threshold=0 21.500000000000004 23.500000000000004 0.60584608204084633 -0.88117460430056793 1 -0.59527907175531192 -0.33304247576793572 2.0862162274065335 0.81985354680504818 0.68560679729519247 2 22.500000000000004 1.2485685183908959
decision_type=9 10 8 2 2 9 2 2 2 2 2 9 10 2
left_child=1 -1 5 4 -4 -2 -6 -8 -9 10 -7 -12 -13 -11
right_child=2 -3 3 -5 6 9 7 8 -10 13 11 12 -14 -15
leaf_value=-8.2947548223948558e-06 0.00059738804935135787 -0.0013601556559782089 0.00043298568632949789 0.00037353244384745308 -0.00061982481500353975 0.00031819610762159732 0.00080879677844274307 -0.00019683328498637962 -0.0012171550177723417 -0.00062992678356143487 0.00076041191973606293 3.3167572149123973e-05 -0.00080825071531372876 7.8337902843327923e-05
leaf_weight=243 666 187 408 683 635 1540 110 1739 86 283 136 387 247 362
leaf_count=243 666 187 408 683 635 1540 110 1739 86 283 136 387 247 362
internal_value=1.0989e-05 -0.000591476 4.7692e-05 -8.78072e-05 -0.000194064 0.000184752 -0.000294258 -0.000186096 -0.000248108 8.85821e-05 0.000179593 -9.78778e-05 -0.000293802 -0.000234875
internal_weight=7712 430 7282 3661 2978 3621 2570 1935 1825 2955 2310 770 634 645
internal_count=7712 430 7282 3661 2978 3621 2570 1935 1825 2955 2310 770 634 645
cat_boundaries=0 1 2 3
cat_threshold=64 16 6
is_linear=0
shrinkage=0.02


Tree=50
num_leaves=15
num_cat=1
split_feature=11 12 9 11 11 2 0 0 3 4 11 0 2 4
split_gain=0.84352 0.314689 0.288321 0.265981 0.231064 0.606336 0.206892 0.205753 0.201009 0.191771 0.217415 0.17849 0.175408 0.171067
threshold=0.41354488432413405 0 -0.2548740260551034 0.48193433151502113 0.56375080298491398 0.025509186890859507 -0.87125791786085471 -0.047479463991739142 0.4698967706406913 0.13759612006917291 0.52512372469158664 -1.2960331286485534 0.52594773729219157 0.3853502722828786
decision_type=2 9 2 2 2 2 2 2 2 2 2 2 2 2
left_child=-1 9 6 7 -5 -6 11 8 -4 -2 -11 -3 13 -8
right_child=1 2 3 4 5 -7 12 -9 -10 10 -12 -13 -14 -15
leaf_value=-0.0019033491874034416 -9.1352955697430769e-05 -8.8624335086014082e-05 -0.000117591531210943 0.00031507825851430458 0.00086793988737432915 -0.00093326084823558224 0.0001108804431386214 0.00022163133645029386 -0.00093244611483598704 -0.00037795736219487625 -0.0014368660949912737 -0.0013486904485519821 -0.00077853018800590852 -0.0002209582363712588
leaf_weight=89 480 86 389 2640 115 194 1539 390 172 271 107 91 124 1035
leaf_count=89 480 86 389 2640 115 194 1539 390 172 271 107 91 124 1035
internal_value=-2.03244e-05 2.86307e-06 4.881e-05 0.000160816 0.000254508 -0.000259765 -0.000102975 -0.000129529 -0.000373452 -0.000354584 -0.000692546 -0.000755709 -5.88337e-05 -2.27209e-05
internal_weight=7722 7633 6775 3900 2949 309 2875 951 561 858 378 177 2698 2574
internal_count=7722 7633 6775 3900 2949 309 2875 951 561 858 378 177 2698 2574
cat_boundaries=0 1
cat_threshold=320
is_linear=0
shrinkage=0.02


Tree=51
num_leaves=15
num_cat=0
split_feature=11 11 10 10 3 3 2 5 2 2 2 3 0 0
split_gain=0.731574 0.381613 0.388939 0.333296 0.253559 0.278966 0.237809 0.316865 0.280454 0.307029 0.386794 0.156677 0.155485 0.191169
threshold=0.41354488432413405 0.48275997953718164 21.500000000000004 23.500000000000004 0.59186269827804205 -0.88117460430056793 -0.95453550028599887 0.51075925418302937 0.80811351595389536 0.26959619260659662 -0.29505045640666488 0.52607044063830599 1.3240438406103285 -0.7078247654068538
decision_type=2 2 10 8 2 2 2 2 2 2 2 2 2 2
left_child=-1 2 11 12 5 -5 -4 8 9 10 -8 -2 13 -3
right_child=1 3 6 4 -6 -7 7 -9 -10 -11 -12 -13 -14 -15
leaf_value=-0.0017654270067325104 -9.5484071492227526e-05 4.4645988828313647e-05 -0.0014293790443487048 0.00040408776812933241 0.00034795548016368187 -0.00023908246110635557 0.00052025672824136237 -0.0010323103695554891 -0.00086356706517916684 0.0010277523914480518 -0.0010742147421268255 0.00047153776352543657 -0.00037687289625821922 0.00039650872096208642
leaf_weight=87 934 897 102 311 510 1850 126 219 139 111 109 241 144 1988
leaf_count=87 934 897 102 311 510 1850 126 219 139 111 109 241 144 1988
internal_value=7.46771e-06 2.86841e-05 -0.000210113 0.000111788 -5.10498e-05 -0.000145802 -0.000547007 -0.000409984 -0.000121309 0.000184936 -0.000226279 2.2321e-05 0.000255227 0.000287375
internal_weight=7768 7681 1981 5700 2671 2161 806 704 485 346 235 1175 3029 2885
internal_count=7768 7681 1981 5700 2671 2161 806 704 485 346 235 1175 3029 2885
is_linear=0
shrinkage=0.02


Tree=52
num_leaves=15
num_cat=0
split_feature=11 11 10 3 7 7 5 10 6 2 0 10 6 2
split_gain=0.706231 0.485954 0.450271 0.261789 0.255378 0.254378 0.200705 0.166394 0.160169 0.177717 0.193664 0.192568 0.147674 0.138815
threshold=0.48275997953718164 0.41354488432413405 21.500000000000004 0.16006045989846709 -0.099645099328963913 0.11268929258403297 -1.0505632565915315 23.500000000000004 1.5215290212167349 -0.35911599038654601 -0.61049615920557809 23.500000000000004 -0.82779472185025116 -0.28850474779271024
decision_type=2 2 10 2 2 2 2 8 2 2 2 8 2 2
left_child=1 -1 -3 5 -5 -4 7 -2 9 10 -8 12 -12 -11
right_child=6 2 3 4 -6 -7 8 -9 -10 13 11 -13 -14 -15
leaf_value=-0.0017758663110858338 0.00069225332567623889 -2.9924631940750139e-06 -0.00070581602553080919 -0.00033427551461387309 -0.0015085037754180681 0.00022030687502142297 -0.00032087550317391571 0.00013134967340313686 -0.00043686645704733791 -0.00055340065930446314 0.0013506062004387707 0.00013067413295911293 0.00046775095141450378 3.0463074952095609e-05
leaf_weight=83 396 1161 278 124 193 201 200 454 239 168 86 802 544 2780
leaf_count=83 396 1161 278 124 193 201 200 454 239 168 86 802 544 2780
internal_value=-2.09612e-06 -0.00032075 -0.000254667 -0.000619436 -0.00106151 -0.000318931 0.000112754 0.000395185 6.2579e-05 8.90897e-05 0.000256185 0.000337616 0.000597953 -3.6907e-06
internal_weight=7709 2040 1957 796 317 479 5669 850 4819 4580 1632 1432 630 2948
internal_count=7709 2040 1957 796 317 479 5669 850 4819 4580 1632 1432 630 2948
is_linear=0
shrinkage=0.02


Tree=53
num_leaves=15
num_cat=3
split_feature=11 12 10 6 11 10 5 12 5 8 9 12 11 5
split_gain=0.77753 0.395113 0.355333 0.424634 0.247061 0.301617 0.243043 0.241508 0.235436 0.224623 0.249545 0.233401 0.207156 0.184003
threshold=0.41354488432413405 0 20.500000000000004 0.31956089816840966 0.48193433151502113 23.500000000000004 -0.64695224731018863 1 -0.50001648352434924 -0.38741356551646161 -0.2548740260551034 2 0.53898973515515058 1.4218674834449485
decision_type=2 9 10 2 2 8 2 9 2 2 2 9 2 2
left_child=-1 2 -2 -4 13 6 7 -6 -8 11 12 -10 -11 -3
right_child=1 4 3 -5 5 -7 8 -9 9 10 -12 -13 -14 -15
leaf_value=-0.0017988057338485591 4.0644570194393856e-05 -8.6170823720183178e-05 -0.0018468402977332586 -4.1038175829901145e-05 0.00097123997417057368 -3.6658412111229982e-05 -0.00067367508439360787 0.00020547402887395149 -0.0002599684548215898 -0.00077221033789304108 0.00021118903355949224 0.00072526116992765099 0.00031726573629393463 -0.0008361775503480729
leaf_weight=90 191 1691 128 86 326 2507 123 362 116 210 1197 475 100 137
leaf_count=90 191 1691 128 86 326 2507 123 362 116 210 1197 475 100 137
internal_value=-5.64072e-07 2.17557e-05 -0.000574757 -0.00113865 5.61946e-05 0.00012411 0.000262486 0.000589692 0.000160031 0.000210394 8.0117e-05 0.000539131 -0.000421309 -0.000144508
internal_weight=7739 7649 405 214 7244 5416 2909 688 2221 2098 1507 591 310 1828
internal_count=7739 7649 405 214 7244 5416 2909 688 2221 2098 1507 591 310 1828
cat_boundaries=0 1 2 3
cat_threshold=64 156 136
is_linear=0
shrinkage=0.02


Tree=54
num_leaves=15
num_cat=3
split_feature=12 6 4 10 12 4 0 7 0 7 10 0 6 12
split_gain=0.426463 0.33123 0.312689 0.254239 0.354511 0.351977 0.280394 0.33647 0.262168 0.209833 0.213891 0.191496 0.188462 0.169331
threshold=0 0.91494303193595095 1.1443402187720648 23.500000000000004 1 -0.37904331634029104 -0.16376815611378379 0.31429187955355542 -1.4970737740095907 -0.20132422223663018 21.500000000000004 -0.71973427024522152 0.23492828476598784 2
decision_type=9 2 2 8 9 2 2 2 2 2 10 2 2 9
left_child=1 9 3 4 5 8 -7 -8 -2 -1 -11 -10 -12 -4
right_child=2 -3 13 -5 -6 6 7 -9 11 10 12 -13 -14 -15
leaf_value=0.00042707833592635645 0.00061450109536632556 -0.0013391694687564177 -0.00097152976836902124 -4.1885114993309298e-05 0.00042408750879041114 -9.2186049279132791e-05 0.0012146655323297421 4.0002777702104173e-05 -0.0011554839139362465 -5.7542780234733984e-05 -0.0011810455153075357 -0.00029851031889588093 -6.3902063597429622e-05 -0.00019117797966902768
leaf_weight=137 83 133 122 3006 1564 452 194 192 151 297 187 331 89 717
leaf_count=137 83 133 122 3006 1564 452 194 192 151 297 187 331 89 717
internal_value=-1.60363e-05 -0.000436254 3.68342e-05 8.77399e-05 0.000218918 -1.34054e-05 0.000246109 0.000638361 -0.000397331 -0.000265035 -0.000432778 -0.000576088 -0.000828354 -0.000323509
internal_weight=7655 843 6812 5973 2967 1403 838 386 565 710 573 482 276 839
internal_count=7655 843 6812 5973 2967 1403 838 386 565 710 573 482 276 839
cat_boundaries=0 1 2 3
cat_threshold=320 517 128
is_linear=0
shrinkage=0.02


Tree=55
num_leaves=15
num_cat=3
split_feature=12 9 9 7 7 7 5 12 5 3 3 12 6 6
split_gain=0.297832 0.370141 0.330409 0.289673 0.243674 0.241864 0.276122 0.235138 0.23175 0.276571 0.177292 0.159341 0.215046 0.213187
threshold=0 -0.2548740260551034 0.60275002894786411 -0.20132422223663018 0.84134354034337744 1.0000000180025095e-35 1.0288715073298009 1 1.4218674834449485 -1.9670886900215081 -1.0948045750840345 2 0.12604506004361082 -0.45770554682742115
decision_type=9 2 2 2 2 2 2 9 2 2 2 9 2 2
left_child=3 5 4 -1 -3 -2 10 -6 9 -4 -7 13 -13 -11
right_child=1 2 8 -5 7 6 -8 -9 -10 11 -12 12 -14 -15
leaf_value=0.00038511029871947627 5.9750627336677271e-05 0.00023611162143253689 0.00098895148748332374 -0.00054112130553565091 0.00023170162072535508 0.00066392768352302944 -0.0010086283518944701 0.0013122642160505876 -0.0007525853327627805 -0.00067191095620156049 -0.00026230881617043424 0.00045833312396764719 -0.00030682007183160812 1.6915668417271666e-05
leaf_weight=165 1400 1973 107 670 178 84 190 167 162 281 1203 414 222 483
leaf_count=165 1400 1973 107 670 178 84 190 167 162 281 1203 414 222 483
internal_value=4.98614e-07 4.41386e-05 0.000168873 -0.000352692 0.000323108 -0.000128561 -0.000306655 0.000810144 -4.56616e-05 3.2569e-05 -0.00019952 -4.37852e-05 0.000188008 -0.000236087
internal_weight=7699 6864 3987 835 2318 2877 1477 345 1669 1507 1287 1400 636 764
internal_count=7699 6864 3987 835 2318 2877 1477 345 1669 1507 1287 1400 636 764
cat_boundaries=0 1 2 3
cat_threshold=320 649 519
is_linear=0
shrinkage=0.02


Tree=56
num_leaves=15
num_cat=2
split_feature=11 10 12 3 9 7 12 2 10 9 10 11 11 9
split_gain=0.700049 0.264646 0.256544 0.249687 0.263199 0.22362 0.199373 0.289021 0.382016 0.271604 0.28674 0.250767 0.21287 0.23207
threshold=0.41354488432413405 23.500000000000004 0 0.50582778994716138 -0.17864985782653095 1.0000000180025095e-35 1 0.46711356357371708 21.500000000000004 0.90423218977154785 20.500000000000004 0.54097190466460132 0.50840790863385299 0.60275002894786411
decision_type=2 10 9 2 2 2 9 2 10 2 10 2 2 2
left_child=-1 3 -3 4 5 -2 7 8 -6 10 -8 12 13 -9
right_child=1 2 -4 -5 6 -7 9 11 -10 -11 -12 -13 -14 -15
leaf_value=-0.0017326108285863149 2.5804528278020357e-05 0.00025634550454875304 -0.00077422793943148394 0.00030899128984512815 1.0746606298276696e-05 -0.00034574131426616739 2.1368971801457871e-05 0.00075527766348656132 -0.00097097390795320164 -8.8093672144410224e-05 0.00058226689398554901 -0.00064870820384832061 0.00087041305376466341 -0.00042243144295339751
leaf_weight=90 1185 133 310 1046 367 1423 613 103 274 868 896 109 207 171
leaf_count=90 1185 133 310 1046 367 1423 613 103 274 868 896 109 207 171
internal_value=-2.62473e-05 -5.20502e-06 -0.000476975 2.38825e-05 -2.43041e-05 -0.000177195 8.63038e-05 -0.000119669 -0.000413164 0.000192693 0.000355237 0.000197978 0.000394547 2.58855e-05
internal_weight=7795 7705 443 7262 6216 2608 3608 1231 641 2377 1509 590 481 274
internal_count=7795 7705 443 7262 6216 2608 3608 1231 641 2377 1509 590 481 274
cat_boundaries=0 1 2
cat_threshold=140 836
is_linear=0
shrinkage=0.02


Tree=57
num_leaves=15
num_cat=0
split_feature=11 11 10 3 7 5 7 7 0 3 10 8 0 7
split_gain=0.555379 0.228647 0.244642 0.260495 0.282313 0.191246 0.223273 0.188985 0.187687 0.232681 0.174695 0.18469 0.177439 0.22845
threshold=0.41751414897945166 0.48275997953718164 21.500000000000004 0.4182553201313684 -0.099645099328963913 -0.39204196866330954 0.10154772564115903 0.68560679729519247 -0.68659530075701769 0.37829232883601521 20.500000000000004 -0.1022672384781204 0.24953248644008236 1.0885801356032871
decision_type=2 2 10 2 2 2 2 2 2 2 10 2 2 2
left_child=-1 2 -2 5 -5 6 -4 -3 9 -9 11 -10 13 -12
right_child=1 7 3 4 -6 -7 -8 8 10 -11 12 -13 -14 -15
leaf_value=-0.0015725508251966075 3.203629213937537e-05 0.00017115626115235611 -0.00034600782734544379 -9.2975294456454537e-05 -0.0014535716103992059 -0.00042828677277644076 0.0010450095679373184 -5.8860919932683004e-05 3.2076154397456872e-05 -0.001068182084769106 9.2099072214484487e-05 -0.00079935081540158089 -0.00011175616385494672 0.0010751751312412896
leaf_weight=82 1188 4067 87 99 157 362 89 222 299 151 217 161 320 164
leaf_count=82 1188 4067 87 99 157 362 89 222 299 151 217 161 320 164
internal_value=1.63384e-05 3.4545e-05 -0.00014983 -0.000420439 -0.000939264 -0.000167188 0.000366841 9.98643e-05 -8.90897e-05 -0.000476185 3.67828e-05 -0.000264389 0.000234886 0.000523706
internal_weight=7665 7583 1982 794 256 538 176 5601 1534 373 1161 460 701 381
internal_count=7665 7583 1982 794 256 538 176 5601 1534 373 1161 460 701 381
is_linear=0
shrinkage=0.02


Tree=58
num_leaves=15
num_cat=2
split_feature=11 12 10 11 9 9 0 10 2 7 9 1 0 12
split_gain=0.65879 0.292791 0.338249 0.253898 0.226147 0.224189 0.200017 0.204439 0.362803 0.22243 0.202997 0.222406 0.19459 0.19282
threshold=0.41751414897945166 0 20.500000000000004 0.48275997953718164 -0.2487092328143283 0.91331170163923925 -0.86371375628541791 22.500000000000004 0.42550888291596983 -0.91943630228845208 -0.61828498825762035 -0.2056993732707377 -0.95997125492821456 1
decision_type=2 9 10 2 2 2 2 8 2 2 2 2 2 9
left_child=-1 2 -2 -3 6 13 -5 9 -9 -8 -11 -12 -7 -6
right_child=1 3 -4 4 5 12 7 8 -10 10 11 -13 -14 -15
leaf_value=-0.0016323534879043248 6.904216592512006e-05 -0.00016381134183386051 -0.0010607661519208235 -0.00076159692468956625 5.1164332828451452e-05 0.00032422606001195851 0.0012458370426571088 -3.7045177573695096e-05 -0.0013663305818898089 0.00046047856531015806 -0.001100227137688886 0.00033622886032559147 -0.0002639735101173793 0.0004598277386245187
leaf_weight=94 207 1816 211 140 690 361 85 1473 82 305 83 81 579 1471
leaf_count=94 207 1816 211 140 690 361 85 1473 82 305 83 81 579 1471
internal_value=-1.14014e-05 9.7518e-06 -0.000495355 4.01748e-05 0.000109579 0.000220181 -4.30726e-05 6.31308e-06 -0.000111297 0.000334471 0.000157899 -0.000401801 -3.75596e-05 0.000332121
internal_weight=7678 7584 418 7166 5350 3101 2249 2109 1555 554 469 164 940 2161
internal_count=7678 7584 418 7166 5350 3101 2249 2109 1555 554 469 164 940 2161
cat_boundaries=0 1 2
cat_threshold=64 772
is_linear=0
shrinkage=0.02


Tree=59
num_leaves=15
num_cat=3
split_feature=11 11 10 5 9 12 12 3 3 12 10 9 6 9
split_gain=0.808739 0.315637 0.383853 0.319951 0.309133 0.273169 0.2369 0.218868 0.195248 0.22513 0.294388 0.272871 0.202584 0.203223
threshold=0.41751414897945166 0.48275997953718164 21.500000000000004 -0.39204196866330954 -0.2487092328143283 0 1 0.16006045989846709 0.50582778994716138 2 23.500000000000004 0.60275002894786411 -0.33067220495610211 0.54483972833168903
decision_type=2 2 10 2 2 9 9 2 2 9 8 2 2 2
left_child=-1 2 -2 6 -3 -5 -4 -7 9 12 11 -11 -6 -14
right_child=1 4 3 5 8 7 -8 -9 -10 10 -12 -13 13 -15
leaf_value=-0.0018397641097544692 1.9456357749518697e-05 -9.1866763608852885e-05 0.00067072101597358865 -0.0016357976969317604 0.00027738003893723037 -0.00016353750802051766 -0.00046680553182367384 -0.001101128048483773 0.00065933628530450621 0.00063733921368253706 -3.9998254398535047e-05 0.00011157743272328341 -0.0012642925093746466 -6.1115949014365153e-05
leaf_weight=91 1189 2361 112 119 139 252 158 162 338 840 1051 746 112 109
leaf_count=91 1189 2361 112 119 139 252 158 162 338 840 1051 746 112 109
internal_value=-1.54316e-05 7.34404e-06 -0.000209043 -0.000545409 8.31358e-05 -0.00082735 1.6088e-05 -0.000526614 0.00020698 0.000154951 0.000218744 0.000391167 -0.000306525 -0.000685352
internal_weight=7779 7688 1992 803 5696 533 270 414 3335 2997 2637 1586 360 221
internal_count=7779 7688 1992 803 5696 533 270 414 3335 2997 2637 1586 360 221
cat_boundaries=0 1 2 3
cat_threshold=448 346 320
is_linear=0
shrinkage=0.02


Tree=60
num_leaves=15
num_cat=2
split_feature=11 11 9 12 9 9 0 11 7 7 12 7 0 0
split_gain=0.955712 0.341335 0.296132 0.230916 0.296563 0.229649 0.225896 0.197978 0.196098 0.190047 0.186452 0.176277 0.221475 0.170643
threshold=0.41354488432413405 0.48275997953718164 -0.2548740260551034 0 0.90423218977154785 0.71533856142668195 -0.71973427024522152 0.54459402675526458 1.755546888403668 -1.1891814638153739 1 0.11268929258403297 0.31447817191252553 0.12916706882819709
decision_type=2 2 2 9 2 2 2 2 2 2 9 2 2 2
left_child=-1 9 6 5 -5 -4 -3 -6 -8 -2 11 -11 -13 -12
right_child=1 2 3 4 7 -7 8 -9 -10 10 13 12 -14 -15
leaf_value=-0.0019887819462123192 0.00032141058251519488 -0.00074016270763240758 -0.0003943445474487617 0.00042373150827732919 0.00016075951330755375 0.00040179654496761276 3.1867231768721019e-06 -0.00049932783161279234 -0.00096650368988984963 -0.00034748318949033693 -0.00068781481577435066 0.00071394570263588958 -0.00038770946957494904 -0.00019148533983892114
leaf_weight=93 219 195 450 1826 668 208 2026 244 82 314 588 198 110 530
leaf_count=93 219 195 450 1826 668 208 2026 244 82 314 588 198 110 530
internal_value=-2.62385e-05 -1.12292e-06 7.71775e-05 0.000195786 0.000275957 -0.000139441 -9.7767e-05 -1.76025e-05 -3.67315e-05 -0.000228526 -0.000298465 -1.64878e-05 0.000320589 -0.000450414
internal_weight=7751 7658 5699 3396 2738 658 2303 912 2108 1959 1740 622 308 1118
internal_count=7751 7658 5699 3396 2738 658 2303 912 2108 1959 1740 622 308 1118
cat_boundaries=0 1 2
cat_threshold=324 26
is_linear=0
shrinkage=0.02


Tree=61
num_leaves=15
num_cat=0
split_feature=11 10 5 11 1 1 5 9 8 11 11 10 6 6
split_gain=0.485669 0.27162 0.246303 0.274138 0.14517 0.192371 0.261262 0.184512 0.144839 0.1396 0.1369 0.342991 0.222494 0.193683
threshold=0.41354488432413405 22.500000000000004 0.20929146767786549 0.46674113548636681 -0.44206204986157194 0.58802883452250165 0.5867802096051733 0.11734000703849555 -0.39015720400898185 0.56668593698828806 0.48193433151502113 22.500000000000004 0.90051647253332467 -0.21206728073188549
decision_type=2 8 2 2 2 2 2 2 2 2 2 10 2 2
left_child=-1 2 9 -4 -5 6 -6 -7 -8 -2 11 -3 13 -13
right_child=1 10 3 4 5 7 8 -9 -10 -11 -12 12 -14 -15
leaf_value=-0.0014443374844921983 0.00049128981962084884 9.8278820300264154e-06 -0.00094464504765136889 0.00071912825525531729 -0.0011612708700785988 0.00095683607707677549 0.00065687132280562886 3.4750381908250148e-06 -0.00034253473665007647 -0.00022758666662590912 3.1259524355868452e-05 -0.0008374989048340716 -0.0015566440667299664 1.4458276168882567e-05
leaf_weight=84 1089 1106 106 128 102 116 87 247 152 117 3923 215 80 207
leaf_count=84 1089 1106 106 128 102 116 87 247 152 117 3923 215 80 207
internal_value=2.46272e-05 4.16344e-05 0.000232455 -1.07746e-05 0.000113136 -1.33836e-06 -0.00033989 0.000316992 2.72713e-05 0.000420896 -3.24771e-05 -0.000187589 -0.000618342 -0.00042432
internal_weight=7759 7675 2144 938 832 704 341 363 239 1206 5531 1608 502 422
internal_count=7759 7675 2144 938 832 704 341 363 239 1206 5531 1608 502 422
is_linear=0
shrinkage=0.02


Tree=62
num_leaves=15
num_cat=3
split_feature=12 10 3 10 12 3 4 5 6 12 6 6 5 3
split_gain=0.388087 0.369553 0.347465 0.346047 0.284108 0.46609 0.254623 0.258607 0.245451 0.244512 0.277099 0.293206 0.20181 0.197859
threshold=0 23.500000000000004 0.52607044063830599 21.500000000000004 1 0.077324176037855005 0.28437771895723846 -0.45181685721515047 0.45295575165252572 2 -0.65580594940651504 0.14053001939531704 -0.20141690938728599 -1.6770461024939398
decision_type=9 8 2 10 9 2 2 2 2 9 2 2 2 2
left_child=3 9 4 -1 -3 -6 7 -5 -8 10 -2 12 -12 -11
right_child=1 2 -4 6 5 -7 8 -9 -10 13 11 -13 -14 -15
leaf_value=-2.6802518409963562e-05 -0.00013683485396410295 -0.00056374431167800017 0.00031121489061695012 0.00045785603965933043 0.00025828721576219604 -0.00033545267385139599 -0.00056455454687405937 -0.00088089916441259127 -0.0021128566890844815 0.0007222722411259181 0.001512657617668141 0.00025754312568981782 0.00061941621980143033 -6.78840212001488e-06
leaf_weight=466 301 631 666 88 912 1245 82 150 88 157 152 626 325 1840
leaf_count=466 301 631 666 88 912 1245 82 150 88 157 152 626 325 1840
internal_value=-2.97368e-06 4.79179e-05 -9.76641e-05 -0.000396169 -0.00019572 -8.40085e-05 -0.000822205 -0.000386662 -0.0014035 0.000195836 0.000396429 0.000545491 0.000916794 5.19302e-05
internal_weight=7729 6855 3454 874 2788 2157 408 238 170 3401 1404 1103 477 1997
internal_count=7729 6855 3454 874 2788 2157 408 238 170 3401 1404 1103 477 1997
cat_boundaries=0 1 2 3
cat_threshold=320 18 26
is_linear=0
shrinkage=0.02


Tree=63
num_leaves=15
num_cat=2
split_feature=3 1 12 4 9 9 5 3 4 5 4 3 0 12
